{"conn1.weight": [[0.7645385265350342, 0.8300079107284546, -0.23427248001098633, 0.9186112880706787, -0.21910357475280762, 0.2017906904220581, -0.48685503005981445, 0.587282657623291, -0.10648816078901291, 0.1987016350030899, 0.10202165693044662, -0.06669118255376816, 0.19867756962776184, 0.24077746272087097, 0.015106238424777985, 0.08229156583547592, -0.10013309121131897, 0.012879602611064911, -0.11678498983383179, -0.0699060782790184, 0.21258963644504547, 0.10657864809036255, 0.05249148607254028, -0.07179895043373108, -0.020244773477315903, 0.009593166410923004, 0.059548910707235336, 0.03855973854660988, 0.07267767190933228, -0.014066056348383427, 0.18065807223320007, 0.03879160434007645, -0.1472129374742508, -0.04495399445295334, -0.1749020367860794, 0.14743471145629883, -0.012739712372422218, -0.02258356846868992, 0.19405949115753174, -0.02992350421845913, 0.14786496758460999, 0.28676533699035645, 0.193536639213562, 0.35857638716697693, 0.18580305576324463, -0.056489359587430954, 0.13195545971393585, 0.047608163207769394, 0.26679176092147827, -0.0012443054001778364, -0.2769639790058136, -0.09269155561923981, -0.27559998631477356, -0.10173629969358444, 0.0026539296377450228, 0.1288907676935196, 0.3162611722946167, -0.017395973205566406, 0.7826082706451416, -0.7105135917663574, 0.06296372413635254, -0.6825401782989502, 0.308351993560791, -0.34438228607177734, -0.08153311163187027, -0.2429903894662857, 0.0312278363853693, -0.010600568726658821, 0.07385391741991043, 0.03538281470537186, -0.011825155466794968, 0.021419722586870193, -0.0634392723441124, -0.00010057163308374584, 0.1078275516629219, 0.045232731848955154, 0.04463021829724312, 0.067209891974926, 0.022724855691194534, -0.004589833784848452, -0.029531242325901985, -0.04241383448243141, -0.1487044095993042, -0.06294840574264526, 0.03852055221796036, 0.01664341241121292, -0.00566716305911541, -0.08823762089014053, -0.06716690957546234, -0.06194669380784035, -0.08173184841871262, -0.07029498368501663, -0.024557383731007576, -0.005278139375150204, 0.1284313052892685, 0.043360721319913864, -0.04660313203930855, 0.030819611623883247, 0.010427878238260746, 0.11947400122880936, 0.08713047206401825, -0.14216987788677216, 0.05456603318452835, -0.052906475961208344, -0.039534419775009155, 0.06299256533384323, -0.06495802849531174, -0.02962319739162922, -0.10685298591852188, 0.06700663268566132, -0.008334198966622353, -0.031002983450889587, -0.12621639668941498, -0.1720036417245865, -0.17573007941246033, -0.013071184977889061, -0.06460919231176376, -0.010672572068870068, 0.07700227946043015, 0.12130026519298553, -0.07005620747804642, 0.03345784544944763, -0.18494568765163422, -0.06928100436925888, -0.049958910793066025, -0.04049910232424736, -0.023241618648171425, -0.10315743833780289, 0.0023824316449463367, 0.007192879915237427, -0.07676900178194046, -0.07927368581295013, 0.006162783596664667, 0.10592993348836899, -0.12132018804550171, -0.08104662597179413, -0.18196044862270355, 0.04809923097491264, 0.053338631987571716, -0.08143674582242966, 0.050240859389305115, 0.006128101143985987, 0.010908368043601513, -0.2836935520172119, -0.2680162489414215, -0.06132318824529648, -0.05412108823657036, -0.13506677746772766, -0.012134309858083725, 0.04686710610985756, 0.03992198780179024, 0.014495699666440487, -0.02393677458167076, -0.011973664164543152, -0.05825334042310715, -0.03671145439147949, 0.05355864763259888, -0.057693153619766235, -0.06424259394407272, -0.08177468925714493, 0.12555135786533356, 0.057816267013549805, -0.14300839602947235, -0.03655824437737465, -0.05284569039940834, 0.08363155275583267, -0.06034781038761139, 0.10588783025741577, -0.01851349137723446, -0.15711110830307007, 0.0811731219291687, -0.20581205189228058, -0.04995850473642349, 0.003904816461727023, -0.013240041211247444, -0.07574827969074249, -0.03129512816667557, -0.09775757789611816, -0.2694514989852905, 0.10701724886894226, -0.08488855510950089, -0.06698532402515411, -0.008246468380093575, 0.01775512471795082, 0.0331399030983448, -0.10022033751010895, -0.07108167558908463, -0.053812723606824875, 0.007553864736109972, -0.14565736055374146, -0.1218118667602539, -0.21769089996814728, -0.15992440283298492, -0.04449364170432091, -0.10319875180721283, -0.24374008178710938, -0.012712703086435795, -0.08993276208639145, -0.2426726371049881, -0.16448217630386353, -0.04560213163495064, -0.2326788306236267, -0.23663045465946198, 0.008275938220322132, -0.10613831877708435, -0.043865326792001724, -0.25875335931777954, -0.27936479449272156, -0.056491654366254807, -0.13123449683189392, -0.2650700807571411, 0.053892865777015686, -0.053038302809000015, 0.03909531235694885, -0.04603836312890053, -0.17614628374576569, -0.02702339179813862, -0.10987430810928345, -0.1310814917087555, -0.048639487475156784, -0.07630586624145508, -0.02418111078441143, -0.13243581354618073, -0.0752294659614563, 0.10702695697546005, -0.04877359792590141, -0.15446984767913818, 0.0866149365901947, -0.0760989636182785, -0.04784315824508667, -0.03841126337647438, -0.058903977274894714, -0.15903683006763458, -0.20645570755004883, -0.2809349298477173, -0.02802187390625477, -0.16696323454380035, -0.13094013929367065, -0.14428448677062988, -0.12790913879871368, 0.0391458123922348, 0.0015740261878818274, -0.008085976354777813, 0.21796801686286926, 0.1638658195734024, 0.23964332044124603, 0.14570897817611694, 0.08531399071216583, -0.19991154968738556, -0.21073903143405914, -0.2778681516647339, -0.021649545058608055, -0.23052731156349182, -0.1598326563835144, -0.15387088060379028, -0.1512354463338852, -0.21228720247745514, -0.23814520239830017, -0.17257606983184814, -0.26980412006378174, -0.17278267443180084, -0.15823008120059967, -0.3394005298614502, -0.23162075877189636, -0.26565417647361755, -0.33290228247642517, -0.210692897439003, -0.10171163082122803, -0.08850226551294327, -0.20267832279205322, -0.3343486785888672, -0.3039930462837219, -0.3403436243534088, -0.23262542486190796, -0.2967311441898346, -0.21660113334655762, -0.15814810991287231, -0.001976523082703352, 0.042712219059467316, -0.19157645106315613, -0.1613827496767044, -0.2659492790699005, -0.20420770347118378, -0.2654503583908081, -0.21007879078388214, -0.03772212564945221, -0.22088055312633514, -0.5187922716140747, -0.17633765935897827, -0.300036758184433, -0.31167399883270264, -0.3244059681892395, -0.10716595500707626, -0.21113649010658264, -0.27513235807418823, -0.21570277214050293, -0.3923998475074768, -0.4849829077720642, -0.3511330485343933, -0.2774341106414795, -0.20724989473819733, -0.446860134601593, -0.2490519881248474, -0.40592238306999207, -0.15651661157608032, -0.13208778202533722, -0.29007387161254883, -0.18051762878894806, -0.32599765062332153, -0.1564953774213791, -0.35070574283599854, -0.27001261711120605, -0.2924076020717621, -0.377653568983078, -0.2697182595729828, -0.04553116112947464, -0.1249224990606308, -0.22290830314159393, -0.34257131814956665, -0.2188892513513565, -0.24726839363574982, -0.1597079336643219, -0.192490816116333, -0.15002761781215668, -0.05279302969574928, -0.13881978392601013, -0.01781427673995495, -0.007910354994237423, -0.22459614276885986, -0.12079296261072159, -0.03294386342167854, -0.12980963289737701, -0.006945733912289143, -0.02829533815383911, -0.09821479022502899, -0.07231596857309341, -0.19601066410541534, -0.07891137897968292, -0.11880402266979218, -0.06601220369338989, 0.20898747444152832, 0.06332244724035263, 0.11871464550495148, -0.0008291310514323413, -0.19437414407730103, -0.07601433247327805, 0.011158366687595844, -0.0014569723280146718, 0.17031092941761017, 0.09682439267635345, 0.004637706093490124, -0.14922165870666504, -0.18700815737247467, -0.09706790000200272, -0.23640242218971252, 0.017227400094270706, 0.09470618516206741, 0.14948461949825287, 0.04897984489798546, -0.0022655127104371786, -0.3019047677516937, -0.13929425179958344, -0.2129756510257721, -0.3321433961391449, -0.026025524362921715, 0.024182965978980064, -0.05335249751806259, -0.2182585746049881, -0.15875950455665588, 0.03332960605621338, -0.15571454167366028, -0.11587382107973099, -0.07649095356464386, -0.0931529700756073, -0.0038135224021971226, -0.09915687888860703, -0.08152167499065399, -0.16572782397270203, -0.1789904236793518, -0.12453002482652664, -0.30498579144477844, -0.20334841310977936, -0.1456964910030365, -0.15289625525474548, 0.014042377471923828, 0.9098089933395386, -0.8520514965057373, -0.3819591999053955, 0.5832529067993164, -0.21786785125732422, -0.20470023155212402, -0.4167916774749756, 0.4925692677497864, -0.18304501473903656, -0.6885828971862793, 0.8527944087982178, -0.5628655552864075, 0.4191110134124756, -0.14838062226772308, -0.11838877201080322, 0.4652756452560425, 0.20030462741851807, 0.08916830271482468, 0.7791630029678345, -0.19162358343601227, 0.2667669653892517, 0.5573907494544983, 0.07080217450857162, 0.146799236536026, -0.18342432379722595, -0.020332995802164078, 0.04333306476473808, 0.09357824176549911, -0.031126419082283974, -0.057316917926073074, -0.3472774028778076, 0.07281578332185745, 0.10959526896476746, 0.0778321847319603, 0.06233060732483864, 0.06918357312679291, 0.19097159802913666, -0.11860008537769318, 0.1967574954032898, 0.03502083942294121, 0.1348855197429657, 0.019909586757421494, 0.07182608544826508, 0.1908273696899414, 0.285251259803772, 0.037596236914396286, 0.3076510429382324, 0.360734760761261, 0.0791834369301796, 0.37654516100883484, 0.2676785886287689, 0.17106294631958008, 0.1426573097705841, -0.09454047679901123, 0.1548290103673935, -0.3021984100341797, 0.727126955986023, -0.025997161865234375, 0.7805994749069214, 0.9614804983139038, -0.48719096183776855, -0.7295091152191162, 0.8023020029067993, 0.2800673246383667, -0.5483031272888184, -0.4103642702102661, 0.5369225740432739, 0.0004220338596496731, 0.19891583919525146, 0.0662260428071022, -0.5836027264595032, -0.07966279983520508, -0.7085397839546204, -0.4149692952632904, 0.5832894444465637, -0.5230488181114197, 0.01226776372641325, 0.1231638714671135, 0.051050566136837006, 0.266692578792572, -0.07169032841920853, -0.06158261001110077, 0.4541139304637909, -0.1880955845117569, 0.18882562220096588, 0.6488526463508606, 0.164227694272995, 0.11728942394256592, 0.45987468957901, 0.2486615926027298, 0.2822049558162689, 0.11781376600265503, 0.34791338443756104, -0.4225730001926422, 0.09826937317848206, 0.2595045566558838, -0.09271175414323807, -0.5011618733406067, -0.24413475394248962, 0.30870547890663147, 0.17137102782726288, -0.03227311000227928, -0.19592377543449402, 0.27139171957969666, -0.20736423134803772, -0.14288973808288574, -0.23172777891159058, 0.16501523554325104, 0.14945979416370392, 0.08950011432170868, 0.17816054821014404, 0.3556971848011017, 0.5270904898643494, 0.24109941720962524, 0.6831316947937012, 0.28879114985466003, 0.3807274103164673, 0.09810733050107956, 0.2313900738954544, 0.03165920451283455, 0.05055934563279152, 0.2712949812412262, 0.11602994799613953, 0.15657295286655426, -0.04709542915225029, 0.007293096277862787, 0.11677247285842896, 0.2787020802497864, -0.2315250039100647, -0.5217608213424683, 0.9160275459289551, -0.385357141494751, 0.2774263918399811, -0.04595566913485527, -0.17974382638931274, 0.03705369681119919, -0.740203320980072, -0.7252548336982727, 0.4773620069026947, -0.8939765691757202, 0.10851038247346878, 0.4610669016838074, -0.07398694008588791, 0.504309892654419, 0.009838948957622051, -0.06762195378541946, 0.6197431683540344, -0.18088789284229279, -0.05089128762483597, 0.5632907152175903, 0.10483482480049133, -0.24971024692058563, 0.2806062698364258, 0.20226627588272095, -0.18736997246742249, 0.5481522083282471, 0.2242194563150406, -0.6288900971412659, -0.08740082383155823, 0.04574210196733475, 0.055219218134880066, -0.08950475603342056, 0.13308311998844147, 0.024054892361164093, 0.055401552468538284, -0.18590417504310608, 0.03297686576843262, 0.40378835797309875, -0.5692347884178162, -0.21214739978313446, -0.3824409544467926, -0.06640974432229996, 0.3463871479034424, 0.10501588135957718, 0.0922628715634346, 0.399771124124527, 0.2313910573720932, 0.4998912215232849, 0.7638431787490845, 0.40722501277923584, 0.21759383380413055, -0.0907486230134964, 0.24770581722259521, 0.12305963039398193, -0.033837974071502686, -0.2178480178117752, -0.0872153714299202, -0.15235282480716705, 0.30155590176582336, 0.11190497875213623, -0.1346769779920578, 0.039350464940071106, -0.15713784098625183, -0.7102711200714111, 0.8012276291847229, 0.05918104946613312, 0.2478654682636261, -0.15480761229991913, -0.3799092471599579, -0.10751243680715561, -0.007999544963240623, -0.1741238236427307, 0.3962603807449341, -0.21741439402103424, 0.20692937076091766, 0.08097902685403824, -0.05392586439847946, -0.23037827014923096, -0.13474993407726288, 0.44882267713546753, -0.22115162014961243, -0.10445249080657959, -0.2604966461658478, 0.42906349897384644, -0.1492414027452469, 0.004055768717080355, 0.2724951207637787, 0.2319892793893814, -0.23706811666488647, 0.3745712339878082, 0.3155631422996521, -0.143492192029953, 0.008079967461526394, 0.042587488889694214, 0.4148164391517639, -0.05533221364021301, -0.21788325905799866, 0.4312645196914673, 0.05061812698841095, -0.08705993741750717, 0.15305988490581512, 0.24709245562553406, -0.0811692476272583, 0.24390679597854614, -0.5614836812019348, 0.108065165579319, 0.3913569152355194, 0.12108355015516281, 0.11621318012475967, -0.1767946481704712, -0.29154708981513977, -0.1550949364900589, 0.6335604190826416, -0.4330025017261505, -0.555404782295227, -0.2297816425561905, -0.20950333774089813, 0.013973070308566093, 0.23013105988502502, 0.19116245210170746, -0.35930225253105164, 0.22382260859012604, 0.14222827553749084, 0.14697302877902985, 0.11577977240085602, 0.06516378372907639, -0.5261093378067017, -0.9120596647262573, 0.9922026991844177, -0.42305225133895874, -0.084867924451828, -0.1675584763288498, -0.39190226793289185, -0.12426790595054626, -0.6445493698120117, -0.706447422504425, 0.5484750270843506, -0.6720377206802368, -0.0352587029337883, -0.23068936169147491, -0.34282246232032776, -0.038637734949588776, -0.19873014092445374, 0.13325369358062744, 0.15489831566810608, -0.30169540643692017, -0.3471342623233795, 0.5535502433776855, -0.22593310475349426, -0.4195430278778076, 0.04245072975754738, -0.028134701773524284, -0.49601778388023376, 0.338812917470932, 0.10819439589977264, -0.6440734267234802, -0.1851818561553955, -0.11962176859378815, -0.03364710882306099, -0.4032634198665619, -0.3787938356399536, 0.053143229335546494, -0.16049860417842865, -0.4451858401298523, 0.02701747976243496, 0.1292051523923874, -0.8177632093429565, -0.37831711769104004, -0.8865562677383423, -0.1796765774488449, 0.45483261346817017, -0.06830032914876938, -0.010940064676105976, -0.20684663951396942, -0.33013609051704407, -0.057591311633586884, 0.9849240183830261, -0.14460690319538116, -0.47477659583091736, -0.47184547781944275, -0.13052669167518616, -0.14609019458293915, -0.05770216882228851, -0.31062957644462585, -0.5206489562988281, -0.14561760425567627, 0.19635853171348572, 0.18137609958648682, -0.13532066345214844, 0.0924987867474556, 0.4336565434932709, 0.14885614812374115, 0.419334352016449, -0.15895745158195496, 0.3361290693283081, 0.0487508624792099, 0.23584797978401184, 0.11043211817741394, -0.01630370318889618, -0.2995704114437103, 0.19388079643249512, -0.2914446294307709, 0.1878407746553421, -0.1538330763578415, 0.06665053963661194, 0.2531657814979553, -0.01859930157661438, 0.4843805730342865, 0.548163115978241, 0.14653471112251282, 0.40861743688583374, 0.27771419286727905, 0.4137023985385895, 0.14740709960460663, 0.0031304850708693266, 0.11161208152770996, 0.1018727570772171, 0.23265132308006287, 0.45586422085762024, 0.01663917489349842, 0.2642422616481781, 0.19202770292758942, 0.44102776050567627, 0.36649903655052185, 0.30327102541923523, 0.4461745023727417, 0.1944894939661026, -0.2119389921426773, 0.45977821946144104, 0.05978338420391083, -0.2653721868991852, 0.08834071457386017, -0.6285938620567322, -0.04822078347206116, 0.3973204493522644, 0.06390444934368134, 0.19247440993785858, 0.3701672852039337, 0.20585735142230988, 0.5616703033447266, 1.1163135766983032, 0.48239070177078247, 0.4855974316596985, 0.2350446879863739, 0.26997998356819153, 0.007862747646868229, -0.07211180776357651, -0.07761367410421371, -0.2869613766670227, 0.13770167529582977, 0.21410612761974335, 0.1445842981338501, 0.12889690697193146], [-0.6436268091201782, 0.988368034362793, 0.382235050201416, 0.4012446403503418, -0.5982980728149414, -0.4383960962295532, -0.15095412731170654, -0.18287992477416992, 0.009944137185811996, 0.2507699429988861, 0.28607404232025146, 0.08227964490652084, 0.1304224282503128, -0.10433348268270493, 0.060078214854002, -0.04205375909805298, 0.004294690676033497, -0.006810326129198074, -0.1737532764673233, -0.18121741712093353, 0.3450154662132263, -0.21422971785068512, 0.03762932866811752, 0.03664384409785271, -0.09077206254005432, 0.04412780702114105, 0.13544607162475586, 0.2562777101993561, 0.06373029947280884, 0.16208969056606293, 0.08507400006055832, 0.17199856042861938, -0.06220264360308647, -0.0012434234376996756, -0.05803252011537552, 0.3528437912464142, -0.06422190368175507, 0.14631374180316925, -0.06638699024915695, 0.209066241979599, 0.08775170892477036, -0.03476865589618683, -0.09066994488239288, 0.008657857775688171, -0.08412481099367142, 0.1517592817544937, 0.06557175517082214, 0.1419714242219925, -0.005297352559864521, -0.05063558369874954, -0.12459881603717804, -0.05926906690001488, -0.13667744398117065, 0.0738370418548584, 0.045018021017313004, 0.12398473918437958, -0.28913891315460205, 0.05072629451751709, 0.6001989841461182, -0.5708626508712769, 0.5006539821624756, -0.35838139057159424, 0.6041092872619629, -0.04747724533081055, 0.020342251285910606, -0.14700119197368622, 0.12244671583175659, 0.111784927546978, 0.19151507318019867, 0.12099884450435638, 0.09901472181081772, 0.048583902418613434, 0.02972276136279106, 0.0762253925204277, 0.16028177738189697, 0.11429354548454285, 0.15632542967796326, 0.051820602267980576, 0.11089958250522614, 0.12571516633033752, -0.016594400629401207, 0.020498594269156456, -0.1595275104045868, 0.011424165219068527, 0.0014008053112775087, 0.16553708910942078, 0.04017925262451172, 0.11594734340906143, -0.04843255877494812, -0.0996030643582344, 0.21005018055438995, 0.08663307130336761, 0.19461974501609802, 0.009053229354321957, 0.16134747862815857, 0.13393105566501617, -0.06273691356182098, 0.004228103905916214, -0.055624205619096756, 0.0017373578157275915, 0.09724286943674088, 0.15468844771385193, 0.027620645239949226, 0.24630598723888397, -0.08909652382135391, -0.1842995285987854, -0.10232920199632645, -0.09287079423666, 0.0009299396187998354, 0.10640320926904678, 0.05488405376672745, 0.16622626781463623, -0.18198329210281372, -0.1277899593114853, -0.16238756477832794, -0.04206874594092369, -0.016639063134789467, 0.08933933824300766, 0.12912751734256744, 0.07780206203460693, -0.23424828052520752, -0.06551647931337357, -0.09779644757509232, -0.043539710342884064, -0.016858993098139763, 0.027372950688004494, 0.03217999264597893, 0.001185874454677105, 0.052429765462875366, 0.07793200016021729, 0.06542778760194778, 0.15703774988651276, 0.07698119431734085, 0.059280842542648315, -0.0737481564283371, -0.20427510142326355, -0.04982246831059456, 0.05909880995750427, 0.1053820326924324, 0.10706150531768799, -0.06217934563755989, 0.08301395922899246, -0.19541515409946442, 0.023622578009963036, -0.09048274159431458, -0.02597813867032528, 0.0052179149352014065, -0.18257325887680054, 0.18517063558101654, -0.13310416042804718, -0.02629762701690197, -0.12572386860847473, -0.01031586155295372, 0.03885796293616295, -0.11928427219390869, 0.2369132786989212, -0.049798596650362015, 0.1771881878376007, 0.11768878996372223, -0.08449964970350266, -0.0942981019616127, -0.08506031334400177, -0.0740138590335846, -0.19725218415260315, 0.25442424416542053, 0.04289310425519943, 0.11751646548509598, 0.02326047047972679, -0.06727621704339981, -0.00560409389436245, -0.1900414079427719, 0.011466695927083492, -0.17004449665546417, 0.13008901476860046, 0.020228838548064232, 0.13007423281669617, -0.06422889232635498, -0.18954023718833923, -0.02122458443045616, -0.14100611209869385, 0.08424226194620132, -0.07650358974933624, 0.14134249091148376, 0.060194678604602814, -0.08119895309209824, -0.03239959105849266, 0.025874361395835876, 0.02383713610470295, -0.014197401702404022, -0.018943937495350838, -0.08018262684345245, -0.020878726616501808, 0.039608027786016464, -0.053078629076480865, -0.08248807489871979, -0.0829070582985878, 0.1425798535346985, -0.11101264506578445, 0.03836518153548241, -0.07515435665845871, -0.05909328907728195, 0.005977857857942581, -0.17254039645195007, -0.105006143450737, 0.0733005627989769, -0.009393724612891674, 0.02849462255835533, -0.10764247179031372, 0.0047150058671832085, -0.04378658905625343, -0.22880028188228607, -0.15963950753211975, 0.19236835837364197, -0.018036065623164177, 0.009222221560776234, 0.050491563975811005, 0.007790976669639349, -0.04049229249358177, -0.10014329850673676, -0.011052382178604603, 0.052605461329221725, 0.058134082704782486, 0.1067710816860199, 0.07766541838645935, 0.04977763816714287, -0.11657644063234329, -0.14448370039463043, -0.0946161299943924, 0.07038991153240204, 0.06731080263853073, 0.030543126165866852, 0.03820634260773659, -0.1104767769575119, -0.15233831107616425, -0.1653590351343155, -0.08990310877561569, -0.0248069129884243, 0.02142801322042942, -0.02289620414376259, -0.05900496616959572, -0.027861105278134346, -0.031243013218045235, -0.0721474215388298, -0.03035816177725792, 0.012480216100811958, 0.07264865189790726, 0.02715715393424034, -0.09636169672012329, -0.028575392439961433, 0.007227737922221422, -0.05120488256216049, -0.04553689807653427, 0.014454635791480541, 0.060302071273326874, 0.05991753190755844, -0.008516804315149784, -0.18238936364650726, -0.1469392031431198, -0.14428609609603882, -0.06950891017913818, -0.009615184739232063, -0.098482646048069, -0.04550627991557121, -0.22493065893650055, -0.2752753794193268, -0.13502319157123566, -0.18488818407058716, 0.05033005028963089, -0.17783039808273315, 0.02958722598850727, 0.08037242293357849, -0.05981201305985451, -0.21700096130371094, -0.22131329774856567, -0.1377204805612564, -0.27317899465560913, -0.0032758775632828474, -0.057819757610559464, 0.0237569659948349, 0.056725334376096725, -0.3813244104385376, -0.22577162086963654, -0.23308876156806946, -0.0021893761586397886, -0.1543540507555008, 0.03377009555697441, 0.007122363429516554, -0.02388501912355423, -0.23013488948345184, -0.25027239322662354, -0.23047903180122375, -0.1518089771270752, -0.06850967556238174, -0.054148610681295395, 0.03415743261575699, -0.11231280863285065, -0.26090943813323975, -0.1958727240562439, -0.22435373067855835, -0.1342393010854721, -0.07714074850082397, 0.06815426796674728, -0.11023709923028946, -0.016814785078167915, -0.2007131576538086, -0.1972680240869522, -0.06213458627462387, -0.006441920530050993, -0.06666485965251923, 0.036139115691185, -0.2666866183280945, -0.17541012167930603, -0.14759792387485504, -0.01914287731051445, -0.029932567849755287, -0.10181273519992828, -0.0072095803916454315, 0.029968466609716415, -0.03161145746707916, -0.03321647644042969, 0.030497783794999123, 0.05122212693095207, 0.026328064501285553, 0.1231737956404686, -0.10951575636863708, 0.12173905968666077, 0.1462840437889099, 0.1713947206735611, -0.08424852043390274, 0.06708862632513046, 0.20772211253643036, 0.19602671265602112, 0.08459961414337158, 0.12063894420862198, 0.10271849483251572, 0.14222757518291473, -0.07016094028949738, -0.08119314163923264, -0.1995757818222046, -0.07394574582576752, 0.22360572218894958, -0.03311387822031975, 0.15746626257896423, 0.14088129997253418, -0.1665646731853485, -0.17686064541339874, -0.13559314608573914, 0.08417236804962158, 0.07165303081274033, 0.31385743618011475, 0.340571790933609, 0.22197720408439636, -0.035623520612716675, -0.22251011431217194, -0.10767661780118942, -0.08206851780414581, 0.061891838908195496, 0.14869967103004456, 0.2816244661808014, 0.14974893629550934, -0.11890380829572678, -0.016578638926148415, -0.13355933129787445, -0.023045914247632027, -0.13315008580684662, 0.038061004132032394, 0.07048739492893219, 0.04826732352375984, -0.0011846013367176056, 0.06596889346837997, 0.02019921876490116, -0.2430921047925949, -0.11499761044979095, -0.18415996432304382, 0.17958499491214752, 0.06499024480581284, -0.011164802126586437, -0.04075273871421814, -0.1422807276248932, -0.01980883628129959, -0.10003490000963211, -0.02113582380115986, 0.06513676792383194, 0.004136089701205492, 0.30162084102630615, 0.18556320667266846, -0.5871363878250122, 0.1508045196533203, 0.9635401964187622, 0.6858844757080078, -0.7788702249526978, 0.9128211736679077, 0.10428418219089508, 0.20658859610557556, 0.356930673122406, 0.27437448501586914, 0.46721911430358887, 0.48871272802352905, -0.012502241879701614, -0.08577347546815872, -0.010250752791762352, 0.12048599869012833, 0.11552727222442627, 0.5212147831916809, -0.23564930260181427, 0.675591766834259, 0.10596619546413422, 0.12875647842884064, -0.16470886766910553, -0.49054646492004395, -0.4167115092277527, 0.0021787115838378668, -0.7943565249443054, 0.41661980748176575, -0.16417014598846436, 0.014929904602468014, -0.0514179952442646, 0.36944055557250977, -0.10657870024442673, 0.5897639393806458, -0.2654530107975006, 0.20416350662708282, 0.01905631460249424, -0.1727258563041687, 0.2694382071495056, 0.15471850335597992, 0.6036675572395325, 0.07866811752319336, 0.26545143127441406, -0.44528186321258545, 0.05925449728965759, -0.43589335680007935, -0.017398133873939514, 0.21813981235027313, 0.09059885144233704, 0.056346096098423004, 0.03970209136605263, -0.03255900368094444, -0.026493513956665993, -0.16591250896453857, 0.76556396484375, 0.6248326301574707, 0.9187288284301758, -0.7323595285415649, 0.642863392829895, 0.8392387628555298, -0.4938315153121948, 0.9191799163818359, 0.034407999366521835, -0.4135894179344177, -0.4997672736644745, -0.07253345847129822, 0.2580548822879791, 1.0080009698867798, 0.01560473907738924, -0.04373514652252197, -0.10861966758966446, 0.29449906945228577, -0.24395591020584106, 0.4939891993999481, -0.19611069560050964, 0.6171417236328125, -0.04987553879618645, -0.2606034576892853, 0.4054141342639923, -0.16074107587337494, 1.459994912147522, 0.2654075622558594, 0.25691458582878113, 0.033115204423666, 0.3380194902420044, -0.11737467348575592, -0.39628225564956665, -0.0825054794549942, -0.7538492679595947, 0.25265786051750183, -0.7247189879417419, 0.37217971682548523, 0.6510136127471924, -0.056472670286893845, 0.1533796489238739, -0.6783546209335327, -0.2650104761123657, -0.4870055019855499, 0.0162655021995306, 0.2085762619972229, 0.4014824628829956, 0.01738535799086094, -0.0999976173043251, 0.607847273349762, -0.28356003761291504, 0.48172712326049805, -0.48004409670829773, 0.48401641845703125, -0.18733789026737213, 0.1251508593559265, 0.26365140080451965, 0.060009222477674484, 0.3980506658554077, -0.15662771463394165, 0.26228585839271545, -0.23097112774848938, 0.1574268639087677, -0.13328729569911957, -0.16631262004375458, 0.04374516010284424, -0.08480120450258255, -0.14562025666236877, 0.06621891260147095, -0.020156254991889, 0.056687209755182266, -0.06674167513847351, -0.008538649417459965, 0.008989930152893066, -0.6694323420524597, 0.054228536784648895, 0.19489188492298126, 1.2819170951843262, 0.07792986184358597, 0.20384541153907776, 0.3154613673686981, -0.5085974931716919, 0.30964961647987366, -0.08440938591957092, 0.02985655888915062, 0.20965492725372314, 0.4468095600605011, -0.23912756145000458, -0.029800070449709892, 0.7581197023391724, -0.1797158569097519, 1.0682464838027954, -0.602035403251648, 1.1826986074447632, -0.35960498452186584, 0.32998934388160706, 0.3338150680065155, -0.46097591519355774, -0.1060556173324585, -0.14838269352912903, -0.05314476042985916, -0.02076726034283638, 0.9061458706855774, -0.2575661242008209, -0.5216217041015625, 0.05313459783792496, -0.37282899022102356, -0.04718530550599098, -0.17839546501636505, 0.2924559712409973, 0.29677146673202515, 0.43117189407348633, 0.12230189889669418, -0.14300142228603363, 0.4357713758945465, -0.30571824312210083, 0.387566477060318, -0.5673402547836304, 0.2649243175983429, -0.27481529116630554, -0.1648368537425995, 0.4583466649055481, -0.17396710813045502, 0.2025265395641327, -0.182306170463562, 0.4385179877281189, -0.1788010448217392, 0.20741723477840424, 0.2734003961086273, -0.18052630126476288, 0.17134524881839752, -0.3506898581981659, 0.32506871223449707, -0.15414057672023773, 0.2949191629886627, -0.21552225947380066, 0.16369274258613586, 0.0020083908457309008, -0.39138951897621155, -0.07538188248872757, 0.7667835354804993, 0.4629690647125244, 0.09884695708751678, -0.0773269459605217, -0.01567237079143524, 0.0986771360039711, 0.040518030524253845, 0.45615246891975403, 0.04759940877556801, 0.18704310059547424, -0.0701708197593689, -0.02142087183892727, -0.18527020514011383, -0.12365266680717468, 0.5616225004196167, 0.19188192486763, -0.3520585000514984, 0.381267786026001, -0.3050238788127899, -0.11101166158914566, 0.04435238987207413, 0.15247070789337158, -0.5579657554626465, 0.4827290177345276, -0.3525656461715698, 0.39256972074508667, 0.3980724513530731, 0.15335261821746826, 0.14173947274684906, -0.37185701727867126, 0.09948330372571945, -0.5578629374504089, 0.6254373788833618, -0.06001370772719383, 0.6229192018508911, 0.028444189578294754, -0.034458644688129425, 0.09676487743854523, -0.06764131784439087, 0.07333766669034958, 0.058131877332925797, -0.13679002225399017, -0.004838761407881975, 0.01281047984957695, -0.0884675458073616, 0.016800446435809135, 0.03849610313773155, -0.31762373447418213, 0.026415584608912468, -0.15759001672267914, -0.1834157109260559, -0.1141071543097496, -0.010732683353126049, -0.07989057898521423, 0.0003342924464959651, 0.13530392944812775, 0.059673890471458435, -0.07398112863302231, -0.14478328824043274, -0.1275898665189743, 0.1789974570274353, 0.05523696169257164, -0.5098106265068054, -0.15674105286598206, 0.48516443371772766, 0.5494357943534851, -0.05242886021733284, 0.27271100878715515, 0.15281380712985992, -0.30061811208724976, 0.10683608800172806, 0.351576566696167, 0.07788009196519852, 0.15193474292755127, 0.047845881432294846, 0.04385048523545265, -0.13783520460128784, 0.23400375247001648, 0.29189255833625793, 0.8538492918014526, -0.5355727672576904, 0.9941059947013855, -0.1612427830696106, 0.22459986805915833, 0.08145904541015625, -0.33127835392951965, -0.6642320156097412, 0.20715320110321045, -0.46781212091445923, 0.35516324639320374, 0.8016160130500793, 0.10164659470319748, -0.18783172965049744, -0.3991338312625885, -0.24340444803237915, -0.652603268623352, 0.36081233620643616, 0.10715119540691376, 0.7498834133148193, 0.20551076531410217, -0.08211878687143326, -0.10730941593647003, 0.145759716629982, -0.15298670530319214, 0.26717397570610046, -0.380841463804245, 0.1650884598493576, -0.0905199646949768, -0.14325541257858276, 0.22627891600131989, -0.13249996304512024, -0.17346620559692383, -0.006415613926947117, 0.11882903426885605, -0.2191377729177475, -0.013895575888454914, 0.11733508110046387, -0.19476667046546936, -0.058677513152360916, 0.09874830394983292, 0.1591583490371704, -0.08875568211078644, -0.02051890641450882, -0.14876626431941986, -0.05547882989048958, -0.04869672656059265, 0.034241195768117905, 0.1237105131149292, -0.059613119810819626, 0.013265381567180157, 0.01793130300939083, -0.028159400448203087, -0.3259119391441345, -0.39046552777290344, -0.5956416726112366, -0.16579851508140564, -0.4545214772224426, 0.06056162342429161, -0.2557160258293152, 0.19990840554237366, -0.06641935557126999, 0.11423354595899582, 0.10738155245780945, 0.45655757188796997, -0.21731378138065338, 0.6671373248100281, -0.06275258958339691, 0.1635916382074356, -0.05747953802347183, -0.00016956546460278332, -0.48663458228111267, 0.2710462212562561, -0.39215731620788574, 0.036813829094171524, -0.12286904454231262, -0.11191323399543762, -0.04880616068840027, -0.11759600043296814, 0.2117571234703064, -0.600997805595398, 0.5240912437438965, -0.1330965757369995, 0.46254298090934753, -0.16293774545192719, -0.1916854977607727, -0.11735346168279648, 0.04568981006741524, 0.014832118526101112, 0.21815723180770874, -0.2614080607891083, 0.0075325388461351395, -0.11487966775894165, -0.21680350601673126, -0.1917036771774292, -0.09897544234991074, -0.23776350915431976, 0.13000991940498352, -0.004908765200525522, 0.06855069845914841, -0.00926562026143074, -0.29130569100379944, -0.27615252137184143, -0.2195890247821808, -0.08096674084663391, -0.09975208342075348, -0.13061024248600006, -0.08593855798244476, -0.05288521572947502], [0.14585494995117188, -0.30699288845062256, -0.5162614583969116, -0.3215470314025879, -0.356548547744751, 0.9566400051116943, 0.383571982383728, 0.9841132164001465, 0.01445481926202774, 0.10778027027845383, 0.23477208614349365, -0.05847810208797455, -0.09536229819059372, -0.12272488325834274, 0.004459280986338854, -0.030798017978668213, 0.0050874389708042145, 0.12139781564474106, 0.2955721318721771, 0.4060504734516144, 0.1657094806432724, 0.12954367697238922, -0.047144919633865356, 0.03375007584691048, -0.03377567231655121, -0.04106028750538826, -0.07732886075973511, -0.18260353803634644, -0.34900110960006714, 0.0149045055732131, 0.10205723345279694, 0.08915846794843674, -0.02722310647368431, -0.042882438749074936, 0.0978577584028244, -0.016791807487607002, 0.11935023963451385, 0.06317611038684845, 0.03046742081642151, 0.13991910219192505, 0.02555999532341957, 0.03749897703528404, 0.010740146972239017, 0.006457492709159851, 0.007942257449030876, 0.0985245406627655, 0.06394466012716293, 0.14785882830619812, -0.038200195878744125, -0.06142215430736542, -0.049073804169893265, -0.132913738489151, 0.18172341585159302, 0.028729235753417015, 0.030956164002418518, 0.06918419152498245, 0.2445615530014038, -0.6671167612075806, 0.3481868505477905, -0.5997334718704224, -0.3147808313369751, -0.4766688346862793, -0.6803141832351685, 0.7875714302062988, -0.04706204682588577, -0.13001886010169983, 0.06813611090183258, 0.024774011224508286, 0.07621392607688904, 0.05909815803170204, -0.03131430968642235, 0.008179595693945885, -0.011187085881829262, 0.019768953323364258, 0.050845980644226074, 0.1109117716550827, -0.1073087528347969, 0.13881118595600128, -0.011848862282931805, -0.00838884711265564, 0.04331197962164879, -0.10233815759420395, 0.1612362563610077, -0.06146355718374252, 0.12083479017019272, -0.05320590361952782, 0.12952260673046112, -0.030741145834326744, -0.18558838963508606, -0.022886857390403748, -0.16995976865291595, -0.10721097886562347, -0.10126812756061554, 0.04136456921696663, -0.04545379802584648, 0.12533597648143768, -0.02337256632745266, -0.045481812208890915, 0.044350530952215195, 0.10946732014417648, -0.07037990540266037, 0.16098333895206451, 0.17012786865234375, 0.11792033910751343, -0.18343213200569153, -0.07235031574964523, -0.09733286499977112, 0.00906732864677906, 0.021618086844682693, 0.1000727042555809, 0.012283888645470142, 0.12764011323451996, -0.13312755525112152, -0.0381246842443943, -0.05988393723964691, -0.10524581372737885, 0.04858953133225441, 0.05629384517669678, 0.1126193255186081, 0.08297350257635117, -0.18728162348270416, -0.1311490684747696, -0.03555428981781006, 0.024829084053635597, 0.04973243921995163, 0.09727219492197037, -0.05788413807749748, 0.09719480574131012, -0.024079792201519012, 0.17028412222862244, 0.17027893662452698, -0.050761595368385315, -0.019293032586574554, 0.04825287684798241, -0.17399388551712036, -0.11558953672647476, 0.027571510523557663, -0.03576093539595604, 0.25442206859588623, 0.040083322674036026, -0.07503955066204071, -0.0032912353053689003, -0.0869050920009613, -0.14669886231422424, -0.11546139419078827, 0.06731104105710983, 0.11713553965091705, 0.23271764814853668, -0.02900053933262825, 0.0007637588423676789, -0.04370196536183357, -0.11627732962369919, -0.08510184288024902, 0.003237790195271373, 0.03767843917012215, -0.3821430206298828, 0.19078406691551208, 0.03548377379775047, 0.06004895269870758, -0.0765504315495491, -0.09493192285299301, -0.07721132040023804, -0.11061732470989227, 0.1949693262577057, -0.15560908615589142, 0.19899265468120575, 0.1256834864616394, 0.008167617954313755, -0.0804014652967453, -0.03735840320587158, -0.0052892230451107025, -0.12579578161239624, 0.017448432743549347, 0.003515703836455941, 0.038958266377449036, 0.06446033716201782, -0.11128468811511993, -0.05934646725654602, -0.0776546373963356, -0.07830923050642014, 0.0025541200302541256, -0.034043826162815094, -0.0249901432543993, 0.12318184226751328, -0.0992332249879837, -0.024423973634839058, -0.0023075691424310207, 0.002238600980490446, -0.04983817785978317, 0.020863154903054237, -0.09144122153520584, -0.04854193329811096, -0.054872047156095505, -0.13675254583358765, -0.06895115971565247, -0.05086227506399155, 0.21618343889713287, -0.18713609874248505, -0.0772702544927597, -0.20840544998645782, -0.07894989848136902, -0.07774897664785385, -0.19952750205993652, 0.019542336463928223, 0.09763259440660477, -0.03808322176337242, -0.08442343771457672, -0.20672224462032318, -0.009844968095421791, -0.04538680985569954, -0.0896909162402153, 0.17254215478897095, 0.14771437644958496, -0.02409524843096733, -0.07825612276792526, -0.0003197193727828562, -0.028464870527386665, -0.029482141137123108, -0.11107917129993439, -0.14482173323631287, 0.1424618810415268, 0.11846690624952316, -0.011721289716660976, -0.017877504229545593, -0.0017472677864134312, -0.07213582843542099, -0.19890838861465454, -0.042232222855091095, -0.0001625906879780814, 0.13252855837345123, 0.015359794721007347, 0.04533669725060463, -0.10607212781906128, -0.1603345423936844, -0.1214948445558548, -0.08154051005840302, 0.04676131531596184, 0.020582860335707664, -0.011436320841312408, -0.12312687188386917, -0.05196809023618698, -0.025731056928634644, -0.07673843950033188, 0.01570877991616726, 0.13995835185050964, 0.016928233206272125, 0.010752426460385323, -0.0825086385011673, -0.01679280959069729, -0.025922344997525215, -0.11415416747331619, -0.0852179303765297, 0.041146568953990936, 0.0012523195473477244, 0.009497654624283314, -0.06890565901994705, -0.19274985790252686, -0.012489449232816696, 0.020465996116399765, -0.10999123752117157, 0.12089705467224121, -0.09061279892921448, -0.09761685878038406, -0.16064578294754028, -0.1495189219713211, -0.1348641812801361, 0.08177036046981812, -0.018107177689671516, -0.021264420822262764, -0.007508228067308664, -0.0028725911397486925, -0.09408457577228546, -0.09804127365350723, -0.052487000823020935, -0.0025430084206163883, 0.08760353177785873, -0.028158333152532578, 0.09822005778551102, -0.061171069741249084, -0.007621415425091982, -0.16998806595802307, 0.016620807349681854, -0.06508953124284744, -0.2221933901309967, 0.15902943909168243, 0.1279766708612442, 0.00041916753980331123, 0.14043742418289185, -0.15656836330890656, -0.17058175802230835, -0.11337365210056305, -0.016036979854106903, -0.06066383048892021, -0.02428543008863926, 0.14909955859184265, -0.04848557338118553, -0.21382443606853485, -0.1277649700641632, -0.13342182338237762, -0.12859150767326355, -0.0011395526817068458, -0.03698158264160156, -0.023496387526392937, 0.04287094250321388, -0.08425728976726532, -0.10815396159887314, -0.07199589163064957, -0.07507140189409256, 0.08695334196090698, -0.09199593961238861, -0.15101462602615356, -0.154851496219635, -0.07392635941505432, -0.11125471442937851, -0.13394273817539215, -0.18977849185466766, 0.12807676196098328, -0.02604479342699051, -0.01420650351792574, -0.02032642997801304, 0.15470704436302185, 0.2499830424785614, 0.24683107435703278, 0.22534246742725372, 0.0009273222531192005, 0.3170625865459442, 0.37306252121925354, 0.41057470440864563, 0.1181294247508049, 0.16887414455413818, 0.3655802607536316, 0.18841758370399475, 0.23000183701515198, 0.275420606136322, 0.34691521525382996, 0.38518044352531433, 0.12011288851499557, 0.2861524820327759, 0.40197378396987915, 0.5544289350509644, 0.5730934143066406, 0.39629414677619934, 0.35595327615737915, 0.35201916098594666, 0.08975709974765778, 0.12964098155498505, 0.28424277901649475, 0.06437250971794128, 0.4238930344581604, 0.5476416349411011, 0.5303736925125122, 0.33935683965682983, 0.10515780746936798, 0.07981795817613602, 0.18706710636615753, 0.2739531397819519, 0.2515408396720886, 0.49626949429512024, 0.3470046818256378, 0.3887326717376709, 0.11695920675992966, 0.13582859933376312, 0.15637636184692383, 0.1608160436153412, 0.18748946487903595, 0.2461637556552887, 0.26895979046821594, 0.2096414715051651, 0.2062503546476364, 0.3372173011302948, 0.1973002552986145, 0.04968792945146561, -0.025258801877498627, 0.17118768393993378, 0.2663467526435852, 0.236078143119812, 0.09631522744894028, 0.11442995071411133, 0.09954360127449036, 0.1532060205936432, 0.1505804806947708, 0.16172264516353607, 0.2031758427619934, 0.23128077387809753, -0.6070802211761475, -0.7474761009216309, -0.18612253665924072, -0.2552049160003662, 0.6187468767166138, -0.05614900588989258, 0.3193535804748535, -0.4155566692352295, -0.019980188459157944, 0.22545133531093597, -0.3335365653038025, 0.24547721445560455, 0.15167385339736938, 0.3558606207370758, -0.14670895040035248, -0.20376870036125183, -0.07827024906873703, 0.0745527371764183, -0.2825660705566406, 0.2714080512523651, -0.32857757806777954, 0.5898445248603821, 0.08489753305912018, 0.052791908383369446, -0.09606717526912689, 0.18678034842014313, 0.4120742380619049, 0.26474836468696594, 0.38706934452056885, 0.36609235405921936, -0.04061593487858772, 0.031501565128564835, -0.005448228679597378, -0.25727635622024536, 0.3752991855144501, -0.9629158973693848, 0.5105549693107605, -0.8719099164009094, 0.3477422297000885, -0.13152845203876495, 0.15062233805656433, 0.285564124584198, 0.21992279589176178, 0.2672949433326721, 0.0008352883742190897, 0.027643820270895958, -0.05711054056882858, -0.16538771986961365, 0.033179935067892075, 0.27457016706466675, 0.07169626653194427, 0.07062837481498718, 0.05060544237494469, -0.05831223353743553, 0.04473589360713959, -0.035109810531139374, -0.8421585559844971, -0.12209677696228027, 0.3803865909576416, 0.8158551454544067, 0.3009305000305176, 0.19776666164398193, 0.6845906972885132, 0.46208786964416504, -0.18458428978919983, -0.3012791872024536, -0.395527184009552, 0.8601197600364685, 0.763904869556427, 1.1180224418640137, 0.013864255510270596, -0.3114297389984131, 0.5164675712585449, -0.25923848152160645, 0.21256104111671448, -0.6592607498168945, 0.3894401788711548, -0.19445008039474487, 0.17955026030540466, -0.35137709975242615, -0.09641631692647934, 0.5098094940185547, -0.3535105586051941, 0.23028191924095154, -0.7658870220184326, 0.4730989634990692, -0.13155056536197662, 0.17227105796337128, 0.0339634083211422, 0.29929986596107483, 0.5635778307914734, -0.3563529849052429, 1.2189773321151733, 0.21738681197166443, 0.7988910675048828, 0.009908581152558327, -0.2225838005542755, 0.09110288321971893, -0.6412237286567688, 0.4478221833705902, -0.4052262604236603, 0.7499762177467346, -0.3469301462173462, 0.3569381833076477, 0.12913523614406586, -0.12078739702701569, 0.2278633862733841, -0.6186745762825012, 0.34783655405044556, -0.520839273929596, 0.3610236644744873, 0.010648361407220364, 0.2595362961292267, 0.2369956225156784, 0.2003602534532547, 0.2559222877025604, 0.17165328562259674, 0.06366351246833801, 0.11255589872598648, -0.008117152377963066, 0.003570972243323922, 0.23667195439338684, -0.004585638176649809, 0.009457465261220932, 0.08760420978069305, 0.07343775033950806, 0.09205257147550583, -0.04121438041329384, 0.42422059178352356, -0.4836314618587494, -0.5163383483886719, 0.41947707533836365, 0.8127889037132263, 0.9820405840873718, 0.4747367799282074, -0.5643545389175415, -0.45672500133514404, 0.6867121458053589, -0.6595358848571777, 0.7249359488487244, -0.5736400485038757, 0.6924302577972412, -0.6308665871620178, 0.30242598056793213, 0.6396070122718811, -0.3760794997215271, -0.09331702440977097, -0.670089066028595, 0.042700886726379395, -0.11035550385713577, 0.2722407579421997, -0.0942998081445694, -0.1681700199842453, 0.1881784349679947, 0.3890371322631836, 0.08822137117385864, 1.2691501379013062, 0.32433179020881653, 0.23420339822769165, 0.12434252351522446, -0.032895661890506744, -0.1962345689535141, 0.13815705478191376, -0.5971411466598511, 0.19309119880199432, -0.20582348108291626, 0.7980006337165833, 0.02955852821469307, -0.22415205836296082, 0.3840465247631073, -0.5522255897521973, 0.4449443519115448, -0.3927886188030243, 0.2426084578037262, -0.4646919369697571, 0.3123593330383301, 0.33538633584976196, -0.06296361982822418, 0.3617582619190216, -0.11759970337152481, 0.28292879462242126, -0.15936891734600067, 0.36183467507362366, -0.1468544453382492, -0.22669970989227295, 0.29699310660362244, -0.1613091379404068, 0.14688757061958313, 0.018590223044157028, 0.24217741191387177, -0.1657683402299881, 0.24313431978225708, 0.010284517891705036, -0.2212757021188736, -0.8556146025657654, 0.7466930747032166, 0.7713484764099121, 0.7302102446556091, -0.03062283806502819, -0.416616827249527, 0.05324751138687134, 0.1332143098115921, 0.09978049993515015, 0.5148338079452515, -0.4089781939983368, 0.17354126274585724, -0.0906313806772232, -0.03777512162923813, 0.06441126763820648, 0.06876295804977417, -0.08595737814903259, -0.11324716359376907, -0.6996124386787415, 0.6857486367225647, -0.06037673354148865, 0.09834928810596466, -0.20047202706336975, -0.23581425845623016, 0.4608149826526642, -0.9482859373092651, 1.5862706899642944, -0.5239793658256531, 0.2466108500957489, -0.12171509116888046, 0.14103172719478607, -0.11001542210578918, -0.10214711725711823, 0.3451835513114929, -0.4043538272380829, 0.4203551709651947, 0.39101794362068176, 0.1652625948190689, 0.06396206468343735, 0.09774012863636017, -0.06866766512393951, 0.1133013591170311, 0.023984193801879883, 0.008508617989718914, 0.0031283595599234104, 0.06890115886926651, -0.036265984177589417, 0.0005915117217227817, 0.01871851086616516, -0.16401293873786926, -0.1532047837972641, -0.08528262376785278, -0.018412508070468903, -0.05025825649499893, 0.07494433224201202, -0.07019082456827164, 0.035985156893730164, 0.15144316852092743, 0.012183641083538532, 0.005907359998673201, -0.014941466972231865, 0.019014431163668633, 0.22428357601165771, -0.598344624042511, -0.945141613483429, 0.6420310139656067, 0.5282630324363708, 0.42534956336021423, 0.0007898323819972575, -0.419798880815506, -0.15683433413505554, 0.13467912375926971, -0.4431934952735901, 0.6171051263809204, -0.633388876914978, 0.24203002452850342, -0.40286701917648315, 0.06164330244064331, 0.08096712082624435, -0.24682503938674927, -0.22093985974788666, -0.4191761016845703, -0.46664369106292725, 0.2368742972612381, 0.17130760848522186, -0.03383583948016167, -0.3054492175579071, -0.27908918261528015, 0.3896525800228119, -0.7406610250473022, 1.9741079807281494, -0.3563271760940552, 0.3835653066635132, -0.045285630971193314, -0.0300388615578413, -0.31923457980155945, -0.3238343596458435, -0.23263587057590485, -0.528612494468689, 0.05266464129090309, 0.5375888347625732, 0.09036538004875183, -0.2114417552947998, 0.017487842589616776, -0.55476975440979, 0.1483234465122223, -0.16837605834007263, -0.019581936299800873, -0.2973441183567047, 0.06748604029417038, -0.06252790987491608, -0.13570141792297363, -0.051160942763090134, -0.14478157460689545, -0.007390103302896023, -0.1655718833208084, 0.1346704065799713, -0.2318669706583023, -0.1605706512928009, -0.08529435098171234, -0.10339605063199997, 0.16135594248771667, 0.019882414489984512, -0.01241309568285942, -0.23225992918014526, 0.013379668816924095, -0.3300894498825073, 0.326219379901886, -0.21969926357269287, 0.06233580783009529, -0.2832874655723572, -0.07315076887607574, -0.23107647895812988, 0.1245260015130043, -0.16444221138954163, 0.12445436418056488, 0.10712108016014099, 0.350223183631897, -0.2674102485179901, -0.03707283362746239, -0.18188703060150146, 0.09664549678564072, -0.29398754239082336, -0.3738137185573578, -0.3048180937767029, -0.32332655787467957, -0.22776931524276733, -0.14544586837291718, 0.06132214143872261, 0.02193468064069748, -0.08295014500617981, -0.02797253057360649, 0.5283472537994385, -0.48269763588905334, 1.0923941135406494, -0.47421208024024963, 0.08841182291507721, -0.08074510842561722, -0.15594574809074402, -0.30441635847091675, -0.33872154355049133, -0.23320583999156952, -0.4625836908817291, -0.19040550291538239, 0.3213067650794983, -0.10577896237373352, -0.22542023658752441, -0.07054635882377625, -0.19705531001091003, 0.23586097359657288, 0.21457049250602722, -0.0019795126281678677, -0.08195769786834717, -0.1612958461046219, -0.25141778588294983, -0.052518706768751144, -0.13418202102184296, -0.05063985660672188, 0.10857266932725906, 0.08337851613759995, 0.024107517674565315, 0.036985546350479126, -0.21665668487548828, -0.23149017989635468, -0.20302073657512665, -0.055905167013406754, 0.001178183127194643, -0.06297189742326736, -0.043495748192071915, -0.07272025942802429], [0.10538768768310547, -0.7937407493591309, -0.7679241895675659, -0.8129459619522095, -0.27097344398498535, 0.8832581043243408, 0.3909193277359009, -0.118569016456604, 0.1905415803194046, 0.14607922732830048, 0.015133198350667953, -0.39596012234687805, 0.21502071619033813, 0.1451880782842636, 0.03609973192214966, -0.024402707815170288, -0.019694505259394646, 0.2072891741991043, 0.21970349550247192, -0.05531115457415581, 0.15475837886333466, 0.11877190321683884, -0.01090230979025364, -0.074042908847332, 0.006793366279453039, 0.04652933403849602, -0.265322208404541, -0.10583357512950897, 0.08703157305717468, 0.09101931750774384, 0.09296649694442749, 0.035373520106077194, 0.04679880291223526, -0.021308502182364464, -0.27882859110832214, -0.05690358951687813, -0.0067560430616140366, 0.13838636875152588, -0.029778271913528442, 0.08605773746967316, 0.08865370601415634, 0.002214270643889904, -0.04103938862681389, 0.10260159522294998, -0.10230598598718643, 0.1517866551876068, -0.041287992149591446, 0.0685352236032486, -0.04084564000368118, 0.038701605051755905, 0.02529745176434517, 0.06325030326843262, -0.13130027055740356, -0.07309827208518982, -0.013462889939546585, -0.032553259283304214, 0.051906466484069824, -0.8577917814254761, 0.03855109214782715, -0.21857893466949463, 0.9024118185043335, 0.90262770652771, 0.19839060306549072, 0.8938031196594238, -0.08658679574728012, -0.13239647448062897, -0.17912104725837708, -0.11432094871997833, -0.04818946495652199, -0.03335031867027283, -0.14707452058792114, -0.12312919646501541, -0.22338226437568665, -0.07088609784841537, -0.2571364939212799, -0.12614917755126953, -0.08621066063642502, -0.0541275329887867, -0.05842980369925499, -0.018876535817980766, 0.08197261393070221, -0.17691077291965485, 0.2772885262966156, -0.1691213697195053, -0.006987475324422121, -0.023771999403834343, -0.06425503641366959, -0.06352991610765457, -0.18880397081375122, -0.071010522544384, -0.20970307290554047, -0.08367513120174408, -0.1051880493760109, -0.002681462559849024, -0.012452010996639729, -0.04801051318645477, -0.04484911635518074, -0.12439873069524765, -0.25877559185028076, -0.14797188341617584, -0.0024347107391804457, -0.07774411886930466, -0.13971668481826782, -0.0003637031768448651, -0.17693905532360077, -0.15284043550491333, -0.2304874211549759, -0.12783387303352356, -0.049689359962940216, -0.009782334789633751, -0.12474401295185089, -0.018187643960118294, -0.13519984483718872, -0.2057267278432846, -0.19555693864822388, -0.12132316082715988, -0.09612619876861572, -0.07355953007936478, -0.13005441427230835, -0.17157341539859772, -0.24489586055278778, -0.10165425390005112, -0.16672183573246002, -0.1192929595708847, -0.11177072674036026, -0.11644580215215683, -0.12140224874019623, -0.16619853675365448, -0.07094775140285492, -0.12401636689901352, -0.5162477493286133, -0.13277111947536469, -0.28331494331359863, -0.03939327225089073, -0.3337825536727905, -0.18097464740276337, -0.04435459151864052, -0.060344599187374115, -0.13490694761276245, -0.30577412247657776, -0.041649822145700455, -0.20927855372428894, -0.12490074336528778, -0.24218924343585968, -0.1631309539079666, -0.05963267385959625, 0.07097763568162918, -0.15850263833999634, 0.04431238770484924, -0.03407507762312889, -0.15505611896514893, -0.254456102848053, -0.18032950162887573, -0.21461793780326843, -0.11386004835367203, -0.2798417806625366, -0.11290241777896881, -0.009457658976316452, -0.057057272642850876, -0.18710865080356598, -0.2301921248435974, -0.0831100195646286, -0.459022581577301, -0.08319226652383804, -0.05080638825893402, -0.1482437402009964, -0.012709380127489567, -0.19976040720939636, -0.16166427731513977, -0.11797706037759781, -0.1432335078716278, -0.2330065220594406, -0.16980516910552979, -0.06879254430532455, -0.1715671271085739, -0.06775633990764618, -0.12707576155662537, -0.21265879273414612, -0.17615710198879242, -0.1160607561469078, -0.18449081480503082, -0.045739736407995224, -0.13559721410274506, -0.087676040828228, -0.2553179860115051, -0.09744355082511902, -0.08938146382570267, -0.15961356461048126, -0.10914532095193863, -0.17106913030147552, -0.0793253481388092, -0.2593231499195099, -0.2486705780029297, -0.3291409909725189, -0.2000087946653366, -0.3204612135887146, -0.2515949606895447, -0.12998266518115997, -0.16218353807926178, -0.10000327974557877, -0.3546905815601349, -0.17566578090190887, -0.09474360197782516, -0.07905414700508118, -0.24643728137016296, -0.3023828864097595, -0.25400662422180176, -0.3141913414001465, -0.19968874752521515, -0.2613442540168762, 0.08005793392658234, -0.10275427997112274, -0.22902341187000275, -0.21436119079589844, -0.20188039541244507, -0.2353886216878891, -0.22925975918769836, -0.2615973651409149, -0.2457495778799057, -0.12897789478302002, -0.2781945466995239, -0.22099100053310394, -0.19549989700317383, -0.18697118759155273, -0.22843459248542786, -0.20171883702278137, -0.23033753037452698, -0.05354757606983185, -0.1465221643447876, -0.22641217708587646, -0.06901956349611282, -0.11772313714027405, -0.27582672238349915, -0.2531454861164093, -0.20579080283641815, -0.09259360283613205, -0.21755345165729523, -0.1520443707704544, -0.10372904688119888, -0.0865258052945137, -0.27917203307151794, -0.26301535964012146, -0.2343761920928955, -0.13857708871364594, -0.2115972638130188, -0.19669294357299805, -0.19835898280143738, -0.1536196768283844, -0.21188250184059143, -0.12632329761981964, -0.17117248475551605, -0.09739859402179718, -0.13260678946971893, -0.19695664942264557, -0.0911155492067337, -0.19253115355968475, -0.6162980198860168, -0.4487638771533966, -0.7140012979507446, -0.19537077844142914, -0.541379988193512, -0.36740627884864807, -0.45118558406829834, -0.28713271021842957, -0.5718696713447571, -0.12523315846920013, -0.3570653200149536, -0.17753660678863525, -0.07101702690124512, -0.3303159177303314, -0.27616220712661743, -0.4637887477874756, -0.27471861243247986, -0.19382180273532867, -0.24745939671993256, -0.3594818413257599, -0.1871383637189865, -0.16009213030338287, -0.37081655859947205, -0.30714139342308044, -0.28073936700820923, -0.4560374915599823, -0.44853201508522034, -0.4031086564064026, -0.285481721162796, -0.22039641439914703, -0.2938668727874756, -0.37562593817710876, -0.3872125744819641, -0.4345637857913971, -0.5938622951507568, -0.27225440740585327, -0.3310122787952423, -0.3161091208457947, -0.19557063281536102, -0.41152361035346985, -0.4805157482624054, -0.4572206735610962, -0.461111843585968, -0.4159005880355835, -0.31105759739875793, -0.3572023808956146, -0.4858763813972473, -0.3359454274177551, -0.4561121165752411, -0.4551600217819214, -0.5481646656990051, -0.34175238013267517, -0.45428621768951416, -0.4105474054813385, -0.5793793797492981, -0.5725882649421692, -0.4133644104003906, -0.43589264154434204, -0.5586850643157959, -0.4472157061100006, -0.37965264916419983, -0.3203299939632416, -0.4598486125469208, -0.4779866933822632, -0.00881432555615902, -0.055065520107746124, -0.08768459409475327, 0.07512738555669785, 0.3781224489212036, -0.015614577569067478, 0.005077354609966278, -0.05566389858722687, 0.03606968745589256, -0.15393714606761932, -0.21822290122509003, -0.12050791084766388, 0.16233359277248383, 0.10292701423168182, 0.01122379582375288, -0.03757424280047417, -0.13729897141456604, -0.06723082810640335, 0.07908004522323608, 0.026327621191740036, 0.3089445233345032, 0.25942298769950867, 0.10984514653682709, -0.009451663121581078, -0.2385382354259491, -0.22383499145507812, -0.0494430810213089, 0.05694684013724327, 0.24239052832126617, 0.24007099866867065, 0.18633411824703217, 0.020637795329093933, -0.07834330201148987, -0.1408628523349762, -0.15612776577472687, 0.009026662446558475, 0.1623031497001648, 0.2098793089389801, 0.054762911051511765, 0.029154716059565544, 0.01729538105428219, -0.20523422956466675, 0.06887977570295334, -0.053491219878196716, 0.0467643141746521, 0.04828138276934624, -0.03170933201909065, 0.07210245728492737, 0.21307407319545746, -0.04496604576706886, 0.0041677867993712425, -0.31385162472724915, -0.11834792047739029, -0.08741821348667145, -0.005198044702410698, 0.023048052564263344, 0.03504040092229843, -0.1306384801864624, -0.1525430530309677, -0.18800956010818481, -0.2403848022222519, -0.28070926666259766, -0.1859089881181717, -0.07109475135803223, -0.7342610359191895, 0.27759063243865967, 0.852587103843689, 0.9275860786437988, 0.11871373653411865, -0.5006452798843384, 0.9718450307846069, 0.07463037967681885, -0.35575342178344727, 0.052748844027519226, 0.04623466730117798, 0.6439307928085327, -0.02406647615134716, 0.11509942263364792, 0.23203708231449127, 0.33419740200042725, -0.8852413296699524, 0.5789197087287903, -2.033738374710083, 0.42938125133514404, -0.5470696687698364, 0.1975921392440796, 0.32750749588012695, 0.21952946484088898, -0.03114025667309761, 0.5227224230766296, -0.17228193581104279, 0.4173637926578522, 0.1306728571653366, 0.1316809356212616, 0.248111292719841, 0.009933839552104473, 0.2438107579946518, -0.07640054076910019, 0.17837092280387878, 0.047547657042741776, 0.12667404115200043, 0.1456935554742813, 0.048311006277799606, 0.0015377799281850457, 0.16393060982227325, 0.3893541097640991, -0.0027671537827700377, 0.0847509503364563, 0.09549664705991745, -0.03401248902082443, 0.07602699846029282, -0.08316691219806671, 0.14740562438964844, 0.3133137822151184, 0.0804583877325058, 0.032923344522714615, 0.15033788979053497, 0.0090152807533741, 0.0910901203751564, -0.04317702353000641, 0.44516801834106445, 0.3959852457046509, -0.953737735748291, 0.828679084777832, -0.4176868200302124, 0.8654161691665649, 0.8239511251449585, 0.3706507682800293, -0.7481894493103027, -1.4856433868408203, 0.3750348687171936, 0.1065966933965683, -0.6882026791572571, -2.248664140701294, 0.05148015916347504, 0.20408964157104492, -0.6723001599311829, -0.33959266543388367, 0.044171325862407684, 0.9655041098594666, 0.09879466891288757, -0.08779136091470718, 0.21334794163703918, 0.027617212384939194, -0.15261772274971008, -0.5614626407623291, -3.882380962371826, -0.38142526149749756, 0.12518338859081268, 0.13238434493541718, 0.33420637249946594, 0.15745116770267487, 0.11670706421136856, 0.17331285774707794, -0.5112643837928772, 0.12569467723369598, 0.12844985723495483, 0.1854286640882492, 0.41415169835090637, 0.3942919969558716, -0.46437329053878784, 0.6129648685455322, -0.48992887139320374, 0.7381365299224854, 0.35698944330215454, 0.36552420258522034, 0.3244797885417938, 0.20965129137039185, 0.32153642177581787, -0.04445420578122139, 0.496118426322937, -0.07939117401838303, 0.23387880623340607, 0.38607898354530334, 0.28485777974128723, 0.13594938814640045, 0.1676740199327469, 0.45314615964889526, 0.3583880364894867, 0.31537890434265137, 0.2607837915420532, 0.09331873059272766, 0.2890182137489319, 0.19357135891914368, 0.18559561669826508, 0.3650454878807068, 0.2724066972732544, 0.20234934985637665, 0.3134649395942688, 0.2308833748102188, 0.23599085211753845, 0.14436958730220795, -1.5621731281280518, -3.9865100383758545, -0.061944495886564255, 0.19613520801067352, -2.148003101348877, -3.337820529937744, -0.00010598804510664195, 0.35590872168540955, -1.181810736656189, 0.20776942372322083, -0.4647258222103119, 1.186017632484436, 0.012416332960128784, 0.38916611671447754, 0.21603906154632568, -0.16581980884075165, -3.6549630165100098, 0.10113109648227692, -2.5113532543182373, 0.43136608600616455, -0.5921986103057861, -0.09724096208810806, 0.2344387173652649, 0.48868218064308167, 0.05066308379173279, -0.002539590932428837, 0.16850927472114563, 0.11552270501852036, 0.5150127410888672, -0.23850040137767792, 0.4807320535182953, 0.20572903752326965, -0.08926036208868027, 0.035776469856500626, 0.05081664398312569, 0.22238236665725708, 0.45063161849975586, 0.5907379388809204, -0.11725806444883347, 0.34312596917152405, -0.10247091948986053, 0.28653472661972046, 0.22104276716709137, 0.2854449450969696, 0.19250312447547913, 0.0903046652674675, 0.6257167458534241, -0.4053909182548523, 0.10941331088542938, 0.5195093750953674, 0.2221646010875702, 0.20164380967617035, 0.411800354719162, 0.1025046855211258, 0.37612098455429077, 0.2778412401676178, 0.22991123795509338, 0.2301011085510254, 0.3086111545562744, 0.16081906855106354, 0.23763595521450043, 0.3796020448207855, 0.1831456869840622, 0.2214081585407257, -3.33351731300354, -2.1456451416015625, 0.8375892639160156, -0.10927631705999374, -3.0213048458099365, -0.6376222968101501, 0.06946560740470886, 0.48967882990837097, -0.23554229736328125, 0.10449126362800598, -0.7924913763999939, 0.7776948809623718, 0.000772898958530277, 0.3758837878704071, -0.04954853653907776, -0.0293197650462389, 0.03769438713788986, 0.3197648525238037, -0.6698059439659119, -0.08427064120769501, 0.29639261960983276, 0.3329783082008362, 0.3921312391757965, 0.32042714953422546, 0.3436318039894104, -0.5932625532150269, 0.6476329565048218, -0.266989529132843, 0.18403702974319458, 0.5212724208831787, 0.2741526961326599, 0.27648746967315674, 0.13552848994731903, 0.05647513270378113, -0.022503666579723358, 0.18578991293907166, 0.39294859766960144, 0.2935151159763336, 0.3226529359817505, 0.24558641016483307, 0.2189524620771408, 0.10935238003730774, 0.3670056462287903, -0.05069628730416298, 0.2474192976951599, 0.12163607776165009, 0.28385472297668457, 0.22090961039066315, 0.2030295878648758, 0.28006744384765625, 0.2617937922477722, -0.022049905732274055, 0.1697303205728531, 0.09519293904304504, 0.20334818959236145, 0.09744966775178909, 0.40352439880371094, -0.014186735264956951, 0.3865884244441986, 0.2658739387989044, 0.19334745407104492, 0.2906129062175751, 0.14646287262439728, 0.2531432509422302, -1.0247458219528198, -2.811103582382202, 0.6417211890220642, -0.09455323219299316, -3.07820725440979, -0.5346458554267883, -0.04838252440094948, 0.40059661865234375, -0.595784604549408, -0.15490370988845825, -1.7972567081451416, 1.0868330001831055, -0.18207234144210815, 0.12328802794218063, -0.31051909923553467, -0.019681258127093315, -0.7673705220222473, 0.010385599918663502, -1.2792989015579224, 0.15914086997509003, -0.19272157549858093, 0.007235514931380749, 0.21204619109630585, 0.31131279468536377, 0.19410428404808044, -0.9366002082824707, 0.5393521189689636, -0.08291484415531158, 0.15541739761829376, 0.2193879783153534, 0.4250589609146118, 0.22233733534812927, 0.009186270646750927, -0.17773307859897614, -0.019826846197247505, 0.2617465853691101, 0.5006922483444214, 0.4136081635951996, 0.24401819705963135, 0.2750207781791687, -0.198343887925148, 0.15196776390075684, 0.3139112591743469, 0.2283739298582077, 0.2548409700393677, 0.11825952678918839, 0.4472786486148834, 0.046215202659368515, 0.18168434500694275, 0.3588886260986328, 0.4164244532585144, 0.1556282490491867, 0.3640030324459076, 0.12506155669689178, 0.4395684599876404, 0.1211097314953804, 0.34207671880722046, 0.12226865440607071, 0.36708807945251465, 0.5203127861022949, 0.19459539651870728, 0.438841849565506, 0.13442902266979218, 0.2741277813911438, -0.2563938796520233, 0.10881897062063217, -1.0670329332351685, -0.3456576466560364, -0.429905503988266, 0.08945322781801224, -0.09058275073766708, -0.04882706701755524, -0.04286133497953415, 0.7266438603401184, -1.1833857297897339, 0.3392588794231415, -0.35148730874061584, 0.24864749610424042, 0.21183912456035614, 0.0983821377158165, -0.5889962911605835, 0.35706186294555664, -1.3985798358917236, 0.08941475301980972, -0.4903075695037842, -0.12944501638412476, -0.06492321193218231, 0.060414351522922516, -0.07035689800977707, -0.0711391270160675, 0.5022348761558533, 0.42414286732673645, 0.1539992243051529, 0.21811874210834503, 0.24322788417339325, 0.09938278794288635, -0.21160337328910828, 0.03286112844944, -0.12800340354442596, 0.3383731245994568, 0.40622347593307495, 0.11485613137483597, 0.40232834219932556, 0.1534460186958313, -0.1843338906764984, 0.045794226229190826, 0.169039785861969, 0.10572733730077744, 0.30773553252220154, 0.04681152105331421, 0.26911503076553345, 0.09807194769382477, -0.18294300138950348, 0.0014523601857945323, 0.03339583799242973, 0.14847402274608612, 0.2514408528804779, 0.07352844625711441, 0.09121468663215637, -0.035920415073633194, -0.1042482852935791, -0.10982980579137802, -0.028309151530265808, 0.17485330998897552, 0.13264547288417816, 0.011044065468013287, 0.09241906553506851, 0.04900726303458214], [-0.25153231620788574, 0.0899970531463623, -0.2676584720611572, -0.9791132211685181, -0.10356795787811279, 0.48791956901550293, -0.11634683609008789, -0.492412805557251, 0.04862234741449356, 0.29257509112358093, -0.06316062062978745, 0.119688980281353, -0.09955370426177979, 0.18754400312900543, -0.02979361079633236, -0.014371121302247047, 0.007966977544128895, 0.1632596254348755, -0.2557109594345093, 0.8318804502487183, 0.04561271145939827, 0.4907161593437195, 0.15129345655441284, -0.0012561222538352013, -0.09340779483318329, 0.07449714094400406, 0.05655815452337265, -0.10377474129199982, 0.2477070540189743, -0.2025117427110672, 0.15041618049144745, -0.036624543368816376, 0.010553952306509018, 0.11642207950353622, -0.04012679681181908, -0.23502318561077118, 0.08461964875459671, -0.12385270744562149, 0.10787346214056015, 0.0678948387503624, 0.05995652824640274, 0.05848996713757515, 0.011826473288238049, 0.08190996944904327, 0.09766066074371338, 0.012349264696240425, -0.03582938760519028, 0.04066179692745209, 0.07544764131307602, 0.025887221097946167, -0.034744709730148315, -0.019930945709347725, -0.15977734327316284, 0.023308895528316498, -0.03682275861501694, 0.018737347796559334, 0.17852997779846191, 0.8012202978134155, -0.046013474464416504, 0.7694289684295654, 0.7855464220046997, -0.5206499099731445, -0.08592021465301514, -0.4720590114593506, -0.1058371290564537, -0.15261460840702057, 0.005386022850871086, 0.09192157536745071, -0.010501076467335224, 0.04425891861319542, -0.043806664645671844, -0.0462229959666729, -0.03782608360052109, 0.1004619374871254, -0.010571544989943504, 0.0561230331659317, -0.010919288732111454, 0.019612010568380356, -0.018037235364317894, -0.0982048287987709, -0.0771426185965538, 0.049968838691711426, -0.11449916660785675, 0.27649328112602234, 0.048329103738069534, 0.013063700869679451, -0.021778199821710587, -0.06358369439840317, -0.034322746098041534, 2.084710831695702e-05, -0.08514799177646637, -0.08321890234947205, -0.0420013889670372, -0.2203843742609024, -0.034011416137218475, -0.09557098150253296, -0.08447640389204025, -0.034354228526353836, -0.09472375363111496, 0.01198503002524376, -0.08404708653688431, -0.03174606338143349, -0.13329727947711945, 0.015459664165973663, -0.08293811231851578, -0.057356394827365875, -0.133405402302742, -0.11384741961956024, -0.05257481709122658, -0.03413261100649834, -0.09382223337888718, -0.05272473394870758, -0.08723646402359009, -0.09687844663858414, -0.1423916220664978, -0.15402375161647797, -0.10890687257051468, -0.11207432299852371, -0.12558825314044952, -0.17569608986377716, -0.12637457251548767, -0.2169950008392334, -0.058973781764507294, -0.1544354408979416, -0.1273319572210312, -0.20483696460723877, -0.14833179116249084, -0.1804729402065277, -0.05881088972091675, -0.11019174754619598, -0.17601555585861206, -0.04176323488354683, -0.02463563345372677, 0.07760140299797058, -0.17516770958900452, -0.12863464653491974, -0.0999164879322052, -0.05738653987646103, -0.07545316219329834, -0.10196597874164581, -0.015336713753640652, 0.076824851334095, -0.04594399034976959, -0.15117919445037842, -0.12326613068580627, -0.04442054405808449, -0.12745633721351624, 0.3910927474498749, 0.00036352060851641, 0.16232948005199432, -0.1524522453546524, -0.21396976709365845, 0.036390915513038635, -0.05467241257429123, -0.14798136055469513, 0.02802114374935627, -0.06201587989926338, -0.10285049676895142, -0.14102302491664886, 0.036978643387556076, -0.0808175727725029, -0.18709272146224976, -0.002619062317535281, -0.05504779517650604, -0.0782395675778389, -0.07805261015892029, -0.013286632485687733, -0.16120901703834534, -0.08016447722911835, 0.015197716653347015, -0.10735350102186203, -0.14151406288146973, -0.11296182870864868, -0.08501244336366653, -0.09675430506467819, -0.062098801136016846, -0.0633881539106369, -0.09752540290355682, -0.09420476108789444, -0.17955820262432098, -0.08373517543077469, -0.10401999205350876, -0.04703130945563316, -0.08031062036752701, -0.07671201974153519, -0.10667330771684647, -0.14581240713596344, -0.03136709704995155, -0.1924918293952942, -0.09108152240514755, -0.1528080552816391, -0.20679928362369537, -0.11728058755397797, -0.19503167271614075, -0.16552750766277313, -0.10844112932682037, -0.1099100261926651, -0.24822472035884857, -0.3480842709541321, -0.3600142002105713, -0.20135129988193512, -0.14617200195789337, -0.22354193031787872, 0.042543720453977585, -0.16492469608783722, -0.10522338002920151, -0.2667936682701111, -0.42006102204322815, -0.1091315969824791, -0.1415446400642395, -0.26958563923835754, 0.4065592586994171, -0.17926718294620514, 0.11729906499385834, -0.23379626870155334, -0.09366201609373093, -0.13412991166114807, -0.186626598238945, -0.10655786097049713, -0.063022680580616, -0.02076760120689869, -0.13981939852237701, -0.17150267958641052, -0.16583560407161713, -0.0769205242395401, -0.24342666566371918, -0.04716522991657257, -0.17364047467708588, -0.07058067619800568, -0.05291614681482315, -0.14570550620555878, -0.14717228710651398, -0.22683311998844147, -0.2910628318786621, -0.1373302936553955, -0.1839529424905777, -0.07117336988449097, -0.12484177201986313, -0.17135539650917053, -0.17656488716602325, -0.18643753230571747, -0.264865517616272, -0.16172237694263458, -0.11915010213851929, -0.14341631531715393, -0.05576403811573982, -0.21135391294956207, -0.25838837027549744, -0.1964682787656784, -0.20085042715072632, -0.1901831328868866, -0.1855490654706955, -0.17265942692756653, -0.1929662674665451, -0.2075759917497635, -0.27539175748825073, -0.44550076127052307, -0.40765365958213806, -0.44000473618507385, -0.30517807602882385, -0.2814721167087555, -0.32148948311805725, -0.4209539592266083, -0.3950721323490143, -0.34938570857048035, -0.31820520758628845, -0.3437431752681732, -0.16203425824642181, -0.30008262395858765, -0.1532064527273178, -0.30800843238830566, -0.46957656741142273, -0.32169651985168457, -0.30620041489601135, -0.3519361615180969, 0.1172863319516182, -0.3367781639099121, -0.11121777445077896, -0.3882942795753479, -0.3557129502296448, -0.3079797029495239, -0.4153215289115906, -0.3189813792705536, -0.22651135921478271, -0.3190806806087494, -0.3155232071876526, -0.3296980857849121, -0.37122899293899536, -0.34459245204925537, -0.360714852809906, -0.2346235066652298, -0.29104936122894287, -0.28081807494163513, -0.25686195492744446, -0.2926756739616394, -0.49629825353622437, -0.36389032006263733, -0.4099956154823303, -0.3442153036594391, -0.35639798641204834, -0.418449729681015, -0.5514059662818909, -0.40307971835136414, -0.5658677220344543, -0.3924870193004608, -0.40893808007240295, -0.35801607370376587, -0.3124294877052307, -0.3517843186855316, -0.29156818985939026, -0.5871585607528687, -0.3769441843032837, -0.39804649353027344, -0.48619112372398376, -0.19670897722244263, -0.42004865407943726, -0.34857866168022156, -0.2974364757537842, -0.2721627950668335, -0.4399977922439575, 0.04307885095477104, 0.11879268288612366, 0.12586963176727295, 0.13885582983493805, 0.014417843893170357, 0.13038496673107147, 0.19255423545837402, 0.20344598591327667, -0.016857484355568886, 0.12416793406009674, 0.04868026822805405, 0.10345746576786041, 0.061028480529785156, 0.11692187935113907, 0.011087752878665924, 0.1797216236591339, 0.03826865181326866, 0.10148824006319046, -0.017717432230710983, 0.8326236009597778, 0.25224569439888, 0.5472050905227661, 0.1586962342262268, 0.13847385346889496, -0.029618147760629654, 0.057112324982881546, 0.15800237655639648, 0.3030925691127777, 0.3382541537284851, 0.17152903974056244, 0.24654033780097961, 0.10844842344522476, 0.08334790915250778, -0.13587771356105804, 0.16492965817451477, 0.16437125205993652, 0.13217560946941376, 0.2486458122730255, 0.1509142816066742, 0.09795507788658142, 0.051429059356451035, 0.19095197319984436, 0.016721569001674652, 0.10629186779260635, -0.18453070521354675, 0.09333422780036926, -0.0643116682767868, 0.06365122646093369, 0.12031251937150955, 0.3674505650997162, 0.058365192264318466, -0.03835061565041542, -0.18542277812957764, -0.20367445051670074, 0.08481811732053757, 0.0804562196135521, 0.05264298617839813, 0.10596317052841187, -0.009013357572257519, 0.05582566559314728, -0.04849802330136299, -0.02935229428112507, -3.379301051609218e-05, -0.07533726096153259, -0.2472209930419922, 0.11451387405395508, -0.00764775276184082, 0.050948500633239746, -0.1981445550918579, -0.03867006301879883, 0.4346679449081421, 0.7305186986923218, 0.051011137664318085, 0.015507731586694717, 0.4391271471977234, 0.3382488191127777, 0.5899056196212769, 0.5198200941085815, -0.025871897116303444, -0.18836571276187897, 0.03192812204360962, -0.16919206082820892, 0.2228015959262848, -0.5564834475517273, 0.017543790861964226, -0.4400320053100586, 0.06857578456401825, -0.11584433913230896, 0.15550097823143005, -0.41546985507011414, 1.1034141778945923, -0.5318636894226074, 1.6944971084594727, 0.05346338078379631, 0.9390507936477661, 0.065516397356987, 0.1261727213859558, -0.2595863342285156, 0.05619167909026146, 0.14812172949314117, -0.3353947103023529, 0.16332851350307465, -0.3956548571586609, 0.00238031311891973, 0.5816956162452698, 0.02559073641896248, 0.3333950340747833, 0.15963296592235565, -0.4009236991405487, 0.4595487713813782, -0.15650807321071625, 0.25615766644477844, 0.12199165672063828, 0.07350609451532364, 0.12607833743095398, 0.23521779477596283, 0.09259416908025742, 0.25516292452812195, 0.03854263201355934, 0.09314649552106857, 0.30324316024780273, 0.8282049894332886, 0.7812694311141968, -0.8388118743896484, -0.8150670528411865, -0.8842182159423828, -0.444740891456604, -0.201857328414917, -0.17760631442070007, -0.7363970279693604, 0.4820427894592285, -0.17703381180763245, 1.287878394126892, 0.17995280027389526, 0.39699721336364746, -0.5091637969017029, -0.4025348424911499, 0.5867108106613159, -0.19559477269649506, 0.8306246399879456, -0.29338982701301575, 0.7871721982955933, -0.460744172334671, 0.31687507033348083, 0.12680445611476898, -0.26681897044181824, 0.4127315878868103, -1.1337794065475464, -0.23842981457710266, -0.4622766077518463, -0.19747193157672882, 0.12015188485383987, -0.2678709626197815, 0.4350758492946625, -0.07857818901538849, 0.6060166358947754, 0.092628113925457, 0.9287317395210266, 0.2284313589334488, 0.6389517784118652, 0.18430064618587494, -0.8682320713996887, 0.8258968591690063, -0.22263522446155548, 0.9486175775527954, 0.14443859457969666, 0.33263030648231506, -0.19376240670681, 0.1666145920753479, -0.023682625964283943, 0.13921408355236053, 0.15195763111114502, -0.3299875855445862, -0.018358098343014717, -0.09832680225372314, -0.08618537336587906, 0.5510678291320801, 0.18875451385974884, 0.4354143738746643, 0.32190513610839844, -0.07750909775495529, 0.37215110659599304, 0.11752358824014664, 0.22195467352867126, -0.10951893031597137, 0.22743186354637146, 0.03471187874674797, 0.28867781162261963, 0.06989169120788574, 0.301046758890152, -0.02365388162434101, 0.12938956916332245, -0.41642481088638306, 0.23558053374290466, -0.6282742619514465, 0.4623674750328064, -0.090601846575737, 1.0038703680038452, -0.3779345750808716, -0.12838855385780334, -0.016938231885433197, -0.4909147322177887, 1.0069626569747925, -0.24960072338581085, 1.5640941858291626, -0.2579960823059082, 0.8007025122642517, -0.3323062062263489, -0.31396493315696716, 0.07690275460481644, -0.15766358375549316, -0.661078155040741, -0.417100191116333, -0.8002976775169373, -0.50980544090271, 0.29838722944259644, 0.5506405830383301, -0.7148811221122742, 1.064368486404419, -0.2432653307914734, 0.8868609070777893, 0.19407257437705994, 0.7624412178993225, -0.03599300608038902, -0.45049116015434265, 0.1534164994955063, -0.36111217737197876, 0.9774513244628906, -0.669701099395752, 1.1680577993392944, -0.8100176453590393, 0.5409549474716187, 0.6485593914985657, -0.3151654005050659, 0.46770548820495605, -0.331968754529953, -0.18134015798568726, -0.09556350111961365, 0.4433092474937439, -0.31804701685905457, -0.3116370141506195, 0.39398589730262756, -0.06355614215135574, 0.546511173248291, 0.0055253757163882256, 0.2880028188228607, 0.0853298157453537, 0.32758447527885437, 0.20421504974365234, -0.12206938117742538, 0.36166948080062866, -0.24766245484352112, 0.4843703806400299, -0.09050720930099487, 0.2781687080860138, -0.08999380469322205, -0.17686870694160461, -0.18729160726070404, -0.4662257134914398, 0.28610867261886597, 0.46668386459350586, 0.46366435289382935, 0.040193285793066025, -0.304261177778244, -0.18207059800624847, 0.0333142913877964, -0.17441663146018982, 0.6940205097198486, 0.06479000300168991, 0.3375374972820282, -0.1372169703245163, -0.12248118221759796, 0.1485735923051834, 0.24254383146762848, 0.8311969637870789, -1.3454571962356567, 0.7654007077217102, -0.7789091467857361, 0.3650124669075012, 0.08845720440149307, -0.11230148375034332, 0.006506447214633226, -0.17034141719341278, 0.27403128147125244, -0.03702395781874657, 0.5141273140907288, 0.09248608350753784, 0.010712374933063984, 0.1867784708738327, -0.5831180810928345, 0.05930737778544426, 0.8595331311225891, -0.1471988707780838, 0.6275139451026917, -0.323325514793396, 0.10550962388515472, 0.09098685532808304, 0.42791852355003357, -0.04962427541613579, 0.1171138733625412, -0.2531065046787262, 0.11833923310041428, 0.1173522099852562, 0.09502509981393814, -0.029318934306502342, 0.06477104127407074, 0.07015567272901535, -0.06609576940536499, 0.0756107047200203, -0.17822347581386566, 0.056185487657785416, -0.09050189703702927, 0.06559543311595917, 0.15002834796905518, 0.0029697215650230646, 0.11948893219232559, 0.1410996913909912, 0.0763484463095665, 0.04755878821015358, 0.038532741367816925, -0.22748617827892303, -0.09972096979618073, -0.5712786912918091, -0.020724192261695862, 0.06974928826093674, 0.44494882225990295, -0.1532883197069168, -0.23717977106571198, -0.2076399028301239, -0.35575059056282043, 0.16734959185123444, 0.25601232051849365, 0.7309601902961731, -0.31700798869132996, -0.11912558227777481, -0.2950306534767151, -0.14938242733478546, -0.04325313866138458, 0.3983624577522278, -1.6260045766830444, 0.348827600479126, -1.2808457612991333, -0.09055759757757187, 0.0011322451755404472, 0.033908724784851074, -0.5347771048545837, 0.35080283880233765, 0.05166863650083542, 0.24140910804271698, 0.5694724321365356, 0.47337815165519714, -0.07215249538421631, -0.2014877200126648, -0.6975927352905273, -0.21839340031147003, 0.9954659938812256, -0.5336557626724243, 0.8416038751602173, -0.7447812557220459, 0.1646660566329956, 0.2897646725177765, 0.040894780308008194, -0.0011636518174782395, -0.16223332285881042, -0.4651262164115906, -0.012787162326276302, 0.10120411217212677, -0.07709727436304092, -0.2153826206922531, -0.00486511318013072, -0.025072161108255386, 0.05651154741644859, 0.16969098150730133, -0.12241943925619125, 0.07978788763284683, 0.02441071905195713, -0.06386931985616684, -0.026321982964873314, -0.016577785834670067, 0.007941896095871925, 0.2513805031776428, 0.006347310729324818, 0.14067703485488892, -0.04935026541352272, 0.10186488926410675, -0.009034764021635056, 0.13054919242858887, -0.21690598130226135, -0.07253602892160416, -0.1628597527742386, -0.05071493238210678, 0.05578896403312683, 0.2639089524745941, -0.3168507218360901, 0.7357751727104187, 0.3125284016132355, 0.6733239889144897, 0.3299977481365204, 0.6074020862579346, 0.19265177845954895, 0.08120965957641602, -0.6559873223304749, 0.7370397448539734, -1.0171074867248535, 0.39518314599990845, -0.5178245902061462, 0.12557832896709442, -0.09354627132415771, 0.4276706874370575, -0.12654347717761993, 0.790912389755249, 0.31419339776039124, 0.6428015828132629, 0.7309190034866333, 0.38167861104011536, 0.293997585773468, 0.18213799595832825, -0.6936262845993042, 0.21198680996894836, 0.8166506886482239, -0.3011687695980072, 0.6737451553344727, -0.5496430993080139, 0.14552618563175201, 0.08561871200799942, 0.006759150419384241, 0.09715807437896729, 0.05611793324351311, -0.11435724794864655, 0.4393221139907837, 0.09538634121417999, 0.2329747974872589, 0.04413198307156563, -0.09101337194442749, 0.1287827491760254, 0.2665279805660248, 0.45103296637535095, 0.3516899049282074, 0.20024846494197845, 0.06955335289239883, 0.04232758656144142, -0.04535400867462158, -0.0013758264249190688, -0.011917071416974068, 0.13320408761501312, 0.09769821912050247, 0.1060008779168129, 0.07834125310182571], [-0.8435088396072388, 0.3267638683319092, 0.6477532386779785, -0.11545455455780029, 0.22974073886871338, 0.4451805353164673, -0.9875789880752563, -0.164528489112854, -0.06560706347227097, 0.013655345886945724, -0.08294040709733963, 0.10621558129787445, 0.11159686744213104, 0.2570664584636688, 0.11107942461967468, 0.0213326346129179, -0.05251465365290642, 0.17544840276241302, 0.4645608961582184, 0.7601037621498108, 0.27345457673072815, -0.18447843194007874, 0.08825703710317612, -0.05490443482995033, 0.1255553662776947, 0.04042104631662369, 0.024142926558852196, 0.0072515918873250484, -0.03290785476565361, 0.11795318871736526, 0.09792443364858627, 0.12676943838596344, 0.06001044809818268, -0.08774188160896301, 0.045572396367788315, 0.1177816092967987, -0.019904665648937225, 0.18448950350284576, -0.003632502630352974, 0.1153050884604454, 0.20218847692012787, 0.27668190002441406, 0.19912536442279816, 0.1201070249080658, -0.01754327304661274, 0.06457448750734329, -0.0059833345003426075, 0.11229798197746277, 0.27743619680404663, 0.17713168263435364, 0.07232161611318588, -0.009110568091273308, -0.08017290383577347, -0.03250431641936302, 0.011958342045545578, 0.07291542738676071, -0.9653103351593018, -0.4211292266845703, -0.7820827960968018, -0.24090957641601562, 0.36342060565948486, -0.8319323062896729, -0.04667818546295166, -0.9783802032470703, -0.22021666169166565, -0.14754663407802582, -0.040722452104091644, -0.03347054496407509, 0.013890238478779793, -0.006635443773120642, -0.15481574833393097, -0.08987343311309814, -0.09640282392501831, -0.08051954954862595, -0.1135486289858818, -0.06822116672992706, -0.0172259658575058, -0.013087359257042408, -0.08233855664730072, -0.21542443335056305, -0.10992451757192612, 0.11229521781206131, 0.12859512865543365, 0.24125762283802032, -0.08629591763019562, -0.021971240639686584, -0.17818348109722137, -0.1760711669921875, -0.04185451567173004, -0.09863981604576111, 0.007493844721466303, -0.10556404292583466, -0.01711008884012699, -0.04192667454481125, -0.056709084659814835, -0.16496630012989044, -0.13790710270404816, 0.06847945600748062, -0.09142573177814484, -0.10187278687953949, 0.020787127315998077, -0.026609551161527634, -0.114934042096138, -0.11166010797023773, 0.023964954540133476, -0.03293195366859436, 0.11077069491147995, -0.09622916579246521, -0.046065349131822586, -0.07815971970558167, -0.146457239985466, -0.06711136549711227, 0.04453481733798981, -0.0660323053598404, -0.08658511191606522, -0.13464626669883728, -0.12916670739650726, -0.15499569475650787, -0.09410739690065384, -0.10546325892210007, -0.14056654274463654, -0.10971271991729736, -0.11760255694389343, -0.1685744971036911, -0.07977180927991867, -0.08758271485567093, -0.37528160214424133, -0.29903167486190796, -0.1266857534646988, -0.16435940563678741, -0.26170071959495544, -0.1729472428560257, -0.1201009675860405, 0.13344766199588776, -0.20448480546474457, -0.28122130036354065, -0.1295713484287262, -0.10683748871088028, -0.26586878299713135, -0.08065483719110489, 0.023644044995307922, 0.1326785534620285, -0.22307635843753815, -0.2627813220024109, -0.18355922400951385, -0.2200642228126526, 0.1299532651901245, 0.3939547836780548, 0.04415610060095787, -0.10414304584264755, -0.1284872442483902, -0.30001312494277954, -0.28765901923179626, -0.22776609659194946, -0.11632759869098663, 0.09129883348941803, -0.019016815349459648, -0.014445691369473934, -0.1372808814048767, -0.3986882269382477, -0.18538130819797516, 0.16343481838703156, 0.008914491161704063, -0.16541114449501038, 0.02368280105292797, -0.15897712111473083, -0.08628042787313461, -0.19053010642528534, -0.01708723045885563, 0.01168955210596323, 0.07634823024272919, -0.07142692059278488, -0.22447460889816284, -0.04182986542582512, -0.040962520986795425, -0.15886439383029938, -0.04188600182533264, -0.09401751309633255, -0.05152078717947006, -0.06705091148614883, -0.15283513069152832, -0.12853330373764038, -0.09553132951259613, -0.13967008888721466, -0.11343099176883698, -0.14198267459869385, -0.15567514300346375, -0.13866402208805084, -0.04984917491674423, -0.20747952163219452, -0.2307935655117035, -0.2613345682621002, -0.21147015690803528, -0.26296550035476685, -0.19964614510536194, -0.222239688038826, -0.1602584272623062, -0.33699947595596313, -0.30939674377441406, -0.30084383487701416, -0.3070280849933624, -0.10115315765142441, -0.1572885364294052, -0.10742339491844177, -0.1232433095574379, -0.2527305781841278, -0.40963608026504517, -0.5067874789237976, -0.09406440705060959, -0.10651429742574692, 0.07615194469690323, 0.15426358580589294, -0.2313627451658249, -0.47106102108955383, -0.35451480746269226, -0.37528613209724426, -0.22908569872379303, -0.2501521706581116, -0.1253812611103058, -0.1375407725572586, -0.16510780155658722, -0.2742690145969391, -0.351839542388916, -0.2697426378726959, -0.06076696142554283, 0.03527805954217911, 0.07012190669775009, -0.14314474165439606, -0.07044783979654312, -0.20091702044010162, -0.1230643093585968, -0.16024360060691833, -0.1442876160144806, -0.18544267117977142, -0.17354357242584229, -0.23322626948356628, -0.12376224249601364, -0.1831943541765213, -0.18869775533676147, -0.2182101160287857, -0.13654804229736328, -0.1660807728767395, -0.17819933593273163, -0.20357374846935272, -0.14916734397411346, -0.15433035790920258, -0.14187785983085632, -0.14130592346191406, -0.16438119113445282, -0.19782193005084991, -0.19571755826473236, -0.20916596055030823, -0.18502256274223328, -0.24786807596683502, -0.2055799514055252, -0.231353297829628, -0.5583736300468445, -0.5741470456123352, -0.48742812871932983, -0.561459481716156, -0.45010116696357727, -0.4222095310688019, -0.3608052134513855, -0.6400464177131653, -0.4820365905761719, -0.40015536546707153, -0.4525074362754822, -0.326217383146286, -0.3635851740837097, -0.3610598146915436, -0.49259135127067566, -0.5524085760116577, -0.3403359651565552, -0.4110642969608307, -0.2733607292175293, -0.032339032739400864, -0.43510594964027405, -0.45785579085350037, -0.5474040508270264, -0.5995943546295166, -0.4355180263519287, -0.5273091197013855, -0.419680655002594, -0.2832992374897003, -0.47068101167678833, -0.3914819657802582, -0.7177627086639404, -0.7647486925125122, -0.3585112690925598, -0.1273566633462906, -0.24764607846736908, -0.3182036578655243, -0.42086663842201233, -0.5989570021629333, -0.43915340304374695, -0.806253969669342, -0.5189024209976196, -0.41324812173843384, -0.4106031358242035, -0.4912508428096771, -0.5163465738296509, -0.5665990114212036, -0.5615333914756775, -0.693628191947937, -0.45363694429397583, -0.5033416152000427, -0.4795370399951935, -0.5745938420295715, -0.5131246447563171, -0.4261384606361389, -0.6113673448562622, -0.6054447293281555, -0.5588520765304565, -0.4874926507472992, -0.43640509247779846, -0.7063932418823242, -0.5129843950271606, -0.4568045139312744, -0.4467119872570038, -0.551198422908783, 0.08047812432050705, 0.2754771113395691, 0.21669277548789978, 0.060530271381139755, -0.10259187966585159, 0.023949559777975082, 0.15307587385177612, 0.19392481446266174, 0.022088229656219482, -0.08860228955745697, -0.19485382735729218, -0.030359821394085884, -0.031657930463552475, 0.22057674825191498, 0.12671378254890442, 0.1296810805797577, -0.1496078372001648, -0.16003872454166412, 0.20262128114700317, 0.7301719188690186, 0.38135433197021484, 0.08223280310630798, 0.2079230546951294, 0.08007005602121353, -0.11180207133293152, -0.004500170238316059, 0.22177760303020477, 0.31720951199531555, 0.2104911357164383, 0.3271580934524536, 0.1304636001586914, -0.017408860847353935, 0.1023004874587059, 0.16243690252304077, 0.2181525081396103, 0.13910432159900665, 0.01527155190706253, 0.022689033299684525, -0.005870992783457041, 0.07298395782709122, 0.11023770272731781, 0.1032869815826416, 0.03901774063706398, -0.019483037292957306, -0.14051811397075653, -0.12211329489946365, -0.10103262215852737, 0.010640926659107208, -0.08310683071613312, 0.2273796647787094, -0.038841601461172104, -0.145633265376091, -0.2370663583278656, -0.2544373571872711, 0.14001692831516266, -0.07195788621902466, -0.04671197012066841, 0.054887961596250534, -0.24709013104438782, -0.12426617741584778, -0.20235979557037354, -0.12986843287944794, 0.013316010124981403, -0.16642865538597107, -0.6768800020217896, -0.7891227006912231, 0.7227292060852051, 0.10924136638641357, -0.002213120460510254, -0.9667149782180786, 0.8773930072784424, -0.6610598564147949, 0.00785242673009634, 0.24483509361743927, 0.6414844393730164, 0.07177164405584335, 0.2331005334854126, 0.16302450001239777, -0.32835516333580017, -0.7572928071022034, -0.06605160236358643, -0.6851156949996948, -0.22550912201404572, -0.8133885264396667, 0.16109633445739746, 0.5507177114486694, 0.12447695434093475, -0.31009572744369507, 0.5993532538414001, 0.2546670436859131, 1.267331600189209, 0.4552479386329651, 0.26957347989082336, 0.1446491926908493, -0.548816442489624, -0.15408988296985626, 0.32535427808761597, 0.5604504346847534, 0.16512134671211243, 0.08918965607881546, -0.02317894995212555, 0.11857987195253372, 0.2848659157752991, 0.10360982269048691, -0.37250104546546936, -0.035887181758880615, -0.24738338589668274, -0.10495249181985855, 0.43776702880859375, -0.12084980309009552, 0.41569599509239197, -0.12230207026004791, 0.07543687522411346, 0.09606684744358063, 0.19931863248348236, 0.007349308114498854, 0.1786946803331375, 0.0715753585100174, 0.17305536568164825, 0.0883140116930008, 0.36051785945892334, -0.8775056600570679, -0.11359584331512451, -0.29679811000823975, 0.6443121433258057, -0.0938040018081665, -0.052744507789611816, 0.8895711898803711, -0.1932867020368576, -0.1473073661327362, 0.633282482624054, 0.17308102548122406, 0.3042355477809906, 0.06861739605665207, -0.6478520035743713, -0.48783087730407715, 0.36614176630973816, 0.6670563817024231, 0.12674301862716675, 0.05733406916260719, -0.08615192025899887, 0.8674627542495728, -0.16388177871704102, -0.652469277381897, -0.6961719989776611, -1.1097099781036377, -0.6559731364250183, -1.0696369409561157, 0.01992514170706272, 0.32015669345855713, 0.2885812520980835, 0.06880711764097214, 0.2303779125213623, 0.059347428381443024, -0.16595926880836487, 0.05835067853331566, 0.2584044933319092, 0.657880425453186, 0.09426664561033249, -0.2244599610567093, 0.5622572302818298, 0.5856786370277405, 1.136534333229065, 0.16105395555496216, 0.717264711856842, -0.45143502950668335, 0.08770668506622314, 0.32674798369407654, 0.06434515863656998, 0.4728517532348633, -0.007869296707212925, 0.026743214577436447, -0.23697657883167267, 0.3643525540828705, 0.293648898601532, 0.3247644901275635, -0.12108781933784485, 0.18169251084327698, 0.17040137946605682, 0.255450576543808, 0.4027492105960846, 0.0755896344780922, 0.31755387783050537, 0.17410781979560852, 0.04552983492612839, 0.2620507478713989, 0.12981152534484863, 0.14073964953422546, 0.25507843494415283, 0.1568981111049652, 0.28384101390838623, 0.12575633823871613, -0.1867741197347641, 0.4787912964820862, -0.5405763387680054, -0.044016283005476, 0.17804314196109772, 0.4024484157562256, -0.5829570889472961, -0.5082376599311829, 0.24694469571113586, 0.09748611599206924, 1.4744930267333984, 0.18260696530342102, 0.20712678134441376, -0.13253898918628693, 0.1620328426361084, -0.3063272535800934, -0.049435343593358994, -0.5495429635047913, -0.926382839679718, -1.1560547351837158, -0.5369049906730652, 0.8766231536865234, -0.004118958953768015, 0.05980069935321808, -0.07633005082607269, -0.5346233248710632, 0.6942458748817444, 0.2435910999774933, 0.5298458933830261, -0.08732485771179199, 0.24437305331230164, -0.07390788197517395, -0.04940347746014595, 1.2287615537643433, 0.01820349507033825, 0.1879308670759201, 0.17870986461639404, -0.10329607874155045, 0.40767356753349304, 0.28843313455581665, 0.20825925469398499, -0.20696471631526947, 0.008390112780034542, -0.035363808274269104, 0.565413236618042, -0.08201716095209122, 0.31640443205833435, -0.11028044670820236, -0.09771450608968735, 0.3272571861743927, 0.23098185658454895, 0.37244197726249695, 0.05993494391441345, 0.34560254216194153, 0.15040166676044464, 0.28114476799964905, 0.18068228662014008, 0.06096506863832474, 0.4008629620075226, -0.16079312562942505, 0.041165560483932495, 0.11268715560436249, 0.2867746353149414, 0.04052770882844925, -0.15427342057228088, -0.032079268246889114, -0.5010396838188171, 0.27235281467437744, 0.4292570650577545, 0.2824607491493225, -0.18547748029232025, -0.38482242822647095, -0.1841859072446823, -0.14569254219532013, 0.2777787744998932, 0.3045986592769623, -0.18999969959259033, -0.11359474807977676, -0.218155637383461, -0.3884737491607666, 0.2410566508769989, -0.512962281703949, -0.1903526484966278, -1.0220551490783691, 0.33640995621681213, 1.1233296394348145, 0.1986694186925888, 0.03237017244100571, 0.061880096793174744, -0.18235987424850464, -0.19487427175045013, 0.8594636917114258, 0.07427309453487396, 0.30843132734298706, -0.08129818737506866, 0.030647026374936104, -0.006715079769492149, 0.7948672771453857, 0.11803257465362549, -0.19757723808288574, 0.14177574217319489, -0.5737645626068115, 0.4194653034210205, 0.03523670509457588, 0.03411313146352768, 0.16543686389923096, 0.018101422116160393, 0.17768840491771698, 0.03534431383013725, 0.13518531620502472, 0.04601258412003517, 0.04822990670800209, 0.021615400910377502, -0.0614931620657444, 0.09903579950332642, 0.20048470795154572, -0.06999950855970383, -0.03410348668694496, -0.03899194672703743, 0.01680879481136799, 0.1705041229724884, 0.06283126771450043, -0.14087991416454315, 0.20135577023029327, 0.1922949105501175, 0.16562364995479584, 0.08068801462650299, 0.1346086859703064, -0.437420517206192, -0.3924608528614044, -0.9217410683631897, -0.21073216199874878, -0.0704525038599968, -0.049591079354286194, -0.680044949054718, -0.49947455525398254, -0.3265187442302704, -0.6258808970451355, 0.7530430555343628, -0.011528551578521729, -0.42818158864974976, -0.5717739462852478, -0.5516720414161682, -0.5224322080612183, -0.3458879590034485, -1.5759036540985107, -1.2854747772216797, -2.0304508209228516, -0.2827712595462799, 1.067273736000061, -0.1761402189731598, -0.3712749183177948, -0.5537484884262085, -0.7795163989067078, -0.18183062970638275, 0.45065248012542725, -0.11967684328556061, -0.1771729439496994, -0.31692302227020264, -0.25415706634521484, -0.40165582299232483, 1.0640242099761963, -0.1727975755929947, -0.45342952013015747, -0.13681747019290924, -0.8356760144233704, 0.29627424478530884, -0.09821544587612152, -0.25394678115844727, -0.47387441992759705, -0.40442079305648804, -0.2720085382461548, 0.08055087924003601, -0.17715907096862793, -0.1299637109041214, -0.3070239722728729, -0.46608299016952515, -0.25969961285591125, -0.20265597105026245, -0.007418329361826181, -0.2322087585926056, -0.09565647691488266, -0.12038148939609528, -0.046973615884780884, -0.1469731628894806, -0.3587450385093689, -0.25640928745269775, -0.21253593266010284, -0.13778361678123474, -0.04009515047073364, -0.04524395614862442, -0.13223430514335632, -0.13866230845451355, -0.4182499647140503, -0.40843823552131653, -0.4592181444168091, -0.28065380454063416, -0.2256161868572235, -0.1825074553489685, -0.20986385643482208, 0.24042008817195892, 0.30878955125808716, 0.9505640864372253, 0.3723739683628082, 0.04547249898314476, -0.42306020855903625, -0.42574942111968994, -0.023099185898900032, -0.05033601075410843, -0.6722987294197083, -0.1170235201716423, -0.9719530344009399, -0.4268593192100525, -0.01841912604868412, -0.3396570384502411, -0.08703244477510452, -0.20965808629989624, -0.3249723017215729, 0.5654301643371582, 0.6137543320655823, 0.2873738408088684, -0.21469034254550934, -0.3952690660953522, -0.2587943375110626, -0.34693825244903564, 0.6199452877044678, -0.03879781812429428, -0.5707971453666687, 0.2632533013820648, -0.4194883704185486, 0.5810966491699219, -0.10461936891078949, -0.6230268478393555, -0.6888645887374878, -0.45108431577682495, -0.211331307888031, 0.2721642553806305, 0.044764094054698944, -0.004357497673481703, -0.31540992856025696, -0.05588133633136749, -0.21823415160179138, -0.06145446002483368, 0.006130227353423834, 0.10397632420063019, 0.03734498843550682, -0.0944310650229454, -0.17782840132713318, -0.14851003885269165, -0.2015133500099182, -0.21593832969665527, -0.2502182722091675, 0.07093397527933121, -0.08068142086267471, -0.17306198179721832, -0.18578222393989563], [0.05790674686431885, -0.7550992965698242, 0.2716989517211914, -0.8587237596511841, -0.40850400924682617, 0.6958980560302734, 0.938054084777832, -0.07818412780761719, 0.2792949378490448, 0.1348758041858673, -0.08481022715568542, -0.03901233524084091, 0.09035830199718475, -0.03743123635649681, 0.13718882203102112, -0.053323566913604736, 0.0877169817686081, -0.1303350329399109, -0.6900582909584045, -0.25563496351242065, -0.03498194366693497, -0.17996284365653992, 0.19273993372917175, -0.054478082805871964, 0.15582610666751862, -0.032850053161382675, 0.11424274742603302, -0.22241249680519104, -0.11752203106880188, -0.03318627178668976, 0.08999738842248917, -0.01913761906325817, 0.11349872499704361, -0.21971723437309265, -0.08671466261148453, -0.29145097732543945, -0.19501250982284546, 0.05437510088086128, -0.025226540863513947, -0.005639048758894205, 0.11089631170034409, 0.05360858887434006, 0.18944348394870758, 0.1816575527191162, 0.06254700571298599, 0.1778380125761032, 0.0568389929831028, 0.0035059810616075993, -0.052455607801675797, 0.23962068557739258, 0.054467618465423584, 0.0030356664210557938, 0.010372097603976727, 0.055169276893138885, 0.11485534906387329, 0.061967890709638596, 0.14327025413513184, -0.7419639825820923, 0.5340367555618286, 0.42744648456573486, -0.3823317289352417, -0.3704448938369751, -0.4744914770126343, 0.7816963195800781, -0.22034195065498352, -0.08856774121522903, -0.12105534970760345, -0.24172048270702362, -0.15706726908683777, -0.2279256284236908, -0.3338662087917328, -0.3626047968864441, -0.21757473051548004, -0.24021027982234955, -0.2880920171737671, -0.34599414467811584, -0.1996646523475647, -0.20832960307598114, -0.15011222660541534, -0.3395945727825165, -0.2128111571073532, 