{"conn1.weight": [[0.7645385265350342, 0.8300079107284546, -0.23427248001098633, 0.9186112880706787, -0.21910357475280762, 0.2017906904220581, -0.48685503005981445, 0.587282657623291, -0.08600379526615143, 0.18920110166072845, 0.10937460511922836, -0.08727004379034042, 0.21912166476249695, 0.26183679699897766, 0.011964630335569382, 0.08898796886205673, -0.08106913417577744, 0.017573557794094086, -0.13363368809223175, -0.08602393418550491, 0.2468911111354828, 0.12366370111703873, 0.05892753228545189, -0.06985122710466385, -0.011402523145079613, 0.005032737739384174, 0.0714697539806366, 0.011557254940271378, 0.06853150576353073, -0.01566752977669239, 0.1916336566209793, 0.049176979809999466, -0.13011497259140015, -0.04433087632060051, -0.1839209496974945, 0.15140898525714874, -0.02304891310632229, -0.02826801873743534, 0.21150274574756622, -0.011511467397212982, 0.14647050201892853, 0.2642175555229187, 0.19395038485527039, 0.32017049193382263, 0.18175563216209412, -0.07986598461866379, 0.12337502837181091, 0.05661526322364807, 0.26073601841926575, 0.013990537263453007, -0.2598378658294678, -0.12079860270023346, -0.24820490181446075, -0.06564745306968689, 0.011400777846574783, 0.1518554538488388, 0.3162611722946167, -0.017395973205566406, 0.7826082706451416, -0.7105135917663574, 0.06296372413635254, -0.6825401782989502, 0.308351993560791, -0.34438228607177734, -0.0735795646905899, -0.2371768206357956, 0.057248834520578384, -1.7850445146905258e-05, 0.08473402261734009, 0.02889092080295086, -0.010715754702687263, 0.007516440935432911, -0.06650382280349731, 0.007660779170691967, 0.10859496146440506, 0.03194582834839821, 0.03570351377129555, 0.06531945616006851, 0.022628145292401314, -0.025812450796365738, -0.03733348101377487, -0.04670087248086929, -0.15112712979316711, -0.06275558471679688, 0.026682736352086067, 0.01039125770330429, -0.018281107768416405, -0.10375025123357773, -0.06880704313516617, -0.06284729391336441, -0.07094212621450424, -0.07064405083656311, -0.03055294044315815, -0.00959867611527443, 0.12916085124015808, 0.04247289150953293, -0.04161212965846062, 0.0127713019028306, -0.014013636857271194, 0.08532119542360306, 0.06617546826601028, -0.14117200672626495, 0.033300161361694336, -0.0641176849603653, -0.06349637359380722, 0.04636063426733017, -0.0675787553191185, -0.10089246928691864, -0.1286648064851761, 0.07094914466142654, -0.022508984431624413, -0.03546518087387085, -0.12433577328920364, -0.17560851573944092, -0.19139333069324493, -0.050977181643247604, -0.08121789991855621, -0.016120558604598045, 0.05333380401134491, 0.13261567056179047, -0.07141821831464767, 0.03699883446097374, -0.17998546361923218, -0.06817032396793365, -0.05761498212814331, -0.03823011741042137, -0.009115795604884624, -0.11440425366163254, -0.01575927995145321, -0.03358927741646767, -0.09765864908695221, -0.08651140332221985, -0.00028232616023160517, 0.14344222843647003, -0.14159362018108368, -0.09186612069606781, -0.1917179524898529, 0.053203072398900986, 0.03663617745041847, -0.0966373160481453, 0.05946516618132591, 0.0046883029863238335, -0.0025977180339396, -0.31155213713645935, -0.27225375175476074, -0.08704235404729843, -0.059881724417209625, -0.13788968324661255, -0.004363727755844593, 0.04723754897713661, 0.02988988533616066, -0.00959775224328041, -0.05615145340561867, -0.027392162010073662, -0.0803450495004654, -0.0659685730934143, 0.06882106512784958, -0.07188009470701218, -0.05269042029976845, -0.12648051977157593, 0.11676535755395889, 0.04623551294207573, -0.18975315988063812, -0.06663151830434799, -0.08498833328485489, 0.080874964594841, -0.05599437654018402, 0.0823100209236145, -0.0187281034886837, -0.10993273556232452, 0.07163724303245544, -0.25766974687576294, -0.05456705763936043, -0.0021563987247645855, -0.030404575169086456, -0.07329115271568298, -0.02658018283545971, -0.11973918974399567, -0.2624540627002716, 0.08005455136299133, -0.09976299107074738, -0.05318719893693924, 0.0185779370367527, 0.007845306769013405, 0.024389300495386124, -0.0604705736041069, -0.08428913354873657, -0.012995920144021511, 0.0048341392539441586, -0.116176076233387, -0.11704401671886444, -0.1849452555179596, -0.1726446896791458, -0.0637674331665039, -0.1185249388217926, -0.2676141560077667, -0.03160987049341202, -0.12129621207714081, -0.2727658748626709, -0.18782655894756317, -0.06508979201316833, -0.2404775619506836, -0.23038791120052338, -0.006779721472412348, -0.11318521946668625, -0.07624724507331848, -0.2720288038253784, -0.29133477807044983, -0.06703827530145645, -0.13169361650943756, -0.2829417884349823, 0.05639003589749336, -0.03766079246997833, 0.0029658367857337, -0.04979734867811203, -0.1984739452600479, -0.05520503222942352, -0.11098119616508484, -0.13608598709106445, -0.07892488688230515, -0.08276236802339554, -0.04116100072860718, -0.15678928792476654, -0.07865864783525467, 0.07717864215373993, -0.05913631245493889, -0.16644665598869324, 0.06296494603157043, -0.09499739110469818, -0.05823051184415817, -0.051776789128780365, -0.08526939898729324, -0.17478354275226593, -0.19850920140743256, -0.2834027409553528, -0.08614109456539154, -0.16558042168617249, -0.1186169683933258, -0.13161791861057281, -0.12698547542095184, 0.008456013165414333, -0.007194132544100285, -0.04052065685391426, 0.1511969119310379, 0.14217828214168549, 0.23754100501537323, 0.11103899776935577, 0.051912885159254074, -0.20644386112689972, -0.20706579089164734, -0.26204535365104675, -0.015210806392133236, -0.2102268934249878, -0.15843532979488373, -0.14713239669799805, -0.11169454455375671, -0.25475814938545227, -0.2827248275279999, -0.2164923995733261, -0.3126741349697113, -0.2213994562625885, -0.18965503573417664, -0.35671061277389526, -0.25228551030158997, -0.32402172684669495, -0.3521231412887573, -0.22511447966098785, -0.13308289647102356, -0.1320677250623703, -0.2227945178747177, -0.36508265137672424, -0.352256715297699, -0.3661688566207886, -0.250116765499115, -0.34092047810554504, -0.26095566153526306, -0.20028440654277802, -0.0381682924926281, 0.024777470156550407, -0.25304776430130005, -0.21528534591197968, -0.30305546522140503, -0.2327638417482376, -0.3213444948196411, -0.21060773730278015, -0.05862080678343773, -0.24149951338768005, -0.5457504987716675, -0.2076438069343567, -0.3272358179092407, -0.37811505794525146, -0.35383152961730957, -0.13419915735721588, -0.24009254574775696, -0.277616024017334, -0.2889544367790222, -0.41231709718704224, -0.49342867732048035, -0.4011232256889343, -0.323513925075531, -0.240664541721344, -0.44365194439888, -0.2538875341415405, -0.42204707860946655, -0.19915612041950226, -0.18220724165439606, -0.3294815719127655, -0.24987530708312988, -0.3380435109138489, -0.16091905534267426, -0.3798561990261078, -0.2537131905555725, -0.30144259333610535, -0.4316948354244232, -0.3154910206794739, -0.14884650707244873, -0.19052450358867645, -0.3951639235019684, -0.387834757566452, -0.31311339139938354, -0.19831643998622894, -0.08748316764831543, -0.12003189325332642, -0.1310819685459137, -0.03757110610604286, -0.09729154407978058, 0.014346013776957989, 0.02086540497839451, -0.17722482979297638, -0.0783105343580246, -0.020145270973443985, -0.09436092525720596, 0.025484925135970116, 0.015177343040704727, -0.06899899989366531, -0.04000694677233696, -0.16205184161663055, -0.06015582010149956, -0.0993792712688446, -0.0556684210896492, 0.2729729413986206, 0.1025470420718193, 0.16814585030078888, 0.004316046368330717, -0.1613190919160843, -0.04579588770866394, 0.012474420480430126, -0.010517284274101257, 0.2019229531288147, 0.1176081970334053, 0.04555897042155266, -0.11637412011623383, -0.12711705267429352, -0.08130104839801788, -0.24159429967403412, 0.007481659296900034, 0.1013425812125206, 0.15738627314567566, 0.06971937417984009, 0.018210651353001595, -0.2320236712694168, -0.09772484004497528, -0.19245602190494537, -0.29422950744628906, -0.005217902362346649, 0.05488800257444382, -0.033624738454818726, -0.18305480480194092, -0.09963393211364746, 0.0815393328666687, -0.1256534904241562, -0.11918671429157257, -0.08733125776052475, -0.1628977507352829, 0.10916914790868759, -0.13604138791561127, -0.005496969446539879, -0.11531320214271545, -0.09580114483833313, -0.02864726446568966, -0.1951887309551239, -0.15390406548976898, -0.0753900483250618, -0.0869315043091774, 0.014042377471923828, 0.9098089933395386, -0.8520514965057373, -0.3819591999053955, 0.5832529067993164, -0.21786785125732422, -0.20470023155212402, -0.4167916774749756, 0.4756561815738678, -0.07742674648761749, -0.6292163729667664, 0.8209395408630371, -0.4822141230106354, 0.4778520166873932, -0.15284456312656403, -0.24985890090465546, 0.41250842809677124, 0.24051497876644135, 0.056186843663454056, 0.7415804266929626, -0.2264290750026703, 0.3116133213043213, 0.5567934513092041, 0.03821098804473877, 0.13181042671203613, -0.16925673186779022, -0.019667094573378563, 0.022107480093836784, 0.10195372998714447, -0.0242749210447073, -0.07111671566963196, -0.36800745129585266, 0.08604941517114639, 0.14408251643180847, 0.09178198873996735, 0.05967135354876518, 0.08154729753732681, 0.22279590368270874, -0.11487854272127151, 0.2052377164363861, 0.038774069398641586, 0.1664896458387375, 0.04468628764152527, 0.0733339712023735, 0.19851407408714294, 0.32607170939445496, 0.04437752813100815, 0.3067093789577484, 0.3491317331790924, 0.10769475251436234, 0.3846961557865143, 0.3096449375152588, 0.16813664138317108, 0.16095195710659027, -0.09982766211032867, 0.14289253950119019, -0.3021984100341797, 0.727126955986023, -0.025997161865234375, 0.7805994749069214, 0.9614804983139038, -0.48719096183776855, -0.7295091152191162, 0.8023020029067993, 0.19149410724639893, -0.537203311920166, -0.4102453887462616, 0.5660369396209717, 0.0012139517348259687, 0.21309958398342133, 0.03437209129333496, -0.6640473008155823, -0.09679409861564636, -0.6457095146179199, -0.33375468850135803, 0.6276121735572815, -0.5636483430862427, 0.07025101780891418, 0.12368059903383255, 0.026374632492661476, 0.2276996523141861, -0.02578350156545639, -0.057168133556842804, 0.4061092138290405, -0.19685733318328857, 0.20647665858268738, 0.706515908241272, 0.13509435951709747, 0.10396494716405869, 0.4469788074493408, 0.24206452071666718, 0.24046960473060608, 0.17585693299770355, 0.40300172567367554, -0.4488566517829895, 0.11305978894233704, 0.25701063871383667, -0.021729594096541405, -0.500605046749115, -0.22189541161060333, 0.2592586874961853, 0.20761145651340485, -0.013649282045662403, -0.183353990316391, 0.2738376557826996, -0.15788713097572327, -0.15502408146858215, -0.24674546718597412, 0.17983831465244293, 0.18116377294063568, 0.12431902438402176, 0.19566898047924042, 0.3709217607975006, 0.5511800646781921, 0.2832735776901245, 0.7185570597648621, 0.316952109336853, 0.404764860868454, 0.11522876471281052, 0.20388561487197876, 0.04856326803565025, 0.06431016325950623, 0.2848176956176758, 0.1357189416885376, 0.19015362858772278, -0.026823585852980614, 0.009534073993563652, 0.15148766338825226, 0.19875268638134003, -0.19257932901382446, -0.5488904118537903, 0.9237541556358337, -0.3609808385372162, 0.33672282099723816, -0.0360850989818573, -0.20852923393249512, 0.037370339035987854, -0.6343652009963989, -0.6887142062187195, 0.4510755240917206, -0.8878427743911743, 0.15905632078647614, 0.3789961040019989, -0.07039967179298401, 0.46139681339263916, 0.03606245666742325, -0.1001138761639595, 0.5862957239151001, -0.21900491416454315, 0.02314538136124611, 0.575558066368103, 0.08754007518291473, -0.25813934206962585, 0.26077866554260254, 0.2474898397922516, -0.2054714411497116, 0.5748534798622131, 0.25754493474960327, -0.6549105048179626, -0.08562465757131577, 0.036507200449705124, 0.1111392080783844, -0.10533439368009567, 0.1696719378232956, 0.011014002375304699, 0.07503284513950348, -0.1797933429479599, 0.03790136054158211, 0.38617709279060364, -0.5448367595672607, -0.198614239692688, -0.37434980273246765, -0.06196734681725502, 0.3558870255947113, 0.1406203955411911, 0.08868949860334396, 0.39415261149406433, 0.2922203242778778, 0.510677695274353, 0.83856201171875, 0.4311889410018921, 0.26799407601356506, -0.08046749979257584, 0.23784294724464417, 0.14848540723323822, 0.01962849870324135, -0.20363885164260864, -0.09143608808517456, -0.14024458825588226, 0.3254644572734833, 0.1910242736339569, -0.1142537072300911, -0.055405136197805405, -0.16161194443702698, -0.7625199556350708, 0.8646476864814758, 0.07001329958438873, 0.26689404249191284, -0.13654223084449768, -0.37478572130203247, -0.09346488863229752, 0.010882711969316006, -0.11936332285404205, 0.43071088194847107, -0.24348784983158112, 0.25365403294563293, 0.0739961639046669, -0.055867113173007965, -0.1900564283132553, -0.11838789284229279, 0.44058284163475037, -0.21327728033065796, -0.09801317006349564, -0.21230338513851166, 0.4724682569503784, -0.14104364812374115, 0.029603859409689903, 0.26789289712905884, 0.23173239827156067, -0.1919831931591034, 0.45544883608818054, 0.33316418528556824, -0.15773695707321167, 0.05719069764018059, 0.08992753177881241, 0.430722713470459, -0.05529345944523811, -0.22076745331287384, 0.4256848096847534, 0.08267490565776825, -0.05858634039759636, 0.18807679414749146, 0.24971254169940948, -0.031877342611551285, 0.27233248949050903, -0.6484148502349854, 0.10817709565162659, 0.44584840536117554, 0.1655295193195343, 0.1396128088235855, -0.1559753566980362, -0.2815864086151123, -0.13287347555160522, 0.7709259986877441, -0.4093110263347626, -0.5589140057563782, -0.22916877269744873, -0.2270926833152771, 0.01858212612569332, 0.22414444386959076, 0.21516136825084686, -0.35335710644721985, 0.24515053629875183, 0.14766079187393188, 0.15134958922863007, 0.10343188792467117, -0.01427285186946392, -0.5251176357269287, -0.921897828578949, 1.1140128374099731, -0.40912187099456787, -0.06617498397827148, -0.14069223403930664, -0.431998610496521, -0.1012120470404625, -0.604701578617096, -0.6374731659889221, 0.5341579914093018, -0.7316122055053711, 0.00028362456941977143, -0.23463016748428345, -0.28067854046821594, -0.05354424938559532, -0.1986248791217804, 0.11751478910446167, 0.1316450983285904, -0.28780055046081543, -0.2736092805862427, 0.6305735111236572, -0.2110188603401184, -0.43967196345329285, 0.04662285000085831, 0.02650652639567852, -0.4618009626865387, 0.41568198800086975, 0.1333688497543335, -0.643191397190094, -0.14619982242584229, -0.08438188582658768, 0.0059395888820290565, -0.42067888379096985, -0.3670673370361328, 0.04377637803554535, -0.13712410628795624, -0.41034379601478577, 0.0376269668340683, 0.12107741832733154, -0.7598106265068054, -0.3556109368801117, -0.9431073069572449, -0.17894724011421204, 0.4663783013820648, -1.8649492631084286e-05, 0.01958555541932583, -0.21204765141010284, -0.2893717288970947, -0.05698297172784805, 1.1994366645812988, -0.10563378781080246, -0.459446519613266, -0.4896891713142395, -0.14634579420089722, -0.08064118772745132, -0.013517174869775772, -0.28101080656051636, -0.5307584404945374, -0.12513422966003418, 0.2248438447713852, 0.1993085891008377, -0.10539988428354263, 0.14275109767913818, 0.4584413170814514, 0.090480275452137, 0.4782094657421112, -0.09378407150506973, 0.3572756052017212, 0.05997263640165329, 0.2731068730354309, 0.1500539928674698, 0.018925171345472336, -0.31548359990119934, 0.22980955243110657, -0.2554968595504761, 0.2210603952407837, -0.14423874020576477, 0.09304838627576828, 0.2507615387439728, 0.039678413420915604, 0.4986149072647095, 0.5715070366859436, 0.1680709719657898, 0.4316770136356354, 0.3203781843185425, 0.44410109519958496, 0.1857685148715973, 0.07067493349313736, 0.15746904909610748, 0.18084421753883362, 0.3209633231163025, 0.4932551085948944, -0.018165163695812225, 0.30418550968170166, 0.20799586176872253, 0.5144434571266174, 0.3822454512119293, 0.35768043994903564, 0.5094565749168396, 0.2713383734226227, -0.22460149228572845, 0.4568190574645996, 0.06875070184469223, -0.23963791131973267, 0.1024797186255455, -0.7811323404312134, -0.024440648034214973, 0.47619348764419556, 0.08508935570716858, 0.2198616862297058, 0.35971224308013916, 0.2537417411804199, 0.572994589805603, 1.7550430297851562, 0.5189000368118286, 0.49800825119018555, 0.22954735159873962, 0.269245445728302, 0.013134409673511982, -0.053668733686208725, -0.07553303986787796, -0.26374563574790955, 0.13816650211811066, 0.2296118140220642, 0.16010934114456177, 0.14790226519107819], [-0.6436268091201782, 0.988368034362793, 0.382235050201416, 0.4012446403503418, -0.5982980728149414, -0.4383960962295532, -0.15095412731170654, -0.18287992477416992, 0.012298280373215675, 0.24538202583789825, 0.2818395793437958, 0.07672227174043655, 0.14656390249729156, -0.07773499190807343, 0.06813911348581314, -0.04555102810263634, -0.005684619303792715, -0.01634940318763256, -0.2184385061264038, -0.2071448713541031, 0.41767919063568115, -0.25811639428138733, 0.027431247755885124, 0.030827589333057404, -0.10071749240159988, 0.045561522245407104, 0.1356990486383438, 0.24571077525615692, 0.06489232927560806, 0.15670612454414368, 0.07719194889068604, 0.1636887639760971, -0.056190963834524155, -0.0055561852641403675, -0.0626002848148346, 0.34749817848205566, -0.0764346569776535, 0.14274469017982483, -0.07153739780187607, 0.19945451617240906, 0.11241412162780762, -0.019572250545024872, -0.08896193653345108, 0.03124166466295719, -0.07897090166807175, 0.17313537001609802, 0.06587489694356918, 0.15029866993427277, 0.01546719390898943, -0.024810759350657463, -0.15391340851783752, -0.05793948471546173, -0.1722060739994049, 0.05601465702056885, 0.026461903005838394, 0.13430069386959076, -0.28913891315460205, 0.05072629451751709, 0.6001989841461182, -0.5708626508712769, 0.5006539821624756, -0.35838139057159424, 0.6041092872619629, -0.04747724533081055, 0.026526441797614098, -0.13578832149505615, 0.11418762803077698, 0.09550200402736664, 0.18916434049606323, 0.09668803960084915, 0.08008679747581482, 0.05292298272252083, 0.011841267347335815, 0.052943047136068344, 0.14561665058135986, 0.08940450102090836, 0.13768307864665985, 0.04757837951183319, 0.10066668689250946, 0.07813046127557755, -0.011826850473880768, -0.006705271080136299, -0.18164804577827454, -0.007395740132778883, -0.0005715148872695863, 0.19222086668014526, 0.021045831963419914, 0.09416981786489487, -0.0642492026090622, -0.09330858290195465, 0.20663003623485565, 0.05401640757918358, 0.1784464716911316, -0.019656255841255188, 0.1410386860370636, 0.10698813945055008, -0.06707917898893356, -0.023957140743732452, -0.08532915264368057, -0.03110502101480961, 0.07286020368337631, 0.1542370319366455, 0.009145209565758705, 0.21733561158180237, -0.10794295370578766, -0.21368800103664398, -0.11193829774856567, -0.10647398978471756, -0.0006690800073556602, 0.09523439407348633, 0.03300453722476959, 0.15257157385349274, -0.17742770910263062, -0.13541144132614136, -0.1701350212097168, -0.0479649119079113, -0.025785010308027267, 0.058371055871248245, 0.09778965264558792, 0.060307420790195465, -0.24790164828300476, -0.07430291920900345, -0.0787118449807167, -0.039536003023386, -0.02083463780581951, 0.026654653251171112, 0.006757280323654413, -0.019675856456160545, 0.045098163187503815, 0.038282912224531174, 0.0730944499373436, 0.11188769340515137, 0.05276653170585632, 0.03846089541912079, -0.09706857800483704, -0.2421059012413025, -0.07244571298360825, 0.04535972326993942, 0.0785350576043129, 0.08167313039302826, -0.06911826133728027, 0.08198774605989456, -0.19919610023498535, -0.008445780724287033, -0.10074423998594284, -0.05620351806282997, -0.03858429193496704, -0.22654221951961517, 0.20705455541610718, -0.16149547696113586, -0.03028153069317341, -0.16441336274147034, -0.021977148950099945, 0.013848264701664448, -0.1474308967590332, 0.21455122530460358, -0.07027892768383026, 0.1647118330001831, 0.0961252897977829, -0.09302905201911926, -0.11111501604318619, -0.13565823435783386, -0.09310916811227798, -0.23390798270702362, 0.2321278154850006, 0.01605239138007164, 0.10814452171325684, 0.011384163051843643, -0.08260908722877502, -0.0006403573788702488, -0.21615202724933624, -0.007808499503880739, -0.1868133693933487, 0.12454400211572647, 0.0009142563212662935, 0.10829973965883255, -0.058385733515024185, -0.19396735727787018, -0.03258319944143295, -0.14090682566165924, 0.04861076921224594, -0.08150328695774078, 0.1360073983669281, 0.06259496510028839, -0.09847746044397354, -0.03141335770487785, 0.02367282100021839, 0.01198532897979021, -0.023074327036738396, -0.004977880511432886, -0.08608099818229675, -0.034985899925231934, 0.006541048176586628, -0.09437531232833862, -0.11119875311851501, -0.12457787245512009, 0.11267263442277908, -0.13430622220039368, -0.017528893426060677, -0.10301018506288528, -0.08084570616483688, -0.030383072793483734, -0.19380472600460052, -0.12251003831624985, 0.04832526668906212, -0.054454024881124496, -0.022191472351551056, -0.13900786638259888, -0.010263999924063683, -0.07932943105697632, -0.27422475814819336, -0.19128161668777466, 0.1863008588552475, -0.06878501921892166, -0.019914774224162102, 0.04266919195652008, -0.03528481721878052, -0.08218704164028168, -0.14232654869556427, -0.056138474494218826, 0.007062576711177826, 0.020815566182136536, 0.09299711138010025, 0.02884569577872753, 0.034180764108896255, -0.1399991810321808, -0.16048310697078705, -0.12311249226331711, 0.020498549565672874, 0.044412922114133835, 0.030393235385417938, 0.026566362008452415, -0.15316328406333923, -0.1923884153366089, -0.19023889303207397, -0.1260337382555008, -0.04261092469096184, 0.0006671526934951544, -0.04063510522246361, -0.08288227021694183, -0.05762416869401932, -0.06591662019491196, -0.0823897048830986, -0.023271143436431885, 0.018757890909910202, 0.05779797583818436, 0.0083877919241786, -0.07362683117389679, -0.043551504611968994, -0.010197366587817669, -0.07371234893798828, -0.0742892399430275, -0.0009402299765497446, 0.024027902632951736, 0.04862596467137337, -0.01326393336057663, -0.22883471846580505, -0.20557443797588348, -0.1819804310798645, -0.11459656804800034, -0.06631793826818466, -0.18409335613250732, -0.11492007970809937, -0.29344624280929565, -0.3380368649959564, -0.1724104881286621, -0.23815789818763733, -0.010105108842253685, -0.23527488112449646, -0.04990604519844055, 0.014952207915484905, -0.12211880087852478, -0.26637834310531616, -0.2784537672996521, -0.22821228206157684, -0.3550560474395752, -0.02818969450891018, -0.11613728106021881, -0.054708100855350494, -0.013915574178099632, -0.43107420206069946, -0.30126407742500305, -0.2990885376930237, -0.0879366472363472, -0.21808218955993652, -0.030707983300089836, -0.05983112379908562, -0.07842352241277695, -0.2939557433128357, -0.3190765678882599, -0.3089899718761444, -0.22069214284420013, -0.14095525443553925, -0.1337757408618927, -0.029793819412589073, -0.17469874024391174, -0.32493680715560913, -0.24532273411750793, -0.29780781269073486, -0.18267419934272766, -0.16504383087158203, -0.006321668159216642, -0.18218562006950378, -0.11852743476629257, -0.2378855049610138, -0.256205677986145, -0.14303933084011078, -0.06608162075281143, -0.11959318816661835, -0.04567617550492287, -0.3384278118610382, -0.22953197360038757, -0.19305245578289032, -0.05433782935142517, -0.10463633388280869, -0.15771330893039703, -0.05891096591949463, 0.015270494855940342, -0.07650738209486008, -0.08173858374357224, 0.029078181833028793, 0.07299866527318954, 0.05602133646607399, 0.12072718143463135, -0.11018998175859451, 0.10478843748569489, 0.14148367941379547, 0.1796407699584961, -0.05169270932674408, 0.06710615009069443, 0.19576990604400635, 0.19208721816539764, 0.08570104837417603, 0.1291685849428177, 0.10386155545711517, 0.1383841633796692, -0.04652833566069603, -0.09629271179437637, -0.21612603962421417, -0.0725732147693634, 0.30310556292533875, -0.028940042480826378, 0.16996000707149506, 0.150346577167511, -0.12857042253017426, -0.15625837445259094, -0.1393720805644989, 0.09963572770357132, 0.10797978192567825, 0.3538326323032379, 0.36751407384872437, 0.24502000212669373, -0.007787605747580528, -0.2191232591867447, -0.0960831493139267, -0.04792625084519386, 0.08783368021249771, 0.18731030821800232, 0.2897024154663086, 0.17380385100841522, -0.04848803952336311, 0.031663745641708374, -0.10208375006914139, 0.0294830072671175, -0.10299688577651978, 0.06876742094755173, 0.08485019207000732, 0.09397311508655548, 0.024010851979255676, 0.13790073990821838, 0.07166805863380432, -0.1603481024503708, -0.09249254316091537, -0.13783663511276245, 0.22732137143611908, 0.08463102579116821, 0.043821267783641815, -0.0025885687209665775, -0.09331990033388138, 0.008318699896335602, -0.04632435739040375, 0.03236677497625351, 0.09436726570129395, 0.06128634884953499, 0.30162084102630615, 0.18556320667266846, -0.5871363878250122, 0.1508045196533203, 0.9635401964187622, 0.6858844757080078, -0.7788702249526978, 0.9128211736679077, 0.14196011424064636, 0.26916903257369995, 0.4015136957168579, 0.26465627551078796, 0.41917645931243896, 0.48876821994781494, 0.012553555890917778, -0.06262809783220291, -0.027502166107296944, 0.16306376457214355, 0.11132925748825073, 0.5398901700973511, -0.24068839848041534, 0.6779977679252625, 0.14669297635555267, 0.1395197957754135, -0.15373295545578003, -0.49050524830818176, -0.4153241515159607, 0.00861832220107317, -0.7919069528579712, 0.4219110310077667, -0.17314720153808594, 0.009038759395480156, -0.03865739330649376, 0.3970814645290375, -0.07607924193143845, 0.6156249046325684, -0.23177789151668549, 0.21295341849327087, 0.029110819101333618, -0.18147529661655426, 0.2982040345668793, 0.16156768798828125, 0.6241596341133118, 0.09160657972097397, 0.28414490818977356, -0.421311616897583, 0.07434747368097305, -0.415355920791626, -0.005627908743917942, 0.23722797632217407, 0.10014225542545319, 0.0804847925901413, 0.061584800481796265, -0.01558468397706747, 0.00632448447868228, -0.14139768481254578, 0.76556396484375, 0.6248326301574707, 0.9187288284301758, -0.7323595285415649, 0.642863392829895, 0.8392387628555298, -0.4938315153121948, 0.9191799163818359, -0.013195428065955639, -0.42348039150238037, -0.44682973623275757, -0.02124161273241043, 0.2080150842666626, 0.9697421193122864, 0.005018769763410091, -0.039011090993881226, -0.13715769350528717, 0.30764591693878174, -0.20553244650363922, 0.5015389919281006, -0.3012462556362152, 0.5501421093940735, -0.015394287183880806, -0.27651679515838623, 0.4372279942035675, -0.1398223340511322, 1.4125399589538574, 0.23263613879680634, 0.24250389635562897, 0.0897989347577095, 0.3859848082065582, -0.04821425676345825, -0.36942172050476074, -0.04231519252061844, -0.7622408270835876, 0.26148539781570435, -0.6709108352661133, 0.41632622480392456, 0.6922282576560974, -0.040107984095811844, 0.18412929773330688, -0.6574602127075195, -0.22045840322971344, -0.450327605009079, 0.09059597551822662, 0.24291832745075226, 0.3983182907104492, 0.032708022743463516, -0.06848672032356262, 0.6647680997848511, -0.2515162527561188, 0.5354225635528564, -0.4579910933971405, 0.5292763113975525, -0.14509853720664978, 0.13039030134677887, 0.3029058277606964, 0.13486626744270325, 0.4828786253929138, -0.08748819679021835, 0.3252074122428894, -0.21190154552459717, 0.19892463088035583, -0.08298801630735397, -0.13250276446342468, 0.09624910354614258, -0.05121124908328056, -0.08596784621477127, 0.10584557801485062, 0.015759142115712166, 0.10125047713518143, -0.022677285596728325, -0.0736045390367508, 0.020457761362195015, -0.6303162574768066, 0.12360177934169769, 0.14427869021892548, 1.2377724647521973, 0.12768223881721497, 0.23496690392494202, 0.2851577401161194, -0.48769161105155945, 0.30509066581726074, -0.093578040599823, -0.05939109995961189, 0.19169996678829193, 0.34575292468070984, -0.20993581414222717, -0.060465265065431595, 0.7771982550621033, -0.17844530940055847, 1.0928577184677124, -0.6235002875328064, 1.208937406539917, -0.3320465087890625, 0.3609606623649597, 0.35923704504966736, -0.45790982246398926, -0.06328578293323517, -0.14788462221622467, -0.0028368288185447454, -0.023049253970384598, 0.9468708634376526, -0.22109511494636536, -0.5033385753631592, 0.09623096883296967, -0.3614838123321533, -0.003917955327779055, -0.15343661606311798, 0.35616523027420044, 0.3051043450832367, 0.4718908965587616, 0.16496612131595612, -0.1372096836566925, 0.47163087129592896, -0.29157301783561707, 0.41283556818962097, -0.5628090500831604, 0.31246739625930786, -0.283205509185791, -0.13644863665103912, 0.5364184975624084, -0.13242433965206146, 0.2625000774860382, -0.12637442350387573, 0.4867148697376251, -0.09490557014942169, 0.22833071649074554, 0.3119071424007416, -0.17099137604236603, 0.22464121878147125, -0.32450947165489197, 0.3599422872066498, -0.11641897261142731, 0.344434529542923, -0.16976401209831238, 0.07421470433473587, -0.03017047606408596, -0.35344094038009644, -0.01546375174075365, 0.731738805770874, 0.41953518986701965, 0.10853251069784164, -0.03169526532292366, 0.0035098432563245296, 0.11964956670999527, 0.06608816236257553, 0.46828803420066833, 0.03642924129962921, 0.176000714302063, -0.04168441891670227, -0.003659715410321951, -0.15563438832759857, -0.09740152209997177, 0.5698306560516357, 0.17362992465496063, -0.36152124404907227, 0.41389498114585876, -0.24955245852470398, -0.0978870838880539, 0.10611158609390259, 0.16601350903511047, -0.5471128225326538, 0.49637991189956665, -0.29177722334861755, 0.408149391412735, 0.4356798529624939, 0.18748685717582703, 0.17573128640651703, -0.3509316146373749, 0.14741772413253784, -0.5142402052879333, 0.6637623906135559, -0.018503082916140556, 0.6361482739448547, 0.07662183791399002, 0.0063607459887862206, 0.14830967783927917, -0.008257015608251095, 0.13230125606060028, 0.0723896473646164, -0.09452258795499802, 0.02895452454686165, 0.04949186369776726, -0.07445676624774933, 0.044289421290159225, 0.07952466607093811, -0.31465885043144226, 0.061212796717882156, -0.15155310928821564, -0.14035020768642426, -0.09156559407711029, 0.03715437278151512, -0.05040241405367851, 0.04556397348642349, 0.18343815207481384, 0.10229583084583282, -0.021711111068725586, -0.11387232691049576, -0.07610319554805756, 0.055210091173648834, 0.04165244847536087, -0.45879167318344116, -0.05448994040489197, 0.4497676491737366, 0.5429004430770874, -0.04029311612248421, 0.32136136293411255, 0.15586310625076294, -0.2904101610183716, 0.14145956933498383, 0.36530712246894836, -0.007836868986487389, 0.15447816252708435, -0.01491660438477993, 0.050277646631002426, -0.14079736173152924, 0.26243290305137634, 0.31409358978271484, 0.8571534752845764, -0.5014700889587402, 1.0549408197402954, -0.15781471133232117, 0.2619858980178833, 0.11421772837638855, -0.33719441294670105, -0.6349973678588867, 0.22728320956230164, -0.39069798588752747, 0.3692764937877655, 0.8666867613792419, 0.14125770330429077, -0.158128023147583, -0.38305050134658813, -0.22659723460674286, -0.5864967107772827, 0.39581722021102905, 0.1637892723083496, 0.7615521550178528, 0.23767314851284027, -0.03640192002058029, -0.09771476686000824, 0.181263729929924, -0.08779741823673248, 0.2948891222476959, -0.3614693880081177, 0.21175792813301086, -0.07122226059436798, -0.14404813945293427, 0.2855032980442047, -0.08202803134918213, -0.14471226930618286, 0.05227232351899147, 0.16839420795440674, -0.1088094636797905, 0.031769175082445145, 0.17098426818847656, -0.16813261806964874, -0.006016281433403492, 0.18623413145542145, 0.20779414474964142, -0.022471003234386444, 0.03393187373876572, -0.07262450456619263, -0.021101105958223343, -0.03470485284924507, 0.013069838285446167, 0.10962828248739243, -0.028246836736798286, 0.018323471769690514, 0.02676275372505188, 0.01585165597498417, -0.29992979764938354, -0.38236498832702637, -0.599291980266571, -0.17120316624641418, -0.46774327754974365, 0.06042337417602539, -0.2699580192565918, 0.21391423046588898, -0.05673881992697716, 0.17647922039031982, 0.18360759317874908, 0.5047571659088135, -0.19658015668392181, 0.7485663294792175, -0.03820523992180824, 0.17505864799022675, -0.05121365189552307, 0.031849585473537445, -0.49418896436691284, 0.3256968557834625, -0.3538203537464142, 0.07513435930013657, -0.06957399845123291, -0.10110276937484741, -0.02426304668188095, -0.19335292279720306, 0.2626839280128479, -0.6023191213607788, 0.5867063999176025, -0.06486336141824722, 0.5498253703117371, -0.13235273957252502, -0.1934715360403061, -0.1103888526558876, 0.05143902078270912, 0.015427837148308754, 0.21444210410118103, -0.2475762963294983, 0.028179660439491272, -0.112452432513237, -0.22775642573833466, -0.17135868966579437, -0.07735715061426163, -0.2903807759284973, 0.17991085350513458, 0.026887038722634315, 0.09129398316144943, -0.020045144483447075, -0.2805119454860687, -0.2810090184211731, -0.21762730181217194, -0.09650103747844696, -0.08948563039302826, -0.14373549818992615, -0.08565027266740799, -0.06391184031963348], [0.14585494995117188, -0.30699288845062256, -0.5162614583969116, -0.3215470314025879, -0.356548547744751, 0.9566400051116943, 0.383571982383728, 0.9841132164001465, 0.012224684469401836, 0.09829294681549072, 0.2360115647315979, -0.05411536246538162, -0.07894198596477509, -0.0998041182756424, 0.013621077872812748, -0.03295671567320824, -0.0036585875786840916, 0.09540822356939316, 0.31596213579177856, 0.43013691902160645, 0.28740599751472473, 0.09549401700496674, -0.049144696444272995, 0.034283123910427094, -0.02878476493060589, -0.041228219866752625, -0.07593469321727753, -0.18816831707954407, -0.31585487723350525, 0.015179905109107494, 0.09249325841665268, 0.08956481516361237, -0.012102168053388596, -0.046363748610019684, 0.07492657750844955, -0.0040114521980285645, 0.12551693618297577, 0.06576599180698395, 0.028938082978129387, 0.12714487314224243, 0.0432472750544548, 0.056881438940763474, 0.008353660814464092, 0.022401586174964905, -0.00013893118011765182, 0.1343524008989334, 0.06279850006103516, 0.15664424002170563, 0.008457932621240616, -0.03288845345377922, -0.062318842858076096, -0.13648410141468048, 0.12880004942417145, 0.014482987113296986, 0.03716616332530975, 0.0914934054017067, 0.2445615530014038, -0.6671167612075806, 0.3481868505477905, -0.5997334718704224, -0.3147808313369751, -0.4766688346862793, -0.6803141832351685, 0.7875714302062988, -0.03214847296476364, -0.1286301612854004, 0.06953898072242737, 0.005162706598639488, 0.08409886062145233, 0.05192919448018074, -0.029596997424960136, 0.02310345508158207, -0.01609867997467518, -0.0025580681394785643, 0.048915792256593704, 0.09955286979675293, -0.11492184549570084, 0.11924736201763153, -0.02542615309357643, -0.011040098965168, 0.04895719140768051, -0.12027981132268906, 0.14935827255249023, -0.06256669014692307, 0.14266182482242584, -0.018353579565882683, 0.1021665632724762, -0.018065176904201508, -0.1907607913017273, -0.04134989157319069, -0.1746683269739151, -0.12656092643737793, -0.10786166787147522, 0.026350118219852448, -0.03945820406079292, 0.11275063455104828, -0.03576604649424553, -0.0661228746175766, 0.03332047536969185, 0.08127415180206299, -0.09523666650056839, 0.15405064821243286, 0.1576627492904663, 0.09307766705751419, -0.16453707218170166, -0.07086562365293503, -0.10542309284210205, -0.004823126830160618, 0.010242962278425694, 0.09820277243852615, -0.0013039307668805122, 0.11540763825178146, -0.11902635544538498, -0.05210109055042267, -0.09652447700500488, -0.11744946241378784, 0.04721393436193466, 0.03337149694561958, 0.10774371027946472, 0.08247136324644089, -0.18002979457378387, -0.12045560032129288, -0.042958617210388184, 0.02718312479555607, 0.03963161259889603, 0.09099475294351578, -0.06901445239782333, 0.08236294984817505, -0.04208182543516159, 0.13642531633377075, 0.16844584047794342, -0.07115885615348816, -0.016689127311110497, 0.05006349831819534, -0.17223288118839264, -0.14958016574382782, -0.015363677404820919, -0.048337098211050034, 0.23777888715267181, 0.01734478771686554, -0.07379497587680817, 0.010973654687404633, -0.09905305504798889, -0.17390957474708557, -0.13405676186084747, 0.029227128252387047, 0.11385653167963028, 0.22905181348323822, 0.02284483052790165, -0.022511200979351997, -0.05073325335979462, -0.14737804234027863, -0.0930870994925499, 0.010112900286912918, 0.0018248611595481634, -0.43283241987228394, 0.18241927027702332, 0.02679958939552307, 0.03937089070677757, -0.09026354551315308, -0.09133464843034744, -0.1018485575914383, -0.14236529171466827, 0.1764838844537735, -0.16605088114738464, 0.19153830409049988, 0.11307581514120102, -0.022256996482610703, -0.09232794493436813, -0.021327100694179535, -0.02910035476088524, -0.12219686061143875, -0.011686044745147228, 0.0020732576958835125, 0.038409508764743805, 0.06752833724021912, -0.10547236353158951, -0.05549957603216171, -0.08350038528442383, -0.0753118097782135, 0.009289453737437725, -0.047500185668468475, -0.004468371160328388, 0.13297633826732635, -0.06850475817918777, -0.01908707804977894, -0.009697852656245232, -0.014264371246099472, -0.05063726380467415, 0.039539337158203125, -0.09249701350927353, -0.053519781678915024, -0.08013209700584412, -0.1508178859949112, -0.08984250575304031, -0.08036196976900101, 0.19855952262878418, -0.2120623141527176, -0.13165196776390076, -0.23286904394626617, -0.09734166413545609, -0.1013135239481926, -0.22287000715732574, 0.001025719684548676, 0.07851745188236237, -0.05793778598308563, -0.07977353036403656, -0.22315575182437897, -0.025554001331329346, -0.055624138563871384, -0.08267557621002197, 0.18118855357170105, 0.19349676370620728, -0.06857357919216156, -0.08901525288820267, -0.029671555384993553, -0.03870968148112297, -0.04337312653660774, -0.1214875653386116, -0.19786590337753296, 0.11867064982652664, 0.09385142475366592, -0.021849680691957474, -0.0412641316652298, -0.01896063983440399, -0.09387728571891785, -0.21606723964214325, -0.043310992419719696, -0.0368572473526001, 0.11584723740816116, 0.0033760496880859137, 0.017784642055630684, -0.14200837910175323, -0.1811683624982834, -0.16360461711883545, -0.12717942893505096, 0.01865611970424652, -0.004715858493000269, -0.029440267011523247, -0.13655367493629456, -0.05372628569602966, -0.04283076152205467, -0.0918593481183052, 0.006056271493434906, 0.12508907914161682, 0.019618913531303406, -0.006147229112684727, -0.07509977370500565, -0.04897025600075722, -0.041729457676410675, -0.12987405061721802, -0.1022452861070633, 0.023295419290661812, -0.02451828494668007, -0.023247255012392998, -0.08525919914245605, -0.2216780185699463, -0.07412409037351608, -0.024650907143950462, -0.16153448820114136, 0.07118392735719681, -0.14885061979293823, -0.146331787109375, -0.22026006877422333, -0.21485304832458496, -0.17019565403461456, 0.022442089393734932, -0.062300536781549454, -0.07302551716566086, -0.05368391051888466, -0.04700695350766182, -0.13689853250980377, -0.13647478818893433, -0.10957412421703339, -0.034773580729961395, 0.05382562801241875, -0.028105657547712326, 0.030065853148698807, -0.11877576261758804, -0.06898757070302963, -0.23840518295764923, -0.028575971722602844, -0.1326831579208374, -0.3012699782848358, 0.10744605213403702, 0.08472339063882828, -0.060861848294734955, 0.06717795878648758, -0.20118336379528046, -0.24412484467029572, -0.18085159361362457, -0.07601568102836609, -0.10749439895153046, -0.087900809943676, 0.09908439964056015, -0.12217574566602707, -0.26654869318008423, -0.1723279356956482, -0.19915394484996796, -0.17034980654716492, -0.06535493582487106, -0.10223657637834549, -0.08318819850683212, -0.028486648574471474, -0.12470264732837677, -0.15780916810035706, -0.1174124926328659, -0.11532608419656754, 0.030460018664598465, -0.13405385613441467, -0.21967221796512604, -0.22730478644371033, -0.11158604919910431, -0.10142826288938522, -0.16536970436573029, -0.19163282215595245, 0.08453287929296494, -0.02493380941450596, -0.043888311833143234, -0.04509971663355827, 0.17782264947891235, 0.2741752862930298, 0.27697741985321045, 0.22389887273311615, -0.0298918429762125, 0.29609984159469604, 0.370353639125824, 0.41235098242759705, 0.13964954018592834, 0.1819794923067093, 0.34699124097824097, 0.18095403909683228, 0.23876073956489563, 0.27722302079200745, 0.33708932995796204, 0.37476134300231934, 0.1403978317975998, 0.28202909231185913, 0.41767483949661255, 0.5729048848152161, 0.6690990328788757, 0.3942638039588928, 0.3654533922672272, 0.3658536374568939, 0.11188351362943649, 0.15097518265247345, 0.30121374130249023, 0.0556853786110878, 0.4593946635723114, 0.565097987651825, 0.5463408827781677, 0.37042349576950073, 0.12373103201389313, 0.11196248233318329, 0.197398841381073, 0.2901708781719208, 0.27665090560913086, 0.51399827003479, 0.35663464665412903, 0.40135157108306885, 0.156483456492424, 0.1915687769651413, 0.16889040172100067, 0.19886638224124908, 0.19062364101409912, 0.2590429484844208, 0.30234405398368835, 0.261416494846344, 0.2576058804988861, 0.38184159994125366, 0.23159144818782806, 0.1055583730340004, 0.0002340003993595019, 0.1953009068965912, 0.2976106107234955, 0.25327086448669434, 0.16925084590911865, 0.16382740437984467, 0.14624659717082977, 0.20040524005889893, 0.17855602502822876, 0.19240108132362366, 0.26138144731521606, 0.2516118288040161, -0.6070802211761475, -0.7474761009216309, -0.18612253665924072, -0.2552049160003662, 0.6187468767166138, -0.05614900588989258, 0.3193535804748535, -0.4155566692352295, -0.02108757570385933, 0.31265801191329956, -0.2875697910785675, 0.2535158097743988, 0.07160573452711105, 0.3903612494468689, -0.11927765607833862, -0.19690585136413574, -0.08219095319509506, 0.13840438425540924, -0.3057738244533539, 0.29033362865448, -0.3627679944038391, 0.6021749377250671, 0.1056453213095665, 0.09164512902498245, -0.10069476813077927, 0.20214343070983887, 0.3961056172847748, 0.2775333821773529, 0.37487688660621643, 0.3844691514968872, -0.05157361924648285, 0.018282098695635796, -0.0021750163286924362, -0.24706870317459106, 0.3973570764064789, -0.9305126667022705, 0.560548722743988, -0.8780646324157715, 0.3795284032821655, -0.13942043483257294, 0.167478546500206, 0.283322274684906, 0.2566903531551361, 0.2827119529247284, 0.025761984288692474, 0.05816389247775078, -0.0451664999127388, -0.1514357626438141, 0.035699985921382904, 0.2828431725502014, 0.08212964981794357, 0.09012410044670105, 0.07007690519094467, -0.043280668556690216, 0.07497646659612656, -0.025155382230877876, -0.8421585559844971, -0.12209677696228027, 0.3803865909576416, 0.8158551454544067, 0.3009305000305176, 0.19776666164398193, 0.6845906972885132, 0.46208786964416504, -0.21738973259925842, -0.2347625344991684, -0.34968802332878113, 0.8958811163902283, 0.6958915591239929, 1.1050353050231934, 0.06116999313235283, -0.3262485861778259, 0.5137609243392944, -0.2349342405796051, 0.2628454566001892, -0.5613985061645508, 0.3655681312084198, -0.223450168967247, 0.2263554483652115, -0.3265642821788788, -0.07348302751779556, 0.5379229187965393, -0.33570507168769836, 0.22433426976203918, -0.8095036745071411, 0.49114060401916504, -0.0822974294424057, 0.21831728518009186, 0.056558337062597275, 0.32771971821784973, 0.5453978180885315, -0.35186219215393066, 1.230760931968689, 0.2483503371477127, 0.8560106158256531, 0.057273127138614655, -0.20113669335842133, 0.09028679132461548, -0.6016834378242493, 0.48607710003852844, -0.39347606897354126, 0.7750768065452576, -0.3397425711154938, 0.3981916010379791, 0.14324499666690826, -0.07075493782758713, 0.2409825325012207, -0.5593667030334473, 0.3710028827190399, -0.5099905729293823, 0.4097383916378021, 0.034056346863508224, 0.2996918261051178, 0.2628634572029114, 0.2706774175167084, 0.3079250454902649, 0.22479401528835297, 0.09014645963907242, 0.15453369915485382, 0.03218207508325577, 0.02884826250374317, 0.26283785700798035, 0.023175392299890518, 0.05594176799058914, 0.11119181662797928, 0.10032962262630463, 0.13497480750083923, 0.019904425367712975, 0.4334089756011963, -0.4164355397224426, -0.44671061635017395, 0.469258576631546, 0.7276139259338379, 0.9910346269607544, 0.5177293419837952, -0.513831377029419, -0.42308178544044495, 0.7185380458831787, -0.659254252910614, 0.7568252682685852, -0.6624374389648438, 0.7111800909042358, -0.6837956309318542, 0.327278733253479, 0.5691211223602295, -0.33087337017059326, -0.09327314794063568, -0.5889874696731567, 0.009970343671739101, -0.07768519222736359, 0.2835354804992676, -0.07071363180875778, -0.16912682354450226, 0.18689574301242828, 0.4421956241130829, 0.06630753725767136, 1.2756887674331665, 0.3105092942714691, 0.2820252776145935, 0.13975393772125244, -0.021358901634812355, -0.16585539281368256, 0.14513225853443146, -0.5692779421806335, 0.19515742361545563, -0.17810219526290894, 0.7910548448562622, 0.05991141498088837, -0.17319269478321075, 0.39189469814300537, -0.5060241222381592, 0.4494412839412689, -0.37278681993484497, 0.23199723660945892, -0.4272991418838501, 0.30868008732795715, 0.3309963643550873, -0.00907100923359394, 0.3878408670425415, -0.05903441831469536, 0.3181057572364807, -0.12662678956985474, 0.4139809012413025, -0.1195831298828125, -0.19116777181625366, 0.2925889194011688, -0.12903307378292084, 0.1575939804315567, 0.05355708301067352, 0.2608409821987152, -0.14386138319969177, 0.29277303814888, -0.08309271931648254, -0.1942165195941925, -0.803118884563446, 0.8450655341148376, 0.7536880373954773, 0.6983523964881897, -0.020293893292546272, -0.37750524282455444, 0.06267835199832916, 0.13868869841098785, 0.12234225124120712, 0.5784017443656921, -0.4243382513523102, 0.20515720546245575, -0.09475605934858322, 0.000307422480545938, 0.08854050189256668, 0.1158132255077362, -0.06578359007835388, -0.10877528041601181, -0.7112269997596741, 0.7088111639022827, -0.021803945302963257, 0.0929500088095665, -0.14259378612041473, -0.1866072565317154, 0.47454509139060974, -0.9444262385368347, 1.635455846786499, -0.5265491604804993, 0.2991684675216675, -0.0853469967842102, 0.2005676031112671, -0.10177269577980042, -0.07654035091400146, 0.34658387303352356, -0.3522580862045288, 0.4520173668861389, 0.3921412229537964, 0.19124524295330048, 0.08999887108802795, 0.15683463215827942, -0.03215509653091431, 0.17979896068572998, 0.0444539375603199, 0.008236286230385303, 0.030804859474301338, 0.09705628454685211, -0.021435197442770004, -0.000200737253180705, 0.053321823477745056, -0.16550922393798828, -0.11932520568370819, -0.08415606617927551, -0.011201033368706703, -0.03982412815093994, 0.10207042098045349, -0.04534672945737839, 0.06552479416131973, 0.18189404904842377, 0.04646030440926552, 0.02660326659679413, -0.0005648009246215224, 0.03945872560143471, 0.16789484024047852, -0.5686288475990295, -0.8840798735618591, 0.8042336702346802, 0.4617016911506653, 0.4304574429988861, 0.03252450004220009, -0.37959372997283936, -0.11224237829446793, 0.15074990689754486, -0.40256670117378235, 0.6958094239234924, -0.6988900899887085, 0.30641621351242065, -0.4228050112724304, 0.10237011313438416, 0.08296164125204086, -0.18515323102474213, -0.22662800550460815, -0.39437058568000793, -0.47364071011543274, 0.3243783414363861, 0.1750570833683014, 0.011958613060414791, -0.26809489727020264, -0.24670083820819855, 0.44190675020217896, -0.765624463558197, 1.9988396167755127, -0.3601342439651489, 0.44762876629829407, -0.0022568427957594395, 0.020939109846949577, -0.2990347146987915, -0.31430715322494507, -0.21991220116615295, -0.5043939352035522, 0.10097073763608932, 0.5500016808509827, 0.11926792562007904, -0.1461961418390274, 0.03520577400922775, -0.4964354336261749, 0.19333243370056152, -0.15362471342086792, -0.03237098827958107, -0.24418655037879944, 0.08597330003976822, -0.03269147872924805, -0.086391881108284, -0.01651107892394066, -0.12588126957416534, 0.037749022245407104, -0.12281087040901184, 0.2041553109884262, -0.1923280656337738, -0.11698593199253082, -0.057473115622997284, -0.07159966975450516, 0.21035616099834442, 0.0681886225938797, 0.037735551595687866, -0.1666668802499771, 0.0790022611618042, -0.28957492113113403, 0.32931140065193176, -0.2634117305278778, 0.11336173117160797, -0.20449291169643402, -0.05687589943408966, -0.1877671778202057, 0.17147108912467957, -0.1400478482246399, 0.12451708316802979, 0.0682666003704071, 0.3961923122406006, -0.2643657624721527, 0.004689660854637623, -0.18916770815849304, 0.1259680539369583, -0.25717324018478394, -0.311726450920105, -0.2787874937057495, -0.28500238060951233, -0.1914833039045334, -0.08756349980831146, 0.08282396197319031, 0.031201520934700966, -0.04994254559278488, 0.04417030140757561, 0.6157890558242798, -0.522310197353363, 1.1435400247573853, -0.4827028214931488, 0.15944460034370422, -0.07437701523303986, -0.12293367832899094, -0.34961947798728943, -0.3269960284233093, -0.21930721402168274, -0.4761156737804413, -0.14479249715805054, 0.3593597412109375, -0.08074352890253067, -0.20581559836864471, -0.060566436499357224, -0.1948448121547699, 0.23793986439704895, 0.22012001276016235, -0.010485699400305748, -0.06439857184886932, -0.16122861206531525, -0.22526389360427856, -0.04826978221535683, -0.1178072988986969, -0.07595657557249069, 0.1461062729358673, 0.10158002376556396, 0.053905121982097626, 0.038632817566394806, -0.20618559420108795, -0.2414436936378479, -0.1878931075334549, -0.08581089228391647, -0.0006703264079988003, -0.07719356566667557, -0.04966774955391884, -0.08547939360141754], [0.10538768768310547, -0.7937407493591309, -0.7679241895675659, -0.8129459619522095, -0.27097344398498535, 0.8832581043243408, 0.3909193277359009, -0.118569016456604, 0.17876839637756348, 0.16293880343437195, -0.02660122886300087, -0.3945753872394562, 0.19850291311740875, 0.1529320776462555, 0.036061521619558334, -0.023801418021321297, -0.019369659945368767, 0.20654718577861786, 0.28357812762260437, -0.06570897251367569, 0.10194945335388184, 0.10275883227586746, -0.013345276936888695, -0.07649333029985428, -0.008504402823746204, 0.049054209142923355, -0.25730857253074646, -0.1203194409608841, 0.07092536985874176, 0.08991525322198868, 0.099909707903862, 0.01768765226006508, 0.026297586038708687, -0.010406672023236752, -0.2949618697166443, -0.05213456228375435, -0.015640638768672943, 0.13284967839717865, -0.000651274633128196, 0.06973514705896378, 0.07722928375005722, 0.004927579313516617, -0.03638424351811409, 0.11536163091659546, -0.09252016991376877, 0.13266362249851227, -0.007992188446223736, 0.07645437121391296, -0.08803708106279373, 0.006929808296263218, -0.0033115707337856293, 0.06678283959627151, -0.1067071482539177, -0.09262505918741226, -0.004966445732861757, 0.0029349634423851967, 0.051906466484069824, -0.8577917814254761, 0.03855109214782715, -0.21857893466949463, 0.9024118185043335, 0.90262770652771, 0.19839060306549072, 0.8938031196594238, -0.10326126962900162, -0.14585179090499878, -0.2087249904870987, -0.1234508827328682, -0.0842059925198555, -0.05117177218198776, -0.17390871047973633, -0.12378892302513123, -0.23069427907466888, -0.10290466248989105, -0.2997495234012604, -0.17076334357261658, -0.12390784174203873, -0.06434762477874756, -0.06247787922620773, -0.041682466864585876, 0.04673517495393753, -0.19764114916324615, 0.2697283625602722, -0.181154265999794, -0.05013304576277733, -0.04939945787191391, -0.07349895685911179, -0.09407922625541687, -0.202518492937088, -0.09240972995758057, -0.2200675755739212, -0.1139896884560585, -0.10529530793428421, -0.029165953397750854, -0.024809522554278374, -0.057918842881917953, -0.06014510989189148, -0.16502170264720917, -0.2828494608402252, -0.17024651169776917, -0.021929103881120682, -0.08695025742053986, -0.13559146225452423, -0.02858698181807995, -0.18537446856498718, -0.16301985085010529, -0.22919152677059174, -0.13356657326221466, -0.06397853791713715, -0.026403019204735756, -0.09948086738586426, 0.014048885554075241, -0.1567140817642212, -0.19781631231307983, -0.21842171251773834, -0.12678393721580505, -0.07612384855747223, -0.08046545088291168, -0.10152333974838257, -0.15105341374874115, -0.2497587502002716, -0.1316530704498291, -0.17025108635425568, -0.1168321743607521, -0.08452916145324707, -0.10424437373876572, -0.06186113506555557, -0.15678700804710388, -0.0862196609377861, -0.12420158088207245, -0.5260434150695801, -0.1730278730392456, -0.30367133021354675, -0.07014495879411697, -0.32730966806411743, -0.19307969510555267, -0.046705275774002075, -0.07643479108810425, -0.16759805381298065, -0.3395083546638489, -0.07723113894462585, -0.22132165729999542, -0.14575611054897308, -0.25365009903907776, -0.14800022542476654, -0.08762399852275848, 0.08809221535921097, -0.17160476744174957, -0.008745051920413971, -0.051286980509757996, -0.16042985022068024, -0.2690415382385254, -0.1545579880475998, -0.22398123145103455, -0.14830860495567322, -0.30718347430229187, -0.11370432376861572, -0.03116217814385891, -0.06156306713819504, -0.17464663088321686, -0.2608259916305542, -0.11736958473920822, -0.4765152037143707, -0.11187679320573807, -0.09102290123701096, -0.12673619389533997, -0.03982573747634888, -0.21063536405563354, -0.19104081392288208, -0.14406241476535797, -0.1520821750164032, -0.2497226595878601, -0.15473942458629608, -0.03479374945163727, -0.1539914906024933, -0.08503646403551102, -0.15310189127922058, -0.2343052327632904, -0.1754927933216095, -0.09644919633865356, -0.18751464784145355, -0.04425903782248497, -0.12708665430545807, -0.07920996099710464, -0.26175743341445923, -0.1250026524066925, -0.07737056165933609, -0.15736731886863708, -0.1015026792883873, -0.16058149933815002, -0.05557776242494583, -0.24931848049163818, -0.2875923812389374, -0.35979896783828735, -0.23824924230575562, -0.3293055593967438, -0.28364813327789307, -0.1323975771665573, -0.16679807007312775, -0.0965474471449852, -0.37707316875457764, -0.1912641078233719, -0.10362210869789124, -0.11096249520778656, -0.24221104383468628, -0.32770174741744995, -0.26680660247802734, -0.2972971498966217, -0.2090802937746048, -0.2872658967971802, 0.12090913206338882, -0.11548305302858353, -0.24430470168590546, -0.2516254782676697, -0.21092073619365692, -0.23465195298194885, -0.2628796100616455, -0.2870694398880005, -0.26766595244407654, -0.17942696809768677, -0.27274948358535767, -0.2539733946323395, -0.1830148547887802, -0.19267085194587708, -0.2511877417564392, -0.2278180718421936, -0.23345831036567688, -0.08453373610973358, -0.16136640310287476, -0.2336546629667282, -0.058663032948970795, -0.11857946962118149, -0.27357473969459534, -0.2668951451778412, -0.22003202140331268, -0.10561909526586533, -0.19865640997886658, -0.15899181365966797, -0.07826493680477142, -0.07757428288459778, -0.30452489852905273, -0.28536614775657654, -0.22991585731506348, -0.1511595994234085, -0.22316958010196686, -0.2120932638645172, -0.19748210906982422, -0.15020856261253357, -0.24398283660411835, -0.15619419515132904, -0.18091045320034027, -0.10005182027816772, -0.1376575529575348, -0.18996316194534302, -0.10131985694169998, -0.14817951619625092, -0.6478832960128784, -0.4644075632095337, -0.7211036086082458, -0.22007575631141663, -0.5743105411529541, -0.4179118871688843, -0.4659094214439392, -0.3124794065952301, -0.5858494639396667, -0.11637752503156662, -0.36358946561813354, -0.22952225804328918, -0.0989588275551796, -0.34509244561195374, -0.296013206243515, -0.458664208650589, -0.2846757769584656, -0.2489500790834427, -0.24053293466567993, -0.384798526763916, -0.22681258618831635, -0.17084841430187225, -0.3828562796115875, -0.331255704164505, -0.28973761200904846, -0.5085210800170898, -0.48245179653167725, -0.46714457869529724, -0.30936843156814575, -0.260931134223938, -0.3073744773864746, -0.39780110120773315, -0.44355344772338867, -0.4696006774902344, -0.6147565245628357, -0.2976430356502533, -0.365527868270874, -0.36320117115974426, -0.20392413437366486, -0.42762452363967896, -0.4813758432865143, -0.4773898422718048, -0.48685595393180847, -0.4363466203212738, -0.3417956233024597, -0.35702013969421387, -0.5058724284172058, -0.3687821626663208, -0.49626049399375916, -0.47105085849761963, -0.5872893929481506, -0.3985736668109894, -0.4920380115509033, -0.4381231665611267, -0.5885651111602783, -0.6064971089363098, -0.44629231095314026, -0.4729057550430298, -0.6066389083862305, -0.5070807337760925, -0.4010649621486664, -0.34105637669563293, -0.4472190737724304, -0.451942503452301, -0.04072852432727814, -0.03266594558954239, -0.07095811516046524, 0.06001782417297363, 0.3985642194747925, -0.03798472136259079, -0.015361445024609566, -0.06892996281385422, 0.035342030227184296, -0.13887254893779755, -0.22415517270565033, -0.13499154150485992, 0.16083498299121857, 0.11896549165248871, 0.01822766289114952, -0.05873061716556549, -0.1418314278125763, -0.09154187887907028, 0.09035755693912506, 0.03348981961607933, 0.2869040369987488, 0.24868027865886688, 0.09411626309156418, -0.019979821518063545, -0.22583666443824768, -0.22302940487861633, -0.06160610169172287, 0.053942132741212845, 0.26212769746780396, 0.24244529008865356, 0.20577889680862427, 0.00612538680434227, -0.09768668562173843, -0.12529043853282928, -0.1504773050546646, 0.0506460927426815, 0.1663343906402588, 0.2067505419254303, 0.0467313751578331, 0.0032524617854505777, 0.022452298551797867, -0.2229364961385727, 0.10661716759204865, -0.04340343549847603, 0.052642080932855606, 0.06857997924089432, -0.012669461779296398, 0.05811275914311409, 0.18199026584625244, -0.02616988867521286, -0.010017011314630508, -0.17527127265930176, -0.020551586523652077, -0.030766889452934265, -0.007646410260349512, 0.009763101115822792, 0.05560355260968208, -0.09231829643249512, -0.11536886543035507, -0.16628369688987732, -0.2980280816555023, -0.28123989701271057, -0.15499216318130493, -0.03294429928064346, -0.7342610359191895, 0.27759063243865967, 0.852587103843689, 0.9275860786437988, 0.11871373653411865, -0.5006452798843384, 0.9718450307846069, 0.07463037967681885, -0.3776809275150299, 0.037782177329063416, 0.12069424241781235, 0.5906115770339966, -0.02776595950126648, 0.014881450682878494, 0.19831295311450958, 0.3560994565486908, -0.9310204386711121, 0.48159101605415344, -1.9184761047363281, 0.33192265033721924, -0.5152861475944519, 0.16186626255512238, 0.30066996812820435, 0.23203787207603455, 0.016290469095110893, 0.5502516031265259, -0.13955365121364594, 0.3994464874267578, 0.11323975771665573, 0.08844921737909317, 0.21107590198516846, -0.005397481843829155, 0.26169151067733765, -0.03603531792759895, 0.19959022104740143, 0.06526479125022888, 0.1416943073272705, 0.13338999450206757, 0.04087717831134796, 0.004735603928565979, 0.19788216054439545, 0.38850831985473633, 0.0388808399438858, 0.06765682250261307, 0.10530637204647064, -0.0021069550421088934, 0.053733475506305695, -0.04429861530661583, 0.16441228985786438, 0.3018573224544525, 0.1058228462934494, 0.003273035166785121, 0.1579621285200119, 0.005302057601511478, 0.07643520832061768, -0.02231045439839363, 0.44516801834106445, 0.3959852457046509, -0.953737735748291, 0.828679084777832, -0.4176868200302124, 0.8654161691665649, 0.8239511251449585, 0.3706507682800293, -0.7282426953315735, -1.5914226770401, 0.3826337158679962, 0.06274589896202087, -0.5964506268501282, -3.019291400909424, -0.04314945638179779, 0.2259548455476761, -0.6033207178115845, -0.3054478168487549, 0.07693291455507278, 0.9591003656387329, 0.15334796905517578, -0.18451686203479767, 0.16381189227104187, 0.06671140342950821, -0.1655154675245285, -0.5851948857307434, -3.9037060737609863, -0.39706695079803467, 0.12442589551210403, 0.17598135769367218, 0.322237491607666, 0.19409328699111938, 0.1459731012582779, 0.108819879591465, -0.4860273003578186, 0.08817882835865021, 0.21131232380867004, 0.11488427221775055, 0.3753727972507477, 0.3684147596359253, -0.3850831687450409, 0.6181252598762512, -0.378987193107605, 0.7279537916183472, 0.37299856543540955, 0.3769630193710327, 0.33141764998435974, 0.2508719861507416, 0.3585079610347748, 0.024788033217191696, 0.5627564787864685, -0.006990702822804451, 0.2927488088607788, 0.39854806661605835, 0.295916348695755, 0.1632726490497589, 0.1865590512752533, 0.508023202419281, 0.38367900252342224, 0.37021732330322266, 0.28517523407936096, 0.13172133266925812, 0.2876701354980469, 0.23066657781600952, 0.23367108404636383, 0.38813456892967224, 0.32579174637794495, 0.2110438197851181, 0.33308953046798706, 0.26304009556770325, 0.24628256261348724, 0.20564484596252441, -1.5823423862457275, -4.0089945793151855, -0.11513876914978027, 0.14892621338367462, -2.0864458084106445, -3.9758858680725098, 0.006365954410284758, 0.32475411891937256, -1.271445631980896, 0.20547543466091156, -0.36337757110595703, 1.1512303352355957, -0.0032924339175224304, 0.3134108781814575, 0.036172639578580856, -0.11851191520690918, -3.748258113861084, 0.044607147574424744, -2.1082723140716553, 0.423961877822876, -0.5751530528068542, -0.05972707271575928, 0.25297102332115173, 0.5217217206954956, 0.040450431406497955, -0.0012028028722852468, 0.22216321527957916, 0.12689200043678284, 0.5004804134368896, -0.22830002009868622, 0.4170036315917969, 0.20900246500968933, -0.05662904307246208, 0.05038771778345108, 0.11044657230377197, 0.26876160502433777, 0.4816148579120636, 0.5755598545074463, -0.09607051312923431, 0.3737768828868866, -0.038619477301836014, 0.2890319526195526, 0.3039131462574005, 0.30665114521980286, 0.26235371828079224, 0.1531583070755005, 0.6071375608444214, -0.3289775252342224, 0.11407865583896637, 0.5254437923431396, 0.269895076751709, 0.23964641988277435, 0.44985562562942505, 0.15533636510372162, 0.4078633189201355, 0.2945839464664459, 0.2598925232887268, 0.2721104025840759, 0.33732137084007263, 0.1911594420671463, 0.2636738717556, 0.39720404148101807, 0.21938472986221313, 0.23423177003860474, -3.33298659324646, -3.063298225402832, 0.8108923435211182, -0.18795239925384521, -2.8823277950286865, -1.055542230606079, 0.07870378345251083, 0.5154599547386169, -0.21634641289710999, 0.1385963261127472, -0.6239997744560242, 0.7156469225883484, -0.02997506782412529, 0.3044288754463196, -0.022265035659074783, -0.034833937883377075, 0.09636646509170532, 0.3087785542011261, -0.6876485347747803, -0.052874039858579636, 0.2916485667228699, 0.3831000030040741, 0.4195602536201477, 0.32507479190826416, 0.40767601132392883, -0.48318278789520264, 0.6015672087669373, -0.18735024333000183, 0.2295726239681244, 0.5021309852600098, 0.3208163380622864, 0.290300577878952, 0.18403157591819763, 0.09410612285137177, 0.03007488138973713, 0.2358030378818512, 0.3974727690219879, 0.3466763496398926, 0.3398328423500061, 0.29611384868621826, 0.26105621457099915, 0.1530214548110962, 0.41643354296684265, -0.040155280381441116, 0.2645748257637024, 0.18611352145671844, 0.2968970537185669, 0.24359311163425446, 0.23428329825401306, 0.34766507148742676, 0.31796780228614807, 0.056242771446704865, 0.21976137161254883, 0.11961566656827927, 0.2437307983636856, 0.13543523848056793, 0.4667978584766388, 0.04542862996459007, 0.4010826051235199, 0.3012939989566803, 0.24058762192726135, 0.3403291702270508, 0.18134140968322754, 0.28929877281188965, -0.9751960635185242, -2.995917797088623, 0.6387030482292175, -0.2370148003101349, -2.9925594329833984, -0.630325973033905, -0.111356720328331, 0.40173375606536865, -0.5100281834602356, -0.12918351590633392, -0.9135715961456299, 1.0608903169631958, -0.18464525043964386, 0.06693866103887558, -0.294590026140213, -0.004299765452742577, -0.7006744742393494, -0.04088233783841133, -1.222809910774231, 0.17615361511707306, -0.1504460871219635, 0.053630102425813675, 0.2448185682296753, 0.3269844353199005, 0.2475055754184723, -0.8430418968200684, 0.5642683506011963, -0.02786811999976635, 0.20899732410907745, 0.21599455177783966, 0.41287940740585327, 0.260378360748291, 0.07250536233186722, -0.14645172655582428, 0.06708651781082153, 0.31775662302970886, 0.49615752696990967, 0.46907588839530945, 0.25177001953125, 0.31521910429000854, -0.09868437796831131, 0.20721910893917084, 0.41234299540519714, 0.2787773609161377, 0.3341729938983917, 0.2117040455341339, 0.4814654588699341, 0.10002045333385468, 0.22298316657543182, 0.4124454855918884, 0.49722135066986084, 0.24905246496200562, 0.4433678686618805, 0.17628930509090424, 0.4970141053199768, 0.17110386490821838, 0.4178854525089264, 0.21519212424755096, 0.43895235657691956, 0.5925143361091614, 0.26007959246635437, 0.4966900050640106, 0.201516792178154, 0.3348615765571594, -0.28271856904029846, 0.12831521034240723, -0.9443188309669495, -0.3477858304977417, -0.4141263961791992, 0.09839104115962982, -0.10935663431882858, -0.09505189210176468, -0.025033263489603996, 0.7829525470733643, -0.9131346940994263, 0.35111889243125916, -0.36149829626083374, 0.24515530467033386, 0.16592420637607574, 0.08205436915159225, -0.5574122667312622, 0.34497806429862976, -1.2123894691467285, 0.05395793542265892, -0.4555550217628479, -0.1657884567975998, -0.10220089554786682, 0.05564384534955025, 0.004411108326166868, -0.020751863718032837, 0.5734103322029114, 0.4051157832145691, 0.18859632313251495, 0.18264061212539673, 0.20546750724315643, 0.09477118402719498, -0.18907111883163452, -0.004482308402657509, -0.0835040956735611, 0.3608929216861725, 0.42085206508636475, 0.13642066717147827, 0.32534506916999817, 0.1893223077058792, -0.1559271514415741, 0.05638648197054863, 0.224227175116539, 0.04797405004501343, 0.35529381036758423, 0.07057420909404755, 0.2408425360918045, 0.12669417262077332, -0.18124376237392426, -0.00454504182562232, 0.05277392268180847, 0.09554640203714371, 0.26633960008621216, 0.06505249440670013, 0.07632315158843994, -0.036347538232803345, -0.10062488913536072, -0.10828384757041931, -0.02151922509074211, 0.16766870021820068, 0.13254877924919128, 0.01113975327461958, 0.07743716984987259, 0.029060576111078262], [-0.25153231620788574, 0.0899970531463623, -0.2676584720611572, -0.9791132211685181, -0.10356795787811279, 0.48791956901550293, -0.11634683609008789, -0.492412805557251, 0.0386212058365345, 0.3106789290904999, -0.046437181532382965, 0.10986742377281189, -0.08939442038536072, 0.20886534452438354, -0.026660889387130737, -0.006971124093979597, 0.00261419708840549, 0.17904101312160492, -0.283873051404953, 0.9508451223373413, 0.02315705083310604, 0.5422999858856201, 0.15276969969272614, -0.0011282020714133978, -0.0934627577662468, 0.0957440733909607, 0.0763896256685257, -0.09631627798080444, 0.24975596368312836, -0.18427544832229614, 0.16756883263587952, -0.021016525104641914, 0.024569222703576088, 0.09951724857091904, -0.03684481978416443, -0.22188091278076172, 0.09405726939439774, -0.13650047779083252, 0.13302692770957947, 0.07696302980184555, 0.08626235276460648, 0.0636753961443901, 0.02706114947795868, 0.09475436806678772, 0.09710671007633209, 0.017675921320915222, -0.0330786369740963, 0.05718835070729256, 0.08938772976398468, 0.010950667783617973, -0.04845564067363739, -0.02977922558784485, -0.18065696954727173, 0.04611215367913246, -0.051700491458177567, 0.06723179668188095, 0.17852997779846191, 0.8012202978134155, -0.046013474464416504, 0.7694289684295654, 0.7855464220046997, -0.5206499099731445, -0.08592021465301514, -0.4720590114593506, -0.07721526175737381, -0.13928119838237762, 0.040629468858242035, 0.09072784334421158, 0.024749215692281723, 0.06324873864650726, -0.04567235708236694, -0.018910974264144897, -0.02322879433631897, 0.0944073349237442, -0.008444735780358315, 0.04273240640759468, -0.005117607302963734, 0.027279460802674294, -0.004081083927303553, -0.09580595046281815, -0.061852749437093735, 0.05584235116839409, -0.13101279735565186, 0.3027532696723938, 0.030585825443267822, -0.048990849405527115, -0.03173283860087395, -0.06275172531604767, -0.03953101113438606, 0.014066951349377632, -0.0851040929555893, -0.1035158708691597, -0.03947719186544418, -0.1988731026649475, -0.0333678163588047, -0.08274461328983307, -0.08292518556118011, -0.04974927008152008, -0.1002253070473671, 0.02029755339026451, -0.0993073433637619, -0.03680012747645378, -0.12847018241882324, 0.03403639793395996, -0.07258016616106033, -0.06166067719459534, -0.12103491276502609, -0.13872875273227692, -0.05682944878935814, -0.04421636834740639, -0.08769147843122482, -0.04416247829794884, -0.08408410102128983, -0.11306873708963394, -0.15577493607997894, -0.14986205101013184, -0.11501674354076385, -0.1266993284225464, -0.10756753385066986, -0.14207176864147186, -0.11367755383253098, -0.18554441630840302, -0.060334768146276474, -0.1490342915058136, -0.1309172809123993, -0.17718051373958588, -0.13421468436717987, -0.14458997547626495, -0.03393811360001564, -0.08979916572570801, -0.1670282781124115, -0.04335533082485199, 0.0003332408668939024, 0.08996900916099548, -0.19101212918758392, -0.1274849772453308, -0.10764943808317184, -0.044355954974889755, -0.06807500869035721, -0.09192933887243271, -0.021938122808933258, 0.08073927462100983, -0.05269450321793556, -0.14736194908618927, -0.14748431742191315, -0.05161339044570923, -0.14932648837566376, 0.4803542494773865, -0.012399690225720406, 0.1873275339603424, -0.14171791076660156, -0.23166914284229279, 0.036343999207019806, -0.050738174468278885, -0.15851663053035736, 0.022555623203516006, -0.038762688636779785, -0.08298604935407639, -0.1387793868780136, 0.024008382111787796, -0.09713728725910187, -0.21648584306240082, -0.006607317365705967, -0.0687280148267746, -0.07293900847434998, -0.06112883985042572, -0.02162197418510914, -0.16975505650043488, -0.08469623327255249, 0.043997932225465775, -0.11257505416870117, -0.135486900806427, -0.1324426680803299, -0.06210056319832802, -0.07307930290699005, -0.0862463042140007, -0.06261511892080307, -0.09941946715116501, -0.0729641541838646, -0.17088015377521515, -0.09408102184534073, -0.11035137623548508, -0.035408057272434235, -0.07326851040124893, -0.04562399536371231, -0.06981471925973892, -0.12373710423707962, -0.027398010715842247, -0.17003141343593597, -0.06283151358366013, -0.12313326448202133, -0.18748092651367188, -0.12449153512716293, -0.21052516996860504, -0.16864924132823944, -0.12656188011169434, -0.09236156195402145, -0.2613285183906555, -0.3550563156604767, -0.36535826325416565, -0.1964777559041977, -0.14363674819469452, -0.2261059582233429, 0.022127050906419754, -0.1551387757062912, -0.11164060980081558, -0.2677590548992157, -0.4194157123565674, -0.10213655233383179, -0.14397388696670532, -0.2997383773326874, 0.5126423835754395, -0.17250606417655945, 0.13668470084667206, -0.22412683069705963, -0.0968644917011261, -0.12353447824716568, -0.1790110319852829, -0.10091431438922882, -0.07928843796253204, 0.0016999711515381932, -0.15676358342170715, -0.15256114304065704, -0.14458608627319336, -0.055038854479789734, -0.2625677287578583, -0.05116009712219238, -0.16702568531036377, -0.07672105729579926, -0.06836068630218506, -0.13206221163272858, -0.15112337470054626, -0.2393781989812851, -0.29671186208724976, -0.15723592042922974, -0.19055773317813873, -0.0561438649892807, -0.12503010034561157, -0.1672685593366623, -0.18490083515644073, -0.18946199119091034, -0.2522331774234772, -0.18176397681236267, -0.11592962592840195, -0.13267764449119568, -0.05345681309700012, -0.19827644526958466, -0.23602892458438873, -0.18685060739517212, -0.1902715116739273, -0.1746365875005722, -0.1650647073984146, -0.14948943257331848, -0.18708768486976624, -0.18315653502941132, -0.25112906098365784, -0.46571698784828186, -0.42243140935897827, -0.4500809907913208, -0.33426398038864136, -0.27972280979156494, -0.3310531973838806, -0.42668458819389343, -0.3857404589653015, -0.4043809771537781, -0.3261512517929077, -0.3531547784805298, -0.1867455095052719, -0.3243423104286194, -0.16226549446582794, -0.3239281475543976, -0.46436798572540283, -0.33707648515701294, -0.3182941675186157, -0.4047023355960846, 0.19721323251724243, -0.3840217590332031, -0.09482946246862411, -0.3978763818740845, -0.37874072790145874, -0.3489254415035248, -0.4398762881755829, -0.3406546413898468, -0.26648956537246704, -0.3395477533340454, -0.33667629957199097, -0.35529792308807373, -0.38718122243881226, -0.40563005208969116, -0.4175992012023926, -0.26776811480522156, -0.3042677640914917, -0.32428959012031555, -0.3105224370956421, -0.3119901716709137, -0.5276626944541931, -0.39690521359443665, -0.44001439213752747, -0.3867388069629669, -0.4105176627635956, -0.42770057916641235, -0.564943790435791, -0.390055388212204, -0.5856638550758362, -0.3997511565685272, -0.43260765075683594, -0.383268266916275, -0.32891345024108887, -0.40446770191192627, -0.30397143959999084, -0.5767582058906555, -0.39984074234962463, -0.392285019159317, -0.47190871834754944, -0.22395765781402588, -0.44167155027389526, -0.3647966980934143, -0.3021886348724365, -0.2798070013523102, -0.44778332114219666, 0.05465251952409744, 0.16278621554374695, 0.16650523245334625, 0.16085472702980042, -0.00930751021951437, 0.14267727732658386, 0.21252882480621338, 0.2319677323102951, 0.017215734347701073, 0.1784314066171646, 0.051609739661216736, 0.10537654906511307, 0.07401283085346222, 0.16284888982772827, 0.03412337228655815, 0.20715823769569397, 0.06079088896512985, 0.10809358954429626, -0.038975413888692856, 0.9404022693634033, 0.29896894097328186, 0.5868458151817322, 0.1843065768480301, 0.14260658621788025, 0.009614065289497375, 0.0742357149720192, 0.18277627229690552, 0.3330399692058563, 0.37784767150878906, 0.22791460156440735, 0.2892073094844818, 0.1285237818956375, 0.10475301742553711, -0.11181610822677612, 0.20367977023124695, 0.18749681115150452, 0.15787458419799805, 0.2963026762008667, 0.179789200425148, 0.14593660831451416, 0.10344012826681137, 0.23811528086662292, 0.043341509997844696, 0.1202445775270462, -0.1526251584291458, 0.1145470067858696, -0.007175080012530088, 0.09519334137439728, 0.17504656314849854, 0.43728044629096985, 0.11678148061037064, -0.006270422600209713, -0.16008904576301575, -0.1552867889404297, 0.15169045329093933, 0.0807119756937027, 0.10940563678741455, 0.17448733747005463, 0.03069547936320305, 0.09771399945020676, -0.0167723149061203, 0.019939906895160675, 0.04204172268509865, -0.015120462514460087, -0.2472209930419922, 0.11451387405395508, -0.00764775276184082, 0.050948500633239746, -0.1981445550918579, -0.03867006301879883, 0.4346679449081421, 0.7305186986923218, 0.05744142085313797, 0.07886740565299988, 0.4532589316368103, 0.31588372588157654, 0.6075782179832458, 0.5195815563201904, -0.04643400385975838, -0.2222238928079605, -0.006068371701985598, -0.15956975519657135, 0.21684035658836365, -0.5606738328933716, 0.011962332762777805, -0.3909358084201813, 0.10953780263662338, -0.11607704311609268, 0.15028811991214752, -0.42224571108818054, 1.090833067893982, -0.5415419936180115, 1.6469075679779053, 0.035479478538036346, 0.9136776924133301, 0.03781126067042351, 0.12385906279087067, -0.2182827591896057, 0.0810074433684349, 0.16356469690799713, -0.31052082777023315, 0.17441587150096893, -0.38882023096084595, 0.00894853938370943, 0.6013344526290894, 0.04603084921836853, 0.3693905174732208, 0.17084863781929016, -0.3841004967689514, 0.4794978201389313, -0.15594053268432617, 0.26688268780708313, 0.1137557104229927, 0.10279954224824905, 0.13803352415561676, 0.24292701482772827, 0.09134246408939362, 0.25667259097099304, 0.03134944289922714, 0.08929400146007538, 0.30324316024780273, 0.8282049894332886, 0.7812694311141968, -0.8388118743896484, -0.8150670528411865, -0.8842182159423828, -0.444740891456604, -0.201857328414917, -0.28040817379951477, -0.7468502521514893, 0.4080737233161926, -0.14876271784305573, 1.2856662273406982, 0.2332509607076645, 0.3615160286426544, -0.5784027576446533, -0.40007975697517395, 0.5516089797019958, -0.20856766402721405, 0.9078927040100098, -0.3109515905380249, 0.7765186429023743, -0.45575788617134094, 0.3424237370491028, 0.13167202472686768, -0.25240206718444824, 0.38514935970306396, -1.1149239540100098, -0.2728736698627472, -0.45664599537849426, -0.11947476118803024, 0.15834304690361023, -0.300885945558548, 0.4087721109390259, -0.11067230254411697, 0.5844040513038635, 0.12232422828674316, 0.9135074019432068, 0.22222429513931274, 0.6500669121742249, 0.20785053074359894, -0.8564845323562622, 0.837361216545105, -0.23380646109580994, 0.9783074855804443, 0.1485307216644287, 0.33852189779281616, -0.18947851657867432, 0.17561708390712738, 0.04766783118247986, 0.1373143047094345, 0.15955963730812073, -0.32219550013542175, 0.00367059581913054, -0.07538078725337982, -0.06428320705890656, 0.5737525224685669, 0.20212222635746002, 0.4709976613521576, 0.33905890583992004, -0.04547624662518501, 0.3718125820159912, 0.14566466212272644, 0.24151475727558136, -0.10861166566610336, 0.24329662322998047, 0.041126929223537445, 0.3055742383003235, 0.08353163301944733, 0.3143436908721924, -0.004303855821490288, 0.1496208757162094, -0.4673217236995697, 0.24374283850193024, -0.6764209866523743, 0.47939616441726685, -0.042525552213191986, 1.0511949062347412, -0.35627251863479614, -0.09642980992794037, -0.038254354149103165, -0.4852611720561981, 0.9728859663009644, -0.26546281576156616, 1.576160192489624, -0.26940271258354187, 0.7262386083602905, -0.3266923129558563, -0.3053867220878601, 0.08187238872051239, -0.1935829073190689, -0.6320369839668274, -0.43841344118118286, -0.742081880569458, -0.4557321071624756, 0.2961859107017517, 0.5465845465660095, -0.7190351486206055, 1.0607997179031372, -0.25799646973609924, 0.8762659430503845, 0.21639226377010345, 0.7271294593811035, -0.04419553279876709, -0.46413156390190125, 0.18657733500003815, -0.34530237317085266, 0.9902862906455994, -0.6568963527679443, 1.1651859283447266, -0.7698414325714111, 0.5447803139686584, 0.6501235961914062, -0.2932201325893402, 0.4764149487018585, -0.3284491002559662, -0.1545935422182083, -0.08706790208816528, 0.46871182322502136, -0.29485684633255005, -0.28609776496887207, 0.42734917998313904, -0.03904516622424126, 0.5795238614082336, 0.038708992302417755, 0.3075673580169678, 0.09158740937709808, 0.34569597244262695, 0.22348405420780182, -0.11890748143196106, 0.3938198387622833, -0.24948638677597046, 0.5152009129524231, -0.07916626334190369, 0.2873256504535675, -0.09981189668178558, -0.25693097710609436, -0.22305941581726074, -0.5585931539535522, 0.3425118923187256, 0.49842125177383423, 0.46638253331184387, 0.012839196249842644, -0.3469405770301819, -0.18621870875358582, 0.020824506878852844, -0.14847366511821747, 0.6805463433265686, 0.07078655809164047, 0.33727550506591797, -0.1296476572751999, -0.1435546576976776, 0.16175828874111176, 0.21085992455482483, 0.8335418701171875, -1.2593520879745483, 0.7042754888534546, -0.704855740070343, 0.4028059244155884, 0.08022084832191467, -0.07157639414072037, 0.03097584657371044, -0.18440663814544678, 0.29527777433395386, 0.0011608453933149576, 0.5172377228736877, 0.09889301657676697, 0.021753249689936638, 0.21240220963954926, -0.5807467103004456, 0.08624834567308426, 0.8587098717689514, -0.13295023143291473, 0.6457065939903259, -0.3127567172050476, 0.13855969905853271, 0.11151507496833801, 0.473662793636322, -0.053713779896497726, 0.10968941450119019, -0.2742961645126343, 0.1455485075712204, 0.12264329940080643, 0.1040966734290123, -0.019060742110013962, 0.08310561627149582, 0.08489303290843964, -0.07380027323961258, 0.0887143537402153, -0.20870524644851685, 0.05988550931215286, -0.09806852787733078, 0.08127089589834213, 0.13900114595890045, -0.005555284209549427, 0.14493519067764282, 0.13991738855838776, 0.08353715389966965, 0.05241753160953522, 0.038672711700201035, -0.29502761363983154, -0.1987667828798294, -0.640313446521759, 0.03563819080591202, 0.13451963663101196, 0.42670175433158875, -0.1721211075782776, -0.27039188146591187, -0.19463510811328888, -0.3528954088687897, 0.1932910829782486, 0.26863226294517517, 0.7024662494659424, -0.3208870589733124, -0.16250671446323395, -0.2713540196418762, -0.1712932139635086, -0.08431296050548553, 0.3764544725418091, -1.493831753730774, 0.3145424723625183, -1.1977688074111938, -0.03531208634376526, 0.02227029576897621, 0.02035771869122982, -0.5462620854377747, 0.319966584444046, 0.03449070081114769, 0.2605437934398651, 0.5567542314529419, 0.45834654569625854, -0.052654996514320374, -0.19438937306404114, -0.7205615043640137, -0.2108776718378067, 0.9933136105537415, -0.5442178249359131, 0.8489603400230408, -0.7463346719741821, 0.1940765678882599, 0.28921613097190857, 0.032281044870615005, -0.011688675731420517, -0.1701263189315796, -0.44625043869018555, 0.005610900931060314, 0.15419454872608185, -0.067015640437603, -0.23513054847717285, 0.007671344559639692, -0.023119738325476646, 0.07255254685878754, 0.19164644181728363, -0.12304143607616425, 0.08625168353319168, 0.032382626086473465, -0.05495331436395645, -0.03631575033068657, -0.01028816495090723, 0.05439622700214386, 0.28643476963043213, 0.012113000266253948, 0.14153677225112915, -0.05641408637166023, 0.16363033652305603, 0.07629609853029251, 0.1458813101053238, -0.19524958729743958, -0.040754225105047226, -0.15213583409786224, -0.01343650370836258, 0.12325484305620193, 0.3209695816040039, -0.2662564814090729, 0.7570317983627319, 0.3039163053035736, 0.6840543150901794, 0.3184755742549896, 0.585163950920105, 0.21501995623111725, 0.09480264037847519, -0.6062377691268921, 0.8361658453941345, -0.9791973233222961, 0.4544903337955475, -0.5385658740997314, 0.1704588383436203, -0.022845149040222168, 0.4625450372695923, -0.03299778327345848, 0.7976976633071899, 0.4030407965183258, 0.729339063167572, 0.7627362012863159, 0.4293007254600525, 0.33698466420173645, 0.21429327130317688, -0.8035260438919067, 0.28443261981010437, 0.8934873938560486, -0.26992267370224, 0.7344711422920227, -0.5726611018180847, 0.1906842440366745, 0.11198490858078003, 0.04119822755455971, 0.09650716185569763, 0.055749546736478806, -0.06131827458739281, 0.49967294931411743, 0.11731388419866562, 0.2587139904499054, 0.06082741543650627, -0.0756491869688034, 0.1624588519334793, 0.3191720247268677, 0.5281743407249451, 0.3845426142215729, 0.2215171754360199, 0.08108752220869064, 0.0528336726129055, -0.049880143254995346, 0.003465211484581232, 0.0035516023635864258, 0.16271568834781647, 0.11233500391244888, 0.11355221271514893, 0.08330963551998138], [-0.8435088396072388, 0.3267638683319092, 0.6477532386779785, -0.11545455455780029, 0.22974073886871338, 0.4451805353164673, -0.9875789880752563, -0.164528489112854, -0.06470012664794922, 0.038843922317028046, -0.07770601660013199, 0.10940750688314438, 0.10134734213352203, 0.25609785318374634, 0.10146326571702957, 0.022166036069393158, -0.0516882948577404, 0.2053869217634201, 0.5074213147163391, 0.889365017414093, 0.28146204352378845, -0.21472908556461334, 0.0986587256193161, -0.06137692928314209, 0.11475253105163574, 0.03438091650605202, 0.03734186291694641, 0.009015648625791073, -0.043302156031131744, 0.12330801039934158, 0.11370517313480377, 0.12880997359752655, 0.08090460300445557, -0.06752422451972961, 0.0477641262114048, 0.14098221063613892, -0.013154537416994572, 0.16310909390449524, 0.033219315111637115, 0.1277056336402893, 0.2262468785047531, 0.26133182644844055, 0.1945766657590866, 0.10406241565942764, -0.009793867357075214, 0.03701702505350113, 0.015002353116869926, 0.11715345829725266, 0.2721095085144043, 0.14463351666927338, 0.03397723659873009, -0.005886579863727093, -0.06567922234535217, -0.00239090365357697, 0.0307929627597332, 0.09500748664140701, -0.9653103351593018, -0.4211292266845703, -0.7820827960968018, -0.24090957641601562, 0.36342060565948486, -0.8319323062896729, -0.04667818546295166, -0.9783802032470703, -0.22166776657104492, -0.14363151788711548, -0.036710575222969055, -0.02547343261539936, 0.0335923433303833, -0.000477460736874491, -0.1671617329120636, -0.094850555062294, -0.11772601306438446, -0.08993545174598694, -0.08637749403715134, -0.0755867138504982, -0.04127093777060509, -0.003983365371823311, -0.07851400971412659, -0.22725273668766022, -0.12094094604253769, 0.10232523083686829, 0.12255767732858658, 0.2650677263736725, -0.0969652310013771, 0.032304663211107254, -0.17321394383907318, -0.17794269323349, -0.05600178986787796, -0.10100176185369492, -0.007410032674670219, -0.10427236557006836, -0.03380445018410683, -0.05233900621533394, -0.03752748668193817, -0.16788806021213531, -0.13469678163528442, 0.052634090185165405, -0.08384958654642105, -0.12377403676509857, 0.004435730632394552, -0.03353145346045494, -0.13030503690242767, -0.11978082358837128, 0.02301906608045101, -0.0657162144780159, 0.09690198302268982, -0.11685637384653091, -0.07381340116262436, -0.0829913392663002, -0.1322794258594513, -0.056888796389102936, 0.03720567747950554, -0.07951591908931732, -0.09679064154624939, -0.11896307021379471, -0.13021720945835114, -0.15548692643642426, -0.06237419322133064, -0.0781988725066185, -0.14157123863697052, -0.09961636364459991, -0.1204863116145134, -0.1340228170156479, -0.09280834347009659, -0.07192075997591019, -0.32312193512916565, -0.2574171721935272, -0.13045795261859894, -0.1792961061000824, -0.2650910019874573, -0.18128740787506104, -0.10550829768180847, 0.12103062123060226, -0.23262394964694977, -0.27916231751441956, -0.13866102695465088, -0.10710194706916809, -0.2644183039665222, -0.10231705754995346, 0.0036954418756067753, 0.12491475045681, -0.23941096663475037, -0.28435707092285156, -0.18593136966228485, -0.2351025938987732, 0.1479334831237793, 0.4682408571243286, 0.04260841757059097, -0.13747982680797577, -0.12694483995437622, -0.29921799898147583, -0.26935887336730957, -0.2247018963098526, -0.13626739382743835, 0.09535388648509979, -0.016487421467900276, -0.016698021441698074, -0.13450175523757935, -0.39992526173591614, -0.218780055642128, 0.16048502922058105, -0.0026324817445129156, -0.18382282555103302, -0.005237809848040342, -0.14959359169006348, -0.09288482367992401, -0.19780988991260529, -0.03525081276893616, 0.0008740594494156539, 0.06145038455724716, -0.09220276027917862, -0.18689322471618652, -0.05024024099111557, -0.03524109348654747, -0.17043326795101166, -0.06473997235298157, -0.08471306413412094, -0.04907865449786186, -0.0695856586098671, -0.10573896020650864, -0.12755054235458374, -0.0740184485912323, -0.12301604449748993, -0.12928323447704315, -0.1283458173274994, -0.13928265869617462, -0.08903522789478302, -0.044112429022789, -0.15579082071781158, -0.19923074543476105, -0.2516423761844635, -0.23003417253494263, -0.2876528799533844, -0.23180343210697174, -0.2451152354478836, -0.16082607209682465, -0.37506258487701416, -0.3334609866142273, -0.3162776231765747, -0.3265111446380615, -0.11136924475431442, -0.18444423377513885, -0.141044482588768, -0.13002365827560425, -0.2688450515270233, -0.4295409619808197, -0.5014346837997437, -0.107354536652565, -0.1197260171175003, 0.08182467520236969, 0.23420171439647675, -0.20225977897644043, -0.49148568511009216, -0.3428540825843811, -0.3535694181919098, -0.2276511788368225, -0.24851232767105103, -0.12421447783708572, -0.14188723266124725, -0.16123861074447632, -0.26269036531448364, -0.342835932970047, -0.2616068422794342, -0.08126286417245865, 0.021101493388414383, 0.060436852276325226, -0.16699247062206268, -0.0746929943561554, -0.22421720623970032, -0.16341249644756317, -0.1922641098499298, -0.17404192686080933, -0.19554562866687775, -0.17776212096214294, -0.24205687642097473, -0.1247938722372055, -0.16777624189853668, -0.18596898019313812, -0.1978178471326828, -0.1683828979730606, -0.16845987737178802, -0.20164161920547485, -0.21452021598815918, -0.12488776445388794, -0.15678243339061737, -0.134795680642128, -0.15630364418029785, -0.17915014922618866, -0.1964244842529297, -0.19929209351539612, -0.19346141815185547, -0.1700562983751297, -0.2350476235151291, -0.18996280431747437, -0.19202902913093567, -0.6009994149208069, -0.5894069671630859, -0.5325402617454529, -0.6146253347396851, -0.46863043308258057, -0.46841269731521606, -0.3973667025566101, -0.6312514543533325, -0.5271429419517517, -0.39521893858909607, -0.4711996614933014, -0.3720802664756775, -0.4026496112346649, -0.3683517277240753, -0.5070831179618835, -0.5529121160507202, -0.38700464367866516, -0.4562593400478363, -0.28386586904525757, 0.02097163163125515, -0.4666220545768738, -0.5311211347579956, -0.5895922183990479, -0.6341444849967957, -0.4804382920265198, -0.5744991898536682, -0.4556540548801422, -0.34100452065467834, -0.49767255783081055, -0.4364483058452606, -0.7478125095367432, -0.7823953032493591, -0.4580036997795105, -0.17831875383853912, -0.3003138601779938, -0.37208524346351624, -0.47384074330329895, -0.6838997602462769, -0.45293810963630676, -0.8461078405380249, -0.5537316203117371, -0.47022101283073425, -0.43399468064308167, -0.5370650887489319, -0.5500342845916748, -0.6054813861846924, -0.5237290263175964, -0.7499321699142456, -0.5011047720909119, -0.5287131071090698, -0.5181591510772705, -0.5833064913749695, -0.546319842338562, -0.47098463773727417, -0.6349676847457886, -0.6164730787277222, -0.5964012742042542, -0.5179492831230164, -0.4501974880695343, -0.734603762626648, -0.5355650782585144, -0.49561330676078796, -0.39828309416770935, -0.5566360354423523, 0.10156543552875519, 0.2951064705848694, 0.25216883420944214, 0.07589636743068695, -0.1464957296848297, 0.020159441977739334, 0.15762968361377716, 0.21043439209461212, 0.03965695947408676, -0.05641576275229454, -0.19140708446502686, -0.0169852152466774, -0.05442723259329796, 0.22019656002521515, 0.13307005167007446, 0.1492614448070526, -0.1326703578233719, -0.15381449460983276, 0.2134820818901062, 0.8300430178642273, 0.4097903370857239, 0.07981855422258377, 0.24523700773715973, 0.09260205924510956, -0.08974818140268326, 0.02003563567996025, 0.2160327285528183, 0.33857107162475586, 0.21648839116096497, 0.33651676774024963, 0.17099587619304657, -0.008126676082611084, 0.1321008950471878, 0.17712748050689697, 0.25829339027404785, 0.16703693568706512, 0.03280095010995865, 0.030679333955049515, 0.0523688867688179, 0.11678862571716309, 0.14375993609428406, 0.15363353490829468, 0.06594116985797882, 0.010968529619276524, -0.09785988181829453, -0.09298153966665268, -0.031165052205324173, 0.03768704831600189, -0.01948058232665062, 0.27166590094566345, -0.0061560156755149364, -0.08118834346532822, -0.18100664019584656, -0.27141237258911133, 0.21397024393081665, -0.047307807952165604, 0.008531474508345127, 0.09686385840177536, -0.18860270082950592, -0.051503296941518784, -0.17567698657512665, -0.06705963611602783, 0.07050224393606186, -0.08658766746520996, -0.6768800020217896, -0.7891227006912231, 0.7227292060852051, 0.10924136638641357, -0.002213120460510254, -0.9667149782180786, 0.8773930072784424, -0.6610598564147949, 0.06192343309521675, 0.3541422188282013, 0.7564742565155029, 0.028065910562872887, 0.3365080654621124, 0.21063797175884247, -0.3487332761287689, -0.7618907690048218, -0.07285411655902863, -0.63518226146698, -0.2049839198589325, -0.8155385851860046, 0.11551415175199509, 0.48592233657836914, 0.14759989082813263, -0.34609442949295044, 0.6179891228675842, 0.25722652673721313, 1.2858622074127197, 0.4513445496559143, 0.25970369577407837, 0.14479057490825653, -0.5613266229629517, -0.18106134235858917, 0.30890005826950073, 0.589187741279602, 0.16755370795726776, 0.11436961591243744, -0.008699444122612476, 0.12768177688121796, 0.2965174913406372, 0.11793866753578186, -0.3622705936431885, -0.0020281134638935328, -0.19903947412967682, -0.09038625657558441, 0.45259174704551697, -0.09187828004360199, 0.4075751006603241, -0.09319765120744705, 0.04949985817074776, 0.10984211415052414, 0.19872793555259705, 0.026844508945941925, 0.1757313311100006, 0.07678543031215668, 0.14312714338302612, 0.08332692831754684, 0.36051785945892334, -0.8775056600570679, -0.11359584331512451, -0.29679811000823975, 0.6443121433258057, -0.0938040018081665, -0.052744507789611816, 0.8895711898803711, -0.2327842116355896, -0.10697950422763824, 0.6545329093933105, 0.21676316857337952, 0.37591928243637085, 0.17227356135845184, -0.6551932692527771, -0.5352166295051575, 0.402653306722641, 0.7519041299819946, 0.13518382608890533, 0.16151143610477448, -0.022414665669202805, 0.8773484230041504, -0.10109877586364746, -0.6367360949516296, -0.6374431848526001, -1.0952379703521729, -0.5810974836349487, -1.0885440111160278, 0.0013596832286566496, 0.24232997000217438, 0.3210938572883606, 0.09325893968343735, 0.22590523958206177, 0.09723835438489914, -0.18244044482707977, 0.07412875443696976, 0.25429436564445496, 0.6367393732070923, 0.07767509669065475, -0.22640360891819, 0.579802930355072, 0.592848539352417, 1.1701979637145996, 0.15295638144016266, 0.7380247712135315, -0.4214375615119934, 0.11788108944892883, 0.3511592149734497, 0.0822901725769043, 0.5367079973220825, 0.02635597065091133, 0.05252053216099739, -0.19964344799518585, 0.39535632729530334, 0.3327907621860504, 0.3672248423099518, -0.09390448778867722, 0.21193143725395203, 0.2155335694551468, 0.2808607518672943, 0.4193572402000427, 0.1244933158159256, 0.3283204138278961, 0.21143725514411926, 0.04799588769674301, 0.26531675457954407, 0.16405978798866272, 0.1583566665649414, 0.25894787907600403, 0.1659647524356842, 0.2824974060058594, 0.12688134610652924, -0.19932664930820465, 0.4900570213794708, -0.515334963798523, -0.030272427946329117, 0.24275720119476318, 0.47032174468040466, -0.5037099719047546, -0.4993149936199188, 0.28331202268600464, 0.1436658650636673, 1.5343787670135498, 0.19916315376758575, 0.32514721155166626, -0.12320657074451447, 0.07777398824691772, -0.28137052059173584, -0.05687941983342171, -0.48384517431259155, -0.9004164934158325, -1.1402474641799927, -0.5438832640647888, 0.8660136461257935, 0.013818400911986828, 0.02591148391366005, -0.0408145897090435, -0.5115119814872742, 0.6974256038665771, 0.24743521213531494, 0.5181071758270264, -0.0717160776257515, 0.21748119592666626, -0.07190410047769547, -0.0475752018392086, 1.2369608879089355, 0.04543624445796013, 0.19701573252677917, 0.17534597218036652, -0.0766836628317833, 0.41949254274368286, 0.3223908841609955, 0.23164582252502441, -0.15107867121696472, 0.05708105489611626, -0.021323956549167633, 0.5970417261123657, -0.036922670900821686, 0.35508400201797485, -0.06592106074094772, -0.10751967877149582, 0.3490874767303467, 0.2684928774833679, 0.4352973401546478, 0.07603900879621506, 0.37641066312789917, 0.14409299194812775, 0.3188093602657318, 0.18818144500255585, 0.09449736028909683, 0.43085235357284546, -0.1550285667181015, 0.069282166659832, 0.12047042697668076, 0.3298279047012329, 0.04063029587268829, -0.16856229305267334, -0.014203139580786228, -0.4912143051624298, 0.2648039758205414, 0.5078086256980896, 0.3245328366756439, -0.17707940936088562, -0.40298840403556824, -0.16970913112163544, -0.10390494763851166, 0.3152105212211609, 0.3867871165275574, -0.11996768414974213, -0.10081358253955841, -0.1911689043045044, -0.39366745948791504, 0.29422086477279663, -0.5051550269126892, -0.11574066430330276, -0.9381866455078125, 0.3048880398273468, 1.1104848384857178, 0.2527506947517395, 0.0497543141245842, 0.13056665658950806, -0.13342854380607605, -0.1905728131532669, 0.9368798136711121, 0.10196613520383835, 0.27553364634513855, -0.06761394441127777, 0.05534760281443596, 0.05629944056272507, 0.7895575761795044, 0.1579316109418869, -0.17659762501716614, 0.16359096765518188, -0.5055841207504272, 0.422870934009552, 0.0712595209479332, 0.07472109794616699, 0.2203337550163269, 0.05151465907692909, 0.16107892990112305, 0.018487920984625816, 0.15451423823833466, 0.06295210123062134, 0.05702298507094383, 0.05325929448008537, -0.013812308199703693, 0.11539007723331451, 0.28793472051620483, -0.06546641141176224, -0.016742626205086708, -0.02557515725493431, 0.023269126191735268, 0.21388240158557892, 0.08259893953800201, -0.11461033672094345, 0.21356187760829926, 0.22981755435466766, 0.1899760514497757, 0.10765733569860458, 0.14814555644989014, -0.4127664268016815, -0.40022799372673035, -0.8846542239189148, -0.2233325093984604, 0.04031597450375557, 0.02944294922053814, -0.609858512878418, -0.4844483733177185, -0.2518801689147949, -0.5483176112174988, 0.8455245494842529, 0.07325120270252228, -0.3344613313674927, -0.4901238977909088, -0.5301318168640137, -0.4340706765651703, -0.2813061475753784, -1.515662431716919, -1.2121596336364746, -1.9091720581054688, -0.2929934859275818, 1.0679831504821777, -0.10443033277988434, -0.34139102697372437, -0.45612770318984985, -0.7127264142036438, -0.1522630751132965, 0.49064901471138, -0.04273730516433716, -0.19902493059635162, -0.27456480264663696, -0.19490867853164673, -0.3271655738353729, 1.0650253295898438, -0.1339861899614334, -0.44886156916618347, -0.1167982891201973, -0.7399497628211975, 0.30945634841918945, -0.026538895443081856, -0.1817338913679123, -0.38363218307495117, -0.36127570271492004, -0.2670525014400482, 0.1237463504076004, -0.11014986038208008, -0.05252477154135704, -0.24289348721504211, -0.43135061860084534, -0.21059437096118927, -0.1625659018754959, 0.12196695059537888, -0.17573130130767822, -0.048600517213344574, -0.12215069681406021, 0.019864385947585106, -0.0717175230383873, -0.2740219235420227, -0.2122722864151001, -0.18556110560894012, -0.06364129483699799, -0.001300920732319355, 0.012332431972026825, -0.08504405617713928, -0.11170320957899094, -0.40046924352645874, -0.36482882499694824, -0.5087659358978271, -0.24208573997020721, -0.24481552839279175, -0.13946375250816345, -0.15176056325435638, 0.31145572662353516, 0.4040360748767853, 1.054368257522583, 0.44053906202316284, 0.09557654708623886, -0.3978087604045868, -0.46156734228134155, -0.04314964637160301, -0.03231064975261688, -0.6873008608818054, -0.0709492564201355, -1.0204644203186035, -0.3496829569339752, 0.03293829783797264, -0.28399455547332764, -0.08556101471185684, -0.11621801555156708, -0.19304707646369934, 0.6192059516906738, 0.7312272787094116, 0.37724778056144714, -0.18640121817588806, -0.39413100481033325, -0.243858203291893, -0.3384421765804291, 0.8183234333992004, 0.024053091183304787, -0.6142956018447876, 0.31671881675720215, -0.4127057194709778, 0.5562410354614258, -0.10626713931560516, -0.5821855664253235, -0.6141610741615295, -0.4093572795391083, -0.23250670731067657, 0.29908955097198486, 0.09200996160507202, -0.021168125793337822, -0.2848135232925415, -0.058221280574798584, -0.2039918303489685, -0.09091772884130478, 0.1364074945449829, 0.13298408687114716, 0.0361577570438385, -0.12036506086587906, -0.20629726350307465, -0.13394112884998322, -0.18207384645938873, -0.2204415649175644, -0.22248202562332153, 0.06758838891983032, -0.07116078585386276, -0.1917724311351776, -0.2024228721857071], [0.05790674686431885, -0.7550992965698242, 0.2716989517211914, -0.8587237596511841, -0.40850400924682617, 0.6958980560302734, 0.938054084777832, -0.07818412780761719, 0.2806257903575897, 0.1628088653087616, -0.08837106823921204, -0.042692817747592926, 0.07338730990886688, -0.01094834879040718, 0.14288584887981415, -0.034879062324762344, 0.09788184612989426, -0.11863791197538376, -0.7064099311828613, -0.22581741213798523, -0.1100056990981102, -0.2171943187713623, 0.20054157078266144, -0.04288162291049957, 0.15607094764709473, -0.020001130178570747, 0.101519376039505, -0.2345893234014511, -0.10625018179416656, -0.022242272272706032, 0.12640172243118286, -0.016417669132351875, 0.13113057613372803, -0.19369877874851227, -0.06298857182264328, -0.29445093870162964, -0.17659398913383484, 0.06115307658910751, 0.028827248141169548, 0.024719540029764175, 0.13174918293952942, 0.06970527023077011, 0.17042919993400574, 0.1927253007888794, 0.06939965486526489, 0.14564886689186096, 0.05555884167551994, 0.020555278286337852, -0.03743371739983559, 0.22428473830223083, 0.056387532502412796, 0.056373391300439835, 0.04643675312399864, 0.0522225946187973, 0.0993838906288147, 0.08013242483139038, 0.14327025413513184, -0.7419639825820923, 0.5340367555618286, 0.42744648456573486, -0.3823317289352417, -0.3704448938369751, -0.4744914770126343, 0.7816963195800781, -0.2214265912771225, -0.10706125199794769, -0.10310932248830795, -0.22514057159423828, -0.16549469530582428, -0.20987899601459503, -0.3270311653614044, -0.32332417368888855, -0.19879893958568573, -0.24207347631454468, -0.2873969078063965, -0.3440309166908264, -0.20533081889152527, -0.1897161304950714, -0.1856488585472107, -0.36029428243637085, -0.22327254712581635, -0.3539886176586151, -0.3116229772567749, -0.2540144622325897, -0.21267877519130707, -0.21797992289066315, 